{"learner":{"attributes":{"best_iteration":"24","best_ntree_limit":"25","scikit_learn":"{\"n_estimators\": 100, \"objective\": \"reg:squarederror\", \"max_depth\": null, \"max_leaves\": null, \"max_bin\": null, \"grow_policy\": null, \"learning_rate\": null, \"verbosity\": null, \"booster\": null, \"tree_method\": null, \"gamma\": null, \"min_child_weight\": null, \"max_delta_step\": null, \"subsample\": null, \"sampling_method\": null, \"colsample_bytree\": null, \"colsample_bylevel\": null, \"colsample_bynode\": null, \"reg_alpha\": null, \"reg_lambda\": null, \"scale_pos_weight\": null, \"base_score\": null, \"missing\": NaN, \"num_parallel_tree\": null, \"random_state\": null, \"n_jobs\": null, \"monotone_constraints\": null, \"interaction_constraints\": null, \"importance_type\": null, \"gpu_id\": null, \"validate_parameters\": null, \"predictor\": null, \"enable_categorical\": false, \"feature_types\": null, \"max_cat_to_onehot\": null, \"max_cat_threshold\": null, \"eval_metric\": null, \"early_stopping_rounds\": null, \"callbacks\": null, \"_estimator_type\": \"regressor\"}"},"feature_names":[],"feature_types":[],"gradient_booster":{"model":{"gbtree_model_param":{"num_parallel_tree":"1","num_trees":"25","size_leaf_vector":"0"},"tree_info":[0,0,0,0,0,0,0,0,0,0,0,0,0,0,0,0,0,0,0,0,0,0,0,0,0],"trees":[{"base_weights":[4.266687E0,3.4649897E0,5.047843E0,2.9998226E0,3.8624222E0,4.559609E0,5.3454275E0,2.8002176E0,3.2636251E0,3.4952755E0,3.949342E0,4.6692853E0,4.108209E0,5.0609136E0,5.4684677E0,2.8877692E0,2.6126692E0,3.3569052E0,2.9870968E0,3.5925374E0,3.1146617E0,4.0208287E0,3.6270492E0,4.519719E0,4.8075166E0,5.1844306E0,4.665794E0,5.6335187E0,5.2800236E0,2.7143784E0,2.980524E0,3.025E0,3.4208777E0,3.898164E0,4.1621757E0,5.5063443E0,5.72927E0,4.9811645E0,5.4333534E0],"categories":[],"categories_nodes":[],"categories_segments":[],"categories_sizes":[],"default_left":[1,1,1,0,1,1,1,1,1,1,1,1,0,1,1,0,0,1,0,0,0,1,0,0,0,0,0,1,1,0,0,0,0,0,0,0,0,0,0],"id":0,"left_children":[1,3,5,7,9,11,13,15,17,19,21,23,-1,25,27,29,-1,31,-1,-1,-1,33,-1,-1,-1,-1,-1,35,37,-1,-1,-1,-1,-1,-1,-1,-1,-1,-1],"loss_changes":[1.5491625E4,2.2484844E3,1.7977188E3,2.876875E2,1.9646875E2,2.1628125E2,2.44875E2,4.5259766E1,5.2447266E1,3.5825195E1,1.07984375E2,5.7226562E1,0E0,9.118359E1,1.3892188E2,2.7019531E1,0E0,2.7933594E1,0E0,0E0,0E0,5.9109375E1,0E0,0E0,0E0,0E0,0E0,3.4765625E0,8.969531E1,0E0,0E0,0E0,0E0,0E0,0E0,0E0,0E0,0E0,0E0],"parents":[2147483647,0,0,1,1,2,2,3,3,4,4,5,5,6,6,7,7,8,8,9,9,10,10,11,11,13,13,14,14,15,15,17,17,21,21,27,27,28,28],"right_children":[2,4,6,8,10,12,14,16,18,20,22,24,-1,26,28,30,-1,32,-1,-1,-1,34,-1,-1,-1,-1,-1,36,38,-1,-1,-1,-1,-1,-1,-1,-1,-1,-1],"split_conditions":[2.6352355E0,7.4881756E-1,5.003525E0,6.145E1,1.003443E0,5E-1,6.180825E0,5E-1,5E-1,5E-1,5E-1,9.995E1,1.2324628E0,5E-1,5E-1,3.645E0,7.838008E-1,2.8337336E-1,8.961291E-1,1.0777613E0,9.3439853E-1,8.425E1,1.0881149E0,1.3559158E0,1.442255E0,1.5553292E0,1.3997382E0,1.22149994E2,7.982368E0,8.1431353E-1,8.9415723E-1,9.075001E-1,1.0262634E0,1.1694492E0,1.2486527E0,1.6519034E0,1.7187811E0,1.4943494E0,1.6300061E0],"split_indices":[0,0,0,2,0,3,0,3,3,3,3,2,0,3,3,1,0,0,0,0,0,2,0,0,0,0,0,2,0,0,0,0,0,0,0,0,0,0,0],"split_type":[0,0,0,0,0,0,0,0,0,0,0,0,0,0,0,0,0,0,0,0,0,0,0,0,0,0,0,0,0,0,0,0,0,0,0,0,0,0,0],"sum_hessian":[2.4764E4,1.2224E4,1.254E4,5.636E3,6.588E3,4.755E3,7.785E3,3.215E3,2.421E3,1.269E3,5.319E3,3.818E3,9.37E2,2.363E3,5.422E3,2.182E3,1.033E3,1.802E3,6.19E2,1.004E3,2.65E2,4.344E3,9.75E2,1.85E3,1.968E3,1.791E3,5.72E2,2.875E3,2.547E3,7.71E2,1.411E3,2.99E2,1.503E3,2.341E3,2.003E3,1.26E3,1.615E3,8.75E2,1.672E3],"tree_param":{"num_deleted":"0","num_feature":"4","num_nodes":"39","size_leaf_vector":"0"}},{"base_weights":[2.9876628E0,2.4124722E0,3.5222814E0,2.0521088E0,2.6558685E0,3.1822753E0,3.7437842E0,1.9341279E0,2.227619E0,2.4552515E0,2.769429E0,3.2588143E0,2.8699129E0,3.5831823E0,3.8563566E0,1.9919121E0,1.8086169E0,2.2915895E0,2.0446522E0,2.5225577E0,2.2054577E0,2.8233244E0,2.5312338E0,3.1627216E0,3.4071116E0,3.680082E0,3.299047E0,3.9774845E0,3.734867E0,1.8635988E0,2.0474057E0,2.1387157E0,2.3389904E0,1.8598937E0,2.0875041E0,2.3519242E0,2.5534036E0,2.7369528E0,2.897271E0,2.960318E0,3.1921957E0,3.5930517E0,3.8254015E0,3.550351E0,3.810318E0],"categories":[],"categories_nodes":[],"categories_segments":[],"categories_sizes":[],"default_left":[1,1,1,0,1,1,1,1,1,1,1,1,0,1,1,0,0,1,1,0,0,1,0,0,0,1,0,0,0,0,0,0,0,0,0,0,0,0,0,0,0,0,0,0,0],"id":1,"left_children":[1,3,5,7,9,11,13,15,17,19,21,23,-1,25,27,29,-1,31,33,35,-1,37,-1,39,-1,41,-1,-1,43,-1,-1,-1,-1,-1,-1,-1,-1,-1,-1,-1,-1,-1,-1,-1,-1],"loss_changes":[7.606922E3,1.0412109E3,9.545625E2,9.5396484E1,1.5538672E2,1.1183594E2,1.2657031E2,1.733496E1,1.7892578E1,3.784668E1,5.111328E1,4.713672E1,0E0,7.635156E1,5.2132812E1,1.019043E1,0E0,5.2944336E0,1.472168E-1,4.663086E0,0E0,1.5652344E1,0E0,5.345703E0,0E0,1.6457031E1,0E0,0E0,1.8335938E1,0E0,0E0,0E0,0E0,0E0,0E0,0E0,0E0,0E0,0E0,0E0,0E0,0E0,0E0,0E0,0E0],"parents":[2147483647,0,0,1,1,2,2,3,3,4,4,5,5,6,6,7,7,8,8,9,9,10,10,11,11,13,13,14,14,15,15,17,17,18,18,19,19,21,21,23,23,25,25,28,28],"right_children":[2,4,6,8,10,12,14,16,18,20,22,24,-1,26,28,30,-1,32,34,36,-1,38,-1,40,-1,42,-1,-1,44,-1,-1,-1,-1,-1,-1,-1,-1,-1,-1,-1,-1,-1,-1,-1,-1],"split_conditions":[2.5010781E0,5.7359153E-1,5.017215E0,5.755E0,1.0965317E0,5E-1,6.657221E0,5E-1,5E-1,5E-1,5E-1,4.006927E0,8.609739E-1,5E-1,5E-1,3.315E0,5.425851E-1,2.505185E-1,2.4504268E-1,6.995E1,6.616373E-1,1.6441131E0,7.5937015E-1,9.1350006E1,1.0221336E0,5.9946475E0,9.8971415E-1,1.1932454E0,1.2825E2,5.5907965E-1,6.1422175E-1,6.4161474E-1,7.016972E-1,5.5796814E-1,6.262513E-1,7.0557725E-1,7.6602113E-1,8.210859E-1,8.6918133E-1,8.8809544E-1,9.576587E-1,1.0779155E0,1.1476206E0,1.0651053E0,1.1430955E0],"split_indices":[0,0,0,1,0,3,0,3,3,3,3,0,0,3,3,1,0,0,0,2,0,0,0,2,0,0,0,0,2,0,0,0,0,0,0,0,0,0,0,0,0,0,0,0,0],"split_type":[0,0,0,0,0,0,0,0,0,0,0,0,0,0,0,0,0,0,0,0,0,0,0,0,0,0,0,0,0,0,0,0,0,0,0,0,0,0,0,0,0,0,0,0,0],"sum_hessian":[2.4764E4,1.1932E4,1.2832E4,4.814E3,7.118E3,5.068E3,7.764E3,2.886E3,1.928E3,2.581E3,4.537E3,4.063E3,1.005E3,3.213E3,4.551E3,1.966E3,9.2E2,1.42E3,5.08E2,2.026E3,5.55E2,3.691E3,8.46E2,2.479E3,1.584E3,2.387E3,8.26E2,2.263E3,2.288E3,6.04E2,1.362E3,3.47E2,1.073E3,1.04E2,4.04E2,3.22E2,1.704E3,1.72E3,1.971E3,3.28E2,2.151E3,1.509E3,8.78E2,6.78E2,1.61E3],"tree_param":{"num_deleted":"0","num_feature":"4","num_nodes":"45","size_leaf_vector":"0"}},{"base_weights":[2.092138E0,1.7204087E0,2.5017464E0,1.5041032E0,1.9462196E0,2.296049E0,2.6480145E0,1.3908728E0,1.6610887E0,1.8792568E0,2.0502317E0,2.3465722E0,2.0942397E0,2.7188296E0,2.5514963E0,1.3333703E0,1.501107E0,1.7137711E0,1.4958621E0,1.915091E0,1.7268927E0,2.0860245E0,1.8690162E0,2.266516E0,2.4368298E0,2.009013E0,2.1867082E0,2.5546446E0,2.7718897E0,2.3536768E0,2.6570244E0,1.3710626E0,1.251292E0,1.5447557E0,1.3891187E0,1.6145597E0,1.740647E0,1.8239093E0,1.9565216E0,1.9870018E0,2.1219623E0,2.1481588E0,2.5692396E0,2.7175007E0,2.8463185E0,2.2712765E0,2.4771612E0,2.5698948E0,2.7161398E0],"categories":[],"categories_nodes":[],"categories_segments":[],"categories_sizes":[],"default_left":[1,1,0,1,0,1,1,1,1,1,1,0,1,1,1,1,1,1,0,0,0,1,0,0,0,0,0,1,1,0,0,0,0,0,0,0,0,0,0,0,0,0,0,0,0,0,0,0,0],"id":2,"left_children":[1,3,5,7,9,11,13,15,17,19,21,23,25,27,29,31,33,35,-1,37,-1,39,-1,-1,-1,-1,-1,41,43,45,47,-1,-1,-1,-1,-1,-1,-1,-1,-1,-1,-1,-1,-1,-1,-1,-1,-1,-1],"loss_changes":[3.7665E3,6.313594E2,3.4833594E2,1.1566699E2,4.0375E1,4.5078125E1,4.007422E1,2.2479004E1,2.1600098E1,1.7848633E1,1.2161133E1,2.2751953E1,3.4169922E0,2.7347656E1,5.484961E1,6.163574E0,4.286621E0,2.7836914E0,0E0,8.248047E0,0E0,3.1113281E0,0E0,0E0,0E0,0E0,0E0,2.8320312E-1,4.3066406E0,4.823242E0,2.8105469E0,0E0,0E0,0E0,0E0,0E0,0E0,0E0,0E0,0E0,0E0,0E0,0E0,0E0,0E0,0E0,0E0,0E0,0E0],"parents":[2147483647,0,0,1,1,2,2,3,3,4,4,5,5,6,6,7,7,8,8,9,9,10,10,11,11,12,12,13,13,14,14,15,15,16,16,17,17,19,19,21,21,27,27,28,28,29,29,30,30],"right_children":[2,4,6,8,10,12,14,16,18,20,22,24,26,28,30,32,34,36,-1,38,-1,40,-1,-1,-1,-1,-1,42,44,46,48,-1,-1,-1,-1,-1,-1,-1,-1,-1,-1,-1,-1,-1,-1,-1,-1,-1,-1],"split_conditions":[2.9939013E0,9.4320893E-1,1.1175E2,6.795E0,8.745E1,5E-1,5E-1,5.795E1,5E-1,5E-1,5E-1,1.03649994E2,4.365593E0,6.000123E0,7.514186E0,5E-1,5E-1,4.42172E-1,4.4875866E-1,7.8350006E1,5.1806784E-1,2.0794404E0,5.607049E-1,6.799548E-1,7.3104894E-1,6.027039E-1,6.560125E-1,4.06853E0,1.2475E2,2.3975E1,3.0025E1,4.113188E-1,3.753876E-1,4.6342674E-1,4.1673562E-1,4.843679E-1,5.221941E-1,5.471728E-1,5.869565E-1,5.9610057E-1,6.365887E-1,6.444477E-1,7.707719E-1,8.152502E-1,8.538956E-1,6.8138295E-1,7.431484E-1,7.709685E-1,8.14842E-1],"split_indices":[0,0,2,1,2,3,3,2,3,3,3,2,0,0,0,3,3,0,0,2,0,0,0,0,0,0,0,0,2,1,1,0,0,0,0,0,0,0,0,0,0,0,0,0,0,0,0,0,0],"split_type":[0,0,0,0,0,0,0,0,0,0,0,0,0,0,0,0,0,0,0,0,0,0,0,0,0,0,0,0,0,0,0,0,0,0,0,0,0,0,0,0,0,0,0,0,0,0,0,0,0],"sum_hessian":[2.4764E4,1.2985E4,1.1779E4,6.636E3,6.349E3,4.902E3,6.877E3,3.861E3,2.775E3,3.874E3,2.475E3,3.912E3,9.9E2,3.951E3,2.926E3,2.546E3,1.315E3,2.097E3,6.78E2,3.127E3,7.47E2,2.058E3,4.17E2,2.087E3,1.825E3,5.27E2,4.63E2,9.77E2,2.974E3,1.026E3,1.9E3,1.734E3,8.12E2,9.37E2,3.78E2,4.6E2,1.637E3,9.91E2,2.136E3,5.63E2,1.495E3,3.9E1,9.38E2,1.74E3,1.234E3,6.27E2,3.99E2,7.86E2,1.114E3],"tree_param":{"num_deleted":"0","num_feature":"4","num_nodes":"49","size_leaf_vector":"0"}},{"base_weights":[1.4651157E0,1.2049212E0,1.752149E0,1.0560153E0,1.3665466E0,1.6272211E0,1.872734E0,9.5742524E-1,1.1488624E0,1.3139353E0,1.4315622E0,1.6644964E0,1.4843069E0,1.9282818E0,1.8049594E0,8.9058864E-1,9.985118E-1,1.1844581E0,1.0392109E0,1.3356075E0,1.2154318E0,1.4598863E0,1.2991812E0,1.6039888E0,1.7523282E0,1.427213E0,1.5823516E0,1.8898017E0,2.0141442E0,1.6907643E0,1.8775921E0,7.5451255E-1,9.0242374E-1,9.650869E-1,1.0852679E0,1.1132215E0,1.2297584E0,1.0287703E0,1.2328882E0,1.2953004E0,1.3780166E0,1.4134593E0,1.4963694E0,1.5533894E0,1.6313211E0,1.9041457E0,1.7121172E0,1.5792158E0,1.740522E0],"categories":[],"categories_nodes":[],"categories_segments":[],"categories_sizes":[],"default_left":[1,1,0,0,1,1,1,0,1,1,1,0,1,1,1,0,1,1,0,0,0,1,0,0,0,0,0,0,0,0,0,0,0,0,0,0,0,0,0,0,0,0,0,0,0,0,0,0,0],"id":3,"left_children":[1,3,5,7,9,11,13,15,17,19,21,23,25,27,29,31,33,35,37,39,-1,41,-1,43,-1,-1,-1,45,-1,47,-1,-1,-1,-1,-1,-1,-1,-1,-1,-1,-1,-1,-1,-1,-1,-1,-1,-1,-1],"loss_changes":[1.8474492E3,3.1125977E2,1.743086E2,6.084326E1,1.9419922E1,2.837207E1,1.9046875E1,8.139893E0,1.2352051E1,5.7504883E0,8.504395E0,2.1550781E1,4.498047E0,7.0097656E0,1.9311523E1,1.3499146E0,4.833618E0,7.0856934E0,4.725952E-1,3.0371094E0,0E0,1.7421875E0,0E0,1.2363281E0,0E0,0E0,0E0,2.543457E0,0E0,3.1567383E0,0E0,0E0,0E0,0E0,0E0,0E0,0E0,0E0,0E0,0E0,0E0,0E0,0E0,0E0,0E0,0E0,0E0,0E0,0E0],"parents":[2147483647,0,0,1,1,2,2,3,3,4,4,5,5,6,6,7,7,8,8,9,9,10,10,11,11,12,12,13,13,14,14,15,15,16,16,17,17,18,18,19,19,21,21,23,23,27,27,29,29],"right_children":[2,4,6,8,10,12,14,16,18,20,22,24,26,28,30,32,34,36,38,40,-1,42,-1,44,-1,-1,-1,46,-1,48,-1,-1,-1,-1,-1,-1,-1,-1,-1,-1,-1,-1,-1,-1,-1,-1,-1,-1,-1],"split_conditions":[2.9993773E0,9.7332597E-1,1.14850006E2,6.21E0,8.595E1,5E-1,5E-1,5.285E1,5E-1,5E-1,5E-1,1.0645E2,5.0021563E0,7.9851055E0,8.020699E0,2.295E0,2.5599432E-1,7.77E0,7.755E1,8.075E1,3.6462957E-1,1.2875E1,3.8975438E-1,1.5075001E1,5.256985E-1,4.2816392E-1,4.747055E-1,1.3675E2,6.042433E-1,2.2425E1,5.6327766E-1,2.2635378E-1,2.7072713E-1,2.8952608E-1,3.255804E-1,3.3396646E-1,3.6892754E-1,3.0863112E-1,3.698665E-1,3.8859013E-1,4.13405E-1,4.240378E-1,4.4891083E-1,4.6601686E-1,4.8939633E-1,5.7124376E-1,5.1363516E-1,4.7376475E-1,5.2215666E-1],"split_indices":[0,0,2,1,2,3,3,2,3,3,3,2,0,0,0,1,0,1,2,2,0,1,0,1,0,0,0,2,0,1,0,0,0,0,0,0,0,0,0,0,0,0,0,0,0,0,0,0,0],"split_type":[0,0,0,0,0,0,0,0,0,0,0,0,0,0,0,0,0,0,0,0,0,0,0,0,0,0,0,0,0,0,0,0,0,0,0,0,0,0,0,0,0,0,0,0,0,0,0,0,0],"sum_hessian":[2.4764E4,1.2992E4,1.1772E4,6.766E3,6.226E3,5.789E3,5.983E3,3.287E3,3.479E3,3.453E3,2.773E3,4.583E3,1.206E3,3.273E3,2.71E3,1.26E3,2.027E3,2.619E3,8.6E2,2.82E3,6.33E2,2.276E3,4.97E2,2.725E3,1.858E3,7.72E2,4.34E2,2.276E3,9.97E2,1.063E3,1.647E3,1.06E2,1.154E3,1.472E3,5.55E2,1.028E3,1.591E3,8.22E2,3.8E1,1.462E3,1.358E3,1.019E3,1.257E3,9.76E2,1.749E3,2.097E3,1.79E2,3.38E2,7.25E2],"tree_param":{"num_deleted":"0","num_feature":"4","num_nodes":"49","size_leaf_vector":"0"}},{"base_weights":[1.0260072E0,8.4546447E-1,1.2288517E0,7.198465E-1,9.4325525E-1,1.1430953E0,1.3165243E0,6.503508E-1,7.736329E-1,8.8531333E-1,9.896787E-1,1.1700643E0,1.0430107E0,1.3563619E0,1.2689116E0,6.7783856E-1,5.9252703E-1,8.0085456E-1,6.9953704E-1,6.1234325E-1,8.953768E-1,1.0089003E0,9.038046E-1,1.1292202E0,1.2462562E0,9.574052E-1,1.086569E0,1.2589234E0,1.3763968E0,1.1880066E0,1.3272331E0,5.793401E-1,6.976726E-1,5.758438E-1,6.456531E-1,7.0772165E-1,8.111812E-1,5.9233105E-1,7.217626E-1,3.453885E-1,6.2832767E-1,9.130017E-1,8.160255E-1,9.861928E-1,1.0636761E0,8.8312364E-1,9.7829574E-1,7.926495E-1,1.1320935E0,9.0473115E-1,1.2486851E0,1.0428283E0,1.275389E0,1.3545877E0,1.4205365E0,1.1175283E0,1.2232115E0],"categories":[],"categories_nodes":[],"categories_segments":[],"categories_sizes":[],"default_left":[1,0,1,0,1,1,1,1,1,1,1,1,1,0,0,0,0,1,1,0,1,0,0,0,1,0,0,1,1,0,0,0,0,0,0,0,0,0,0,0,0,0,0,0,0,0,0,0,0,0,0,0,0,0,0,0,0],"id":4,"left_children":[1,3,5,7,9,11,13,15,17,19,21,23,25,27,29,31,33,35,37,39,41,43,45,47,49,-1,-1,51,53,55,-1,-1,-1,-1,-1,-1,-1,-1,-1,-1,-1,-1,-1,-1,-1,-1,-1,-1,-1,-1,-1,-1,-1,-1,-1,-1,-1],"loss_changes":[9.0590625E2,1.6031934E2,8.616211E1,2.0956055E1,1.89375E1,1.4709473E1,9.202148E0,3.5893555E0,5.956787E0,8.478516E0,5.8242188E0,1.3035645E1,3.6654053E0,4.3598633E0,1.0875488E1,2.9072266E0,3.5235596E-1,1.6918945E0,1.6596985E0,2.950325E-1,3.684082E0,3.0876465E0,3.007202E-1,2.034668E0,2.0581055E-1,0E0,0E0,6.055908E-1,5.576172E-1,1.3996582E0,0E0,0E0,0E0,0E0,0E0,0E0,0E0,0E0,0E0,0E0,0E0,0E0,0E0,0E0,0E0,0E0,0E0,0E0,0E0,0E0,0E0,0E0,0E0,0E0,0E0,0E0,0E0],"parents":[2147483647,0,0,1,1,2,2,3,3,4,4,5,5,6,6,7,7,8,8,9,9,10,10,11,11,12,12,13,13,14,14,15,15,16,16,17,17,18,18,19,19,20,20,21,21,22,22,23,23,24,24,27,27,28,28,29,29],"right_children":[2,4,6,8,10,12,14,16,18,20,22,24,26,28,30,32,34,36,38,40,42,44,46,48,50,-1,-1,52,54,56,-1,-1,-1,-1,-1,-1,-1,-1,-1,-1,-1,-1,-1,-1,-1,-1,-1,-1,-1,-1,-1,-1,-1,-1,-1,-1,-1],"split_conditions":[3.0623488E0,7.295E1,6.011075E0,5.815E1,8.195E1,5E-1,5E-1,5E-1,5E-1,2.9706293E-1,5E-1,1.0795E2,1.0255E2,1.1625E2,2.7875E1,2.835E0,5.595E1,1.9302244E-1,2.4504268E-1,2.935E0,5E-1,9.155E1,9.255E1,1.1325001E1,4.041151E0,2.8722158E-1,3.259707E-1,1.675E1,8.264372E0,2.2375E1,3.9816993E-1,1.7380203E-1,2.0930178E-1,1.7275316E-1,1.9369595E-1,2.123165E-1,2.4335437E-1,1.7769933E-1,2.1652879E-1,1.0361656E-1,1.884983E-1,2.7390054E-1,2.4480766E-1,2.9585785E-1,3.1910285E-1,2.649371E-1,2.9348874E-1,2.3779486E-1,3.3962807E-1,2.7141935E-1,3.7460554E-1,3.128485E-1,3.826167E-1,4.0637633E-1,4.2616096E-1,3.352585E-1,3.6696348E-1],"split_indices":[0,2,0,2,2,3,3,3,3,0,3,2,2,2,1,1,2,0,0,1,3,2,2,1,0,0,0,1,0,1,0,0,0,0,0,0,0,0,0,0,0,0,0,0,0,0,0,0,0,0,0,0,0,0,0,0,0],"split_type":[0,0,0,0,0,0,0,0,0,0,0,0,0,0,0,0,0,0,0,0,0,0,0,0,0,0,0,0,0,0,0,0,0,0,0,0,0,0,0,0,0,0,0,0,0,0,0,0,0,0,0,0,0,0,0,0,0],"sum_hessian":[2.4764E4,1.3105E4,1.1659E4,5.74E3,7.365E3,5.901E3,5.758E3,2.51E3,3.23E3,3.285E3,4.08E3,4.64E3,1.261E3,3.12E3,2.638E3,1.694E3,8.16E2,2.355E3,8.75E2,1.19E2,3.166E3,3.325E3,7.55E2,3.031E3,1.609E3,4.33E2,8.28E2,5.43E2,2.577E3,1.114E3,1.524E3,2.89E2,1.405E3,6.3E2,1.86E2,2.42E2,2.113E3,1.55E2,7.2E2,8E0,1.11E2,2.582E3,5.84E2,2.364E3,9.61E2,6.01E2,1.54E2,2.8E1,3.003E3,1.4E1,1.595E3,4.3E1,5E2,1.746E3,8.31E2,3.82E2,7.32E2],"tree_param":{"num_deleted":"0","num_feature":"4","num_nodes":"57","size_leaf_vector":"0"}},{"base_weights":[7.1853E-1,5.653927E-1,8.3684236E-1,4.888714E-1,6.2569183E-1,7.521536E-1,9.038233E-1,4.5167065E-1,5.229637E-1,5.745769E-1,6.5002507E-1,7.7062505E-1,6.7619073E-1,8.6453444E-1,9.376648E-1,4.704689E-1,4.1210264E-1,4.653315E-1,5.3847224E-1,5.913311E-1,5.1772E-1,6.6131717E-1,5.986572E-1,7.3294353E-1,8.0779976E-1,6.407057E-1,7.1675056E-1,8.8760185E-1,7.951685E-1,9.730254E-1,9.057681E-1,3.784283E-1,4.835123E-1,4.0308404E-1,4.5653108E-1,4.8677513E-1,3.9220187E-1,5.557869E-1,4.9325502E-1,5.9155726E-1,1.2585306E-1,3.3344415E-1,5.2070427E-1,6.363144E-1,6.7559916E-1,5.929015E-1,7.985043E-1,6.595809E-1,7.407113E-1,7.945307E-1,8.6690277E-1,2.680227E-1,6.414334E-1,7.0076644E-1,8.294284E-1,8.5315317E-1,9.118041E-1,3.3094406E-1,7.958244E-1,9.162098E-1,9.854848E-1,7.9738605E-1,9.215936E-1],"categories":[],"categories_nodes":[],"categories_segments":[],"categories_sizes":[],"default_left":[1,1,1,0,0,1,0,1,1,1,1,0,0,1,1,0,1,1,1,1,0,1,0,1,1,0,0,1,1,0,1,0,0,0,0,0,0,0,0,0,0,0,0,0,0,0,0,0,0,0,0,0,0,0,0,0,0,0,0,0,0,0,0],"id":5,"left_children":[1,3,5,7,9,11,13,15,17,19,21,23,25,27,29,31,33,35,37,39,41,43,45,47,49,51,53,55,57,59,61,-1,-1,-1,-1,-1,-1,-1,-1,-1,-1,-1,-1,-1,-1,-1,-1,-1,-1,-1,-1,-1,-1,-1,-1,-1,-1,-1,-1,-1,-1,-1,-1],"loss_changes":[4.4822168E2,4.951294E1,7.855859E1,5.8045654E0,7.1330566E0,8.143799E0,9.553711E0,1.5057373E0,1.9650879E0,1.5561523E0,1.9711914E0,6.355957E0,1.2908936E0,5.086426E0,3.8286133E0,1.6682129E0,1.14089966E-1,6.4492035E-1,1.2501831E0,8.3740234E-2,7.550049E-2,7.6135254E-1,3.8464355E-1,9.213867E-1,1.2614746E0,6.500244E-3,4.255371E-1,1.4797363E0,1.46484375E-2,4.8950195E-1,3.055664E0,0E0,0E0,0E0,0E0,0E0,0E0,0E0,0E0,0E0,0E0,0E0,0E0,0E0,0E0,0E0,0E0,0E0,0E0,0E0,0E0,0E0,0E0,0E0,0E0,0E0,0E0,0E0,0E0,0E0,0E0,0E0,0E0],"parents":[2147483647,0,0,1,1,2,2,3,3,4,4,5,5,6,6,7,7,8,8,9,9,10,10,11,11,12,12,13,13,14,14,15,15,16,16,17,17,18,18,19,19,20,20,21,21,22,22,23,23,24,24,25,25,26,26,27,27,28,28,29,29,30,30],"right_children":[2,4,6,8,10,12,14,16,18,20,22,24,26,28,30,32,34,36,38,40,42,44,46,48,50,52,54,56,58,60,62,-1,-1,-1,-1,-1,-1,-1,-1,-1,-1,-1,-1,-1,-1,-1,-1,-1,-1,-1,-1,-1,-1,-1,-1,-1,-1,-1,-1,-1,-1,-1,-1],"split_conditions":[2.0794404E0,7.77E0,4.9980493E0,5.725E1,7.5149994E1,5E-1,2.3470001E1,5E-1,1.9302244E-1,5E-1,5E-1,9.805E1,1.5325001E1,5E-1,5E-1,4.6199997E1,2.998008E-1,5E-1,5E-1,1.8015428E0,6.26E1,1.2553303E0,9.23E1,1.1275E1,1.8825E1,7.905E1,2.0775E1,1.1255E2,5.0021563E0,1.2045E2,7.0268383E0,1.135285E-1,1.450537E-1,1.2092522E-1,1.3695933E-1,1.4603254E-1,1.1766057E-1,1.6673608E-1,1.4797652E-1,1.7746718E-1,3.775592E-2,1.00033246E-1,1.5621129E-1,1.9089432E-1,2.0267975E-1,1.7787047E-1,2.3955129E-1,1.9787428E-1,2.2221339E-1,2.3835921E-1,2.6007083E-1,8.040681E-2,1.9243003E-1,2.1022995E-1,2.4882852E-1,2.5594595E-1,2.7354124E-1,9.9283226E-2,2.3874733E-1,2.7486295E-1,2.9564545E-1,2.3921582E-1,2.7647808E-1],"split_indices":[0,1,0,2,2,3,1,3,0,3,3,2,1,3,3,2,0,3,3,0,2,0,2,1,1,2,1,2,0,2,0,0,0,0,0,0,0,0,0,0,0,0,0,0,0,0,0,0,0,0,0,0,0,0,0,0,0,0,0,0,0,0,0],"split_type":[0,0,0,0,0,0,0,0,0,0,0,0,0,0,0,0,0,0,0,0,0,0,0,0,0,0,0,0,0,0,0,0,0,0,0,0,0,0,0,0,0,0,0,0,0,0,0,0,0,0,0,0,0,0,0,0,0,0,0,0,0,0,0],"sum_hessian":[2.4764E4,1.0796E4,1.3968E4,4.762E3,6.034E3,6.174E3,7.794E3,2.284E3,2.478E3,1.954E3,4.08E3,4.959E3,1.215E3,3.619E3,4.175E3,1.541E3,7.43E2,5.32E2,1.946E3,1.502E3,4.52E2,3.335E3,7.45E2,2.473E3,2.486E3,6.57E2,5.58E2,2.707E3,9.12E2,1.966E3,2.209E3,1.95E2,1.346E3,6.26E2,1.17E2,4.07E2,1.25E2,1.399E3,5.47E2,1.501E3,1E0,9E0,4.43E2,1.229E3,2.106E3,7.28E2,1.7E1,2.45E2,2.228E3,2.042E3,4.44E2,2E0,6.55E2,4.95E2,6.3E1,1.132E3,1.575E3,2E0,9.1E2,3.67E2,1.599E3,2.88E2,1.921E3],"tree_param":{"num_deleted":"0","num_feature":"4","num_nodes":"63","size_leaf_vector":"0"}},{"base_weights":[5.032125E-1,4.0101996E-1,5.9029347E-1,3.3438298E-1,4.3900362E-1,5.398789E-1,6.423052E-1,2.9863405E-1,3.485575E-1,3.990467E-1,4.598592E-1,5.182175E-1,5.7686245E-1,6.2573713E-1,6.763017E-1,3.3013374E-1,2.762738E-1,3.638668E-1,3.114822E-1,4.1285184E-1,3.5669968E-1,4.3934005E-1,4.7552025E-1,5.3027E-1,4.6672702E-1,5.939783E-1,5.128557E-1,6.4798427E-1,5.802545E-1,7.04881E-1,6.606196E-1,2.5873032E-1,3.4866068E-1,2.6439744E-1,4.1031167E-1,3.4752816E-1,3.77505E-1,2.8992134E-1,3.7444708E-1,3.0205703E-1,4.1653526E-1,2.559878E-1,3.5997126E-1,4.4537374E-1,3.7297577E-1,4.8259285E-1,4.440676E-1,4.1979897E-1,5.349917E-1,4.4177547E-1,5.005279E-1,5.96865E-1,4.2255905E-1,4.7566593E-1,5.296127E-1,6.123281E-1,6.651383E-1,5.633106E-1,6.1275345E-1,7.074283E-1,4.1824764E-1,6.277411E-1,6.872029E-1],"categories":[],"categories_nodes":[],"categories_segments":[],"categories_sizes":[],"default_left":[1,1,0,1,0,1,1,1,1,1,0,1,1,1,1,1,0,1,1,1,0,0,1,0,1,1,1,1,0,1,0,0,0,0,0,0,0,0,0,0,0,0,0,0,0,0,0,0,0,0,0,0,0,0,0,0,0,0,0,0,0,0,0],"id":6,"left_children":[1,3,5,7,9,11,13,15,17,19,21,23,25,27,29,31,33,35,37,39,41,43,45,47,49,51,53,55,57,59,61,-1,-1,-1,-1,-1,-1,-1,-1,-1,-1,-1,-1,-1,-1,-1,-1,-1,-1,-1,-1,-1,-1,-1,-1,-1,-1,-1,-1,-1,-1,-1,-1],"loss_changes":[2.2014795E2,2.870044E1,3.4708496E1,1.9947815E0,5.863037E0,5.1446533E0,3.2802734E0,7.4201965E-1,1.566742E0,1.3119202E0,1.3210449E0,2.4179688E0,2.4353027E0,4.1105957E0,4.9432373E-1,5.527153E-1,1.0026436E0,3.3432007E-1,1.0752487E0,6.39801E-1,1.12464905E-1,6.6433716E-1,3.83667E-1,1.5869751E0,4.7299194E-1,7.2106934E-1,8.149719E-2,1.4086914E0,4.6209717E-1,2.4737549E-1,7.9138184E-1,0E0,0E0,0E0,0E0,0E0,0E0,0E0,0E0,0E0,0E0,0E0,0E0,0E0,0E0,0E0,0E0,0E0,0E0,0E0,0E0,0E0,0E0,0E0,0E0,0E0,0E0,0E0,0E0,0E0,0E0,0E0,0E0],"parents":[2147483647,0,0,1,1,2,2,3,3,4,4,5,5,6,6,7,7,8,8,9,9,10,10,11,11,12,12,13,13,14,14,15,15,16,16,17,17,18,18,19,19,20,20,21,21,22,22,23,23,24,24,25,25,26,26,27,27,28,28,29,29,30,30],"right_children":[2,4,6,8,10,12,14,16,18,20,22,24,26,28,30,32,34,36,38,40,42,44,46,48,50,52,54,56,58,60,62,-1,-1,-1,-1,-1,-1,-1,-1,-1,-1,-1,-1,-1,-1,-1,-1,-1,-1,-1,-1,-1,-1,-1,-1,-1,-1,-1,-1,-1,-1,-1,-1],"split_conditions":[2.2847834E0,4.42172E-1,1.9825E1,5.195E1,7.5149994E1,4.4039235E0,8.390316E0,6.1602905E-2,5E-1,5E-1,1.0725E1,5E-1,5E-1,5E-1,5E-1,2.5749998E0,5.355E0,1.9302244E-1,3.0527663E-1,5.1949997E0,5.46E1,8.725E1,5E-1,1.1275E1,9.795E1,7.634654E0,4.972039E0,5.9946475E0,2.705E1,1.4575E2,3.215E1,7.76191E-2,1.0459821E-1,7.931924E-2,1.2309351E-1,1.04258455E-1,1.1325151E-1,8.697641E-2,1.12334125E-1,9.061711E-2,1.2496058E-1,7.679634E-2,1.0799138E-1,1.3361213E-1,1.1189274E-1,1.4477786E-1,1.3322029E-1,1.259397E-1,1.6049752E-1,1.3253264E-1,1.5015838E-1,1.790595E-1,1.2676772E-1,1.4269978E-1,1.5888382E-1,1.8369845E-1,1.995415E-1,1.6899319E-1,1.8382604E-1,2.1222849E-1,1.254743E-1,1.8832234E-1,2.0616087E-1],"split_indices":[0,0,1,2,2,0,0,0,3,3,1,3,3,3,3,1,1,0,0,1,2,2,3,1,2,0,0,0,1,2,1,0,0,0,0,0,0,0,0,0,0,0,0,0,0,0,0,0,0,0,0,0,0,0,0,0,0,0,0,0,0,0,0],"split_type":[0,0,0,0,0,0,0,0,0,0,0,0,0,0,0,0,0,0,0,0,0,0,0,0,0,0,0,0,0,0,0,0,0,0,0,0,0,0,0,0,0,0,0,0,0,0,0,0,0,0,0,0,0,0,0,0,0,0,0,0,0,0,0],"sum_hessian":[2.4764E4,1.1396E4,1.3368E4,4.141E3,7.255E3,6.794E3,6.574E3,1.182E3,2.959E3,2.495E3,4.76E3,4.294E3,2.5E3,4.433E3,2.141E3,4.85E2,6.97E2,2.088E3,8.71E2,1.875E3,6.2E2,2.073E3,2.687E3,3.472E3,8.22E2,1.966E3,5.34E2,2.968E3,1.465E3,7.43E2,1.398E3,1.03E2,3.82E2,6.43E2,5.4E1,9.62E2,1.126E3,6.53E2,2.18E2,6.3E1,1.812E3,2.2E1,5.98E2,1.895E3,1.78E2,2.182E3,5.05E2,1.46E2,3.326E3,4.81E2,3.41E2,1.931E3,3.5E1,1.75E2,3.59E2,9.76E2,1.992E3,9.75E2,4.9E2,7.35E2,8E0,6.36E2,7.62E2],"tree_param":{"num_deleted":"0","num_feature":"4","num_nodes":"63","size_leaf_vector":"0"}},{"base_weights":[3.524252E-1,2.8960732E-1,4.2323232E-1,2.4336274E-1,3.2186747E-1,3.928028E-1,4.5451686E-1,2.3108208E-1,2.7556685E-1,3.0005023E-1,3.3946148E-1,3.736461E-1,4.1147444E-1,4.3138975E-1,4.669443E-1,1.9899453E-1,2.3923577E-1,6.0063917E-2,2.7802154E-1,2.1492815E-1,3.0304506E-1,3.369767E-1,4.4746542E-1,3.7414935E-1,4.717827E-3,4.2427984E-1,3.682421E-1,4.4849113E-1,3.8653725E-1,4.8754233E-1,4.500847E-1,1.9249676E-1,2.6940787E-1,2.510477E-1,2.1406463E-1,1.4236715E-1,7.0483685E-3,2.8901184E-1,2.4208967E-1,3.3930838E-2,2.2574438E-1,3.1079915E-1,2.7198178E-1,3.440848E-1,3.0561003E-1,1.5684414E-1,4.554101E-1,3.6097714E-1,3.8929296E-1,-1.09520674E-1,2.3083591E-1,4.1894212E-1,4.6740845E-1,2.9048416E-1,3.811045E-1,4.401592E-1,5.064913E-1,3.9627317E-1,1.286672E-1,4.896397E-1,3.3070514E-1,4.2636916E-1,4.7551188E-1],"categories":[],"categories_nodes":[],"categories_segments":[],"categories_sizes":[],"default_left":[1,0,0,1,1,0,1,1,0,0,1,1,1,1,1,0,1,0,1,1,1,1,0,0,1,1,1,0,1,1,0,0,0,0,0,0,0,0,0,0,0,0,0,0,0,0,0,0,0,0,0,0,0,0,0,0,0,0,0,0,0,0,0],"id":7,"left_children":[1,3,5,7,9,11,13,15,17,19,21,23,25,27,29,31,33,35,37,39,41,43,45,47,49,51,53,55,57,59,61,-1,-1,-1,-1,-1,-1,-1,-1,-1,-1,-1,-1,-1,-1,-1,-1,-1,-1,-1,-1,-1,-1,-1,-1,-1,-1,-1,-1,-1,-1,-1,-1],"loss_changes":[1.10031006E2,1.9503784E1,1.0902588E1,2.071167E0,2.8649902E0,1.9594727E0,1.4462891E0,9.764252E-1,7.688675E-1,8.166504E-1,9.953613E-1,5.41687E-1,1.4945984E0,1.3737183E0,1.0714111E0,3.1370544E-1,8.727112E-1,7.753687E-2,5.0974274E-1,2.2922325E-1,7.1969604E-1,8.265991E-1,1.432991E-1,4.425354E-1,1.5443826E-1,3.3224487E-1,5.7839966E-1,4.797058E-1,1.3649902E0,3.8446045E-1,1.0376587E0,0E0,0E0,0E0,0E0,0E0,0E0,0E0,0E0,0E0,0E0,0E0,0E0,0E0,0E0,0E0,0E0,0E0,0E0,0E0,0E0,0E0,0E0,0E0,0E0,0E0,0E0,0E0,0E0,0E0,0E0,0E0,0E0],"parents":[2147483647,0,0,1,1,2,2,3,3,4,4,5,5,6,6,7,7,8,8,9,9,10,10,11,11,12,12,13,13,14,14,15,15,16,16,17,17,18,18,19,19,20,20,21,21,22,22,23,23,24,24,25,25,26,26,27,27,28,28,29,29,30,30],"right_children":[2,4,6,8,10,12,14,16,18,20,22,24,26,28,30,32,34,36,38,40,42,44,46,48,50,52,54,56,58,60,62,-1,-1,-1,-1,-1,-1,-1,-1,-1,-1,-1,-1,-1,-1,-1,-1,-1,-1,-1,-1,-1,-1,-1,-1,-1,-1,-1,-1,-1,-1,-1,-1],"split_conditions":[1.4275E1,8.595E0,2.0775E1,6.4850006E1,1.4332943E0,1.7175E1,7.0268383E0,4.965E1,4.8E0,6.285E1,4.961087E0,1.1765E2,5E-1,5E-1,5E-1,5.415E0,5E-1,6.79E1,5E-1,1.3689535E-2,5E-1,5E-1,9.895E1,1.0075E2,7.2212296E0,1.16649994E2,4.253339E0,2.705E1,6.9597597E0,9.915331E0,3.1475E1,5.774903E-2,8.082236E-2,7.531431E-2,6.421939E-2,4.2710148E-2,2.1145106E-3,8.6703554E-2,7.26269E-2,1.0179251E-2,6.772332E-2,9.323975E-2,8.1594534E-2,1.0322545E-1,9.1683015E-2,4.7053244E-2,1.3662304E-1,1.08293146E-1,1.1678789E-1,-3.2856204E-2,6.925078E-2,1.2568264E-1,1.4022253E-1,8.7145254E-2,1.1433136E-1,1.3204777E-1,1.519474E-1,1.18881956E-1,3.860016E-2,1.4689192E-1,9.9211544E-2,1.2791075E-1,1.4265357E-1],"split_indices":[1,1,1,2,0,1,0,2,1,2,0,2,3,3,3,1,3,2,3,0,3,3,2,2,0,2,0,1,0,0,1,0,0,0,0,0,0,0,0,0,0,0,0,0,0,0,0,0,0,0,0,0,0,0,0,0,0,0,0,0,0,0,0],"split_type":[0,0,0,0,0,0,0,0,0,0,0,0,0,0,0,0,0,0,0,0,0,0,0,0,0,0,0,0,0,0,0,0,0,0,0,0,0,0,0,0,0,0,0,0,0,0,0,0,0,0,0,0,0,0,0,0,0,0,0,0,0,0,0],"sum_hessian":[2.4764E4,1.3125E4,1.1639E4,5.397E3,7.728E3,5.907E3,5.732E3,3.913E3,1.484E3,3.458E3,4.27E3,2.926E3,2.981E3,2.016E3,3.716E3,7.98E2,3.115E3,1.7E1,1.467E3,1.2E2,3.338E3,4.178E3,9.2E1,2.922E3,4E0,2.293E3,6.88E2,1.453E3,5.63E2,1.66E3,2.056E3,7.34E2,6.4E1,2.114E3,1.001E3,6E0,1.1E1,1.118E3,3.49E2,7E0,1.13E2,2.664E3,6.74E2,3.398E3,7.8E2,3E0,8.9E1,1.576E3,1.346E3,3E0,1E0,2.05E3,2.43E2,1.01E2,5.87E2,1.278E3,1.75E2,5.42E2,2.1E1,1.636E3,2.4E1,1.073E3,9.83E2],"tree_param":{"num_deleted":"0","num_feature":"4","num_nodes":"63","size_leaf_vector":"0"}},{"base_weights":[2.4681073E-1,1.9246183E-1,2.875147E-1,1.608765E-1,2.0995276E-1,2.586632E-1,3.123129E-1,1.4864449E-1,1.711345E-1,1.9139269E-1,2.2119063E-1,2.437681E-1,2.6975453E-1,3.0369616E-1,3.3395168E-1,1.5036225E-1,-7.313453E-2,4.1306388E-1,1.701044E-1,1.8976285E-1,5.244996E-1,2.2802822E-1,1.9119355E-1,2.5591442E-1,2.2976173E-1,2.7130467E-1,1.5215482E-1,3.1604713E-1,2.758893E-1,3.9356732E-1,3.3018428E-1,1.1464805E-1,1.5646775E-1,-2.7166638E-1,6.7346096E-2,-1.2157595E-1,5.06809E-1,1.5201607E-1,1.8182077E-1,2.0919634E-1,1.7004469E-1,5.622274E-1,5.4746628E-2,2.2930738E-1,1.2611347E-1,1.4530218E-1,2.0227619E-1,2.602617E-1,8.7053046E-2,1.6908242E-1,2.3617344E-1,2.7771252E-1,2.442094E-1,9.748949E-2,4.8183838E-1,-4.495042E-2,3.1663465E-1,8.0625033E-1,2.74464E-1,3.6144808E-1,4.6701336E-1,2.9002726E-1,3.3726016E-1],"categories":[],"categories_nodes":[],"categories_segments":[],"categories_sizes":[],"default_left":[1,1,0,0,1,0,1,1,0,1,1,1,1,1,1,1,0,1,1,1,0,0,1,0,0,1,1,0,0,0,1,0,0,0,0,0,0,0,0,0,0,0,0,0,0,0,0,0,0,0,0,0,0,0,0,0,0,0,0,0,0,0,0],"id":8,"left_children":[1,3,5,7,9,11,13,15,17,19,21,23,25,27,29,31,33,35,37,39,41,43,45,47,49,51,53,55,57,59,61,-1,-1,-1,-1,-1,-1,-1,-1,-1,-1,-1,-1,-1,-1,-1,-1,-1,-1,-1,-1,-1,-1,-1,-1,-1,-1,-1,-1,-1,-1,-1,-1],"loss_changes":[5.4730103E1,5.82666E0,1.0048706E1,4.494934E-1,1.381012E0,1.0163269E0,1.3173828E0,6.715889E-1,4.4112015E-1,1.301712E0,8.268738E-1,4.185791E-1,6.4141846E-1,1.7855835E0,3.544922E-1,3.5733032E-1,4.0875393E-1,4.6257484E-1,4.057579E-1,9.4924164E-1,1.8189287E-1,4.2099E-1,3.7443352E-1,1.0740662E0,4.7090912E-1,5.7373047E-1,8.721609E-1,8.1365967E-1,1.052414E0,1.2135887E-1,4.8043823E-1,0E0,0E0,0E0,0E0,0E0,0E0,0E0,0E0,0E0,0E0,0E0,0E0,0E0,0E0,0E0,0E0,0E0,0E0,0E0,0E0,0E0,0E0,0E0,0E0,0E0,0E0,0E0,0E0,0E0,0E0,0E0,0E0],"parents":[2147483647,0,0,1,1,2,2,3,3,4,4,5,5,6,6,7,7,8,8,9,9,10,10,11,11,12,12,13,13,14,14,15,15,16,16,17,17,18,18,19,19,20,20,21,21,22,22,23,23,24,24,25,25,26,26,27,27,28,28,29,29,30,30],"right_children":[2,4,6,8,10,12,14,16,18,20,22,24,26,28,30,32,34,36,38,40,42,44,46,48,50,52,54,56,58,60,62,-1,-1,-1,-1,-1,-1,-1,-1,-1,-1,-1,-1,-1,-1,-1,-1,-1,-1,-1,-1,-1,-1,-1,-1,-1,-1,-1,-1,-1,-1,-1,-1],"split_conditions":[2.0164685E0,3.8193804E-1,1.0955E2,4.41E0,7.375E1,9.645E1,8.390316E0,6.235E1,4.4449997E0,1.8891559E0,5E-1,2.6270218E0,6.252011E0,5E-1,8.491619E0,4.595E1,6.495E1,8.350617E-2,1.9302244E-1,6.365634E-1,2.8E1,9.185E1,9.979671E-1,1.65E1,1.1825001E1,5E-1,6.7489405E0,1.075E1,1.175E1,3.2525E1,8.727079E0,3.4394417E-2,4.6940327E-2,-8.149992E-2,2.0203829E-2,-3.6472786E-2,1.520427E-1,4.5604825E-2,5.4546233E-2,6.275891E-2,5.101341E-2,1.6866824E-1,1.642399E-2,6.879222E-2,3.7834045E-2,4.3590654E-2,6.068286E-2,7.8078516E-2,2.6115915E-2,5.0724726E-2,7.0852034E-2,8.331376E-2,7.326282E-2,2.9246848E-2,1.4455152E-1,-1.3485126E-2,9.49904E-2,2.4187511E-1,8.2339205E-2,1.0843443E-1,1.4010401E-1,8.700818E-2,1.0117805E-1],"split_indices":[0,0,2,1,2,2,0,2,1,0,3,0,0,3,0,2,2,0,0,0,1,2,0,1,1,3,0,1,1,1,0,0,0,0,0,0,0,0,0,0,0,0,0,0,0,0,0,0,0,0,0,0,0,0,0,0,0,0,0,0,0,0,0],"split_type":[0,0,0,0,0,0,0,0,0,0,0,0,0,0,0,0,0,0,0,0,0,0,0,0,0,0,0,0,0,0,0,0,0,0,0,0,0,0,0,0,0,0,0,0,0,0,0,0,0,0,0,0,0,0,0,0,0,0,0,0,0,0,0],"sum_hessian":[2.4764E4,1.0607E4,1.4157E4,3.784E3,6.823E3,6.549E3,7.608E3,1.733E3,2.051E3,2.58E3,4.243E3,2.805E3,3.744E3,5.452E3,2.156E3,1.72E3,1.3E1,7E0,2.044E3,2.569E3,1.1E1,3.45E3,7.93E2,1.493E3,1.312E3,3.694E3,5E1,3.768E3,1.684E3,1.22E2,2.034E3,2.54E2,1.466E3,5E0,8E0,1E0,6E0,8.09E2,1.235E3,1.289E3,1.28E3,1E1,1E0,3.406E3,4.4E1,1.57E2,6.36E2,1.455E3,3.8E1,1.28E2,1.184E3,2.98E3,7.14E2,4.4E1,6E0,6E0,3.762E3,3E0,1.681E3,8.9E1,3.3E1,3.11E2,1.723E3],"tree_param":{"num_deleted":"0","num_feature":"4","num_nodes":"63","size_leaf_vector":"0"}},{"base_weights":[1.7285408E-1,1.4373612E-1,2.1105288E-1,1.2088001E-1,1.6169138E-1,1.9773217E-1,2.2728352E-1,1.1332987E-1,1.3936725E-1,1.4637086E-1,1.6863206E-1,2.036303E-1,1.765422E-1,2.2329934E-1,2.6126823E-1,1.1459068E-1,-3.4379695E-2,1.4216073E-1,-4.7669206E-3,1.4759435E-1,-2.8150422E-3,1.6789737E-1,2.7361938E-1,2.0283465E-1,3.9494178E-1,8.243651E-2,1.8122633E-1,2.3526832E-1,2.0947912E-1,3.2471287E-1,2.4296023E-1,1.22168764E-1,9.777335E-2,1.0524651E-2,-1.6116433E-1,1.3498977E-1,1.9546162E-1,-6.9627754E-2,2.6462322E-1,8.6729534E-2,1.4967327E-1,1.3294996E-1,-6.5984376E-2,1.7011197E-1,1.2891288E-1,2.969228E-1,-2.710004E-1,2.0194377E-1,3.7072015E-1,4.4808027E-1,-2.0110765E-2,2.1939585E-1,5.8526136E-2,3.0027735E-1,1.7819823E-1,2.356097E-1,-2.7613497E-1,1.9571532E-1,2.2434145E-1,-2.0352387E-1,3.3148843E-1,2.074606E-1,2.7848855E-1],"categories":[],"categories_nodes":[],"categories_segments":[],"categories_sizes":[],"default_left":[1,0,0,1,0,1,0,1,0,1,1,1,0,1,0,1,1,1,0,0,1,1,1,1,0,0,0,0,0,0,0,0,0,0,0,0,0,0,0,0,0,0,0,0,0,0,0,0,0,0,0,0,0,0,0,0,0,0,0,0,0,0,0],"id":9,"left_children":[1,3,5,7,9,11,13,15,17,19,21,23,25,27,29,31,33,35,37,39,41,43,45,47,49,51,53,55,57,59,61,-1,-1,-1,-1,-1,-1,-1,-1,-1,-1,-1,-1,-1,-1,-1,-1,-1,-1,-1,-1,-1,-1,-1,-1,-1,-1,-1,-1,-1,-1,-1,-1],"loss_changes":[2.7515076E1,5.7488403E0,2.2705688E0,8.479309E-1,8.120575E-1,7.001953E-1,5.9443665E-1,8.2318115E-1,7.213898E-1,4.496193E-1,3.7127686E-1,6.20224E-1,5.536957E-1,6.656189E-1,5.0188065E-1,5.439606E-1,2.1803708E-1,6.4479065E-1,6.2997556E-1,2.95887E-1,1.888725E-1,4.4203186E-1,5.373604E-1,6.107483E-1,4.060061E-1,1.9346881E-1,3.8917923E-1,4.679947E-1,3.6828613E-1,4.5758724E-1,4.3663216E-1,0E0,0E0,0E0,0E0,0E0,0E0,0E0,0E0,0E0,0E0,0E0,0E0,0E0,0E0,0E0,0E0,0E0,0E0,0E0,0E0,0E0,0E0,0E0,0E0,0E0,0E0,0E0,0E0,0E0,0E0,0E0,0E0],"parents":[2147483647,0,0,1,1,2,2,3,3,4,4,5,5,6,6,7,7,8,8,9,9,10,10,11,11,12,12,13,13,14,14,15,15,16,16,17,17,18,18,19,19,20,20,21,21,22,22,23,23,24,24,25,25,26,26,27,27,28,28,29,29,30,30],"right_children":[2,4,6,8,10,12,14,16,18,20,22,24,26,28,30,32,34,36,38,40,42,44,46,48,50,52,54,56,58,60,62,-1,-1,-1,-1,-1,-1,-1,-1,-1,-1,-1,-1,-1,-1,-1,-1,-1,-1,-1,-1,-1,-1,-1,-1,-1,-1,-1,-1,-1,-1,-1,-1],"split_conditions":[1.5075001E1,9.190001E0,2.2175E1,6.7149994E1,8.105E1,5E-1,1.3995E2,8.583338E-1,8.22E1,1.285E1,1.1615E2,9.228115E0,1.5325001E1,5E-1,3.045E1,5E-1,6.6350006E1,1.2224755E0,9.025E1,5.855E1,1.1033765E0,1.00149994E2,9.849621E0,1.253E2,2.1975E1,9.38E1,1.551E1,1.3985E2,2.9175E1,2.2475E1,3.8925003E1,3.665063E-2,2.9332006E-2,3.1573954E-3,-4.8349302E-2,4.049693E-2,5.8638487E-2,-2.0888327E-2,7.938697E-2,2.6018862E-2,4.4901982E-2,3.9884992E-2,-1.9795313E-2,5.1033594E-2,3.8673867E-2,8.907685E-2,-8.130012E-2,6.0583133E-2,1.11216046E-1,1.3442409E-1,-6.03323E-3,6.581876E-2,1.755784E-2,9.008321E-2,5.3459473E-2,7.068291E-2,-8.2840495E-2,5.87146E-2,6.7302436E-2,-6.1057165E-2,9.9446535E-2,6.2238183E-2,8.3546564E-2],"split_indices":[1,1,1,2,2,3,2,0,2,1,2,0,1,3,1,3,2,0,2,2,0,2,0,2,1,2,1,2,1,1,1,0,0,0,0,0,0,0,0,0,0,0,0,0,0,0,0,0,0,0,0,0,0,0,0,0,0,0,0,0,0,0,0],"split_type":[0,0,0,0,0,0,0,0,0,0,0,0,0,0,0,0,0,0,0,0,0,0,0,0,0,0,0,0,0,0,0,0,0,0,0,0,0,0,0,0,0,0,0,0,0,0,0,0,0,0,0,0,0,0,0,0,0,0,0,0,0,0,0],"sum_hessian":[2.4764E4,1.4055E4,1.0709E4,6.187E3,7.868E3,5.889E3,4.82E3,4.398E3,1.789E3,2.46E3,5.408E3,4.6E3,1.289E3,4.321E3,4.99E2,4.361E3,3.7E1,1.755E3,3.4E1,2.44E3,2E1,5.373E3,3.5E1,4.583E3,1.7E1,6.2E1,1.227E3,2.307E3,2.014E3,1.08E2,3.91E2,3.002E3,1.359E3,2.8E1,9E0,1.55E3,2.05E2,2.8E1,6E0,8.2E1,2.358E3,6E0,1.4E1,5.081E3,2.92E2,3.4E1,1E0,4.561E3,2.2E1,1.5E1,2E0,8E0,5.4E1,2.8E1,1.199E3,2.306E3,1E0,1.053E3,9.61E2,1E0,1.07E2,1.99E2,1.92E2],"tree_param":{"num_deleted":"0","num_feature":"4","num_nodes":"63","size_leaf_vector":"0"}},{"base_weights":[1.2104602E-1,9.8919146E-2,1.4618218E-1,8.433194E-2,1.1132948E-1,1.3423133E-1,1.5638952E-1,7.102935E-2,9.1250956E-2,1.0967044E-1,1.9503106E-1,1.3585207E-1,8.555512E-2,3.6216953E-1,1.5586913E-1,9.635649E-2,6.478394E-2,9.220195E-2,-5.1501893E-2,1.1023589E-1,-5.2025698E-2,2.3732628E-1,1.276577E-1,1.3460378E-1,2.382564E-1,-1.9079722E-1,9.993606E-2,4.1496414E-1,-1.8847752E-1,1.5037951E-1,1.72102E-1,9.342924E-2,4.6136752E-1,4.5878433E-2,7.293966E-2,9.04416E-2,1.472619E-1,-1.0800793E-1,1.2537363E-1,1.10705376E-1,-4.274659E-2,-8.0357715E-2,1.8252833E-1,1.677512E-1,2.981461E-1,-2.4917642E-2,1.6636784E-1,1.9508053E-1,1.3348135E-1,2.8188905E-1,1.429987E-2,1.1301247E-1,-2.9374462E-1,-1.9800822E-1,1.1035414E-1,4.396564E-1,4.698229E-2,1.577443E-1,1.3682641E-1,3.0442587E-1,1.6817129E-1],"categories":[],"categories_nodes":[],"categories_segments":[],"categories_sizes":[],"default_left":[1,0,0,1,1,1,1,1,0,1,1,1,1,0,1,0,0,1,1,1,1,1,1,0,0,0,0,0,0,1,0,0,0,0,0,0,0,0,0,0,0,0,0,0,0,0,0,0,0,0,0,0,0,0,0,0,0,0,0,0,0],"id":10,"left_children":[1,3,5,7,9,11,13,15,17,19,21,23,25,27,29,31,33,35,37,39,41,43,45,47,49,51,53,55,-1,57,59,-1,-1,-1,-1,-1,-1,-1,-1,-1,-1,-1,-1,-1,-1,-1,-1,-1,-1,-1,-1,-1,-1,-1,-1,-1,-1,-1,-1,-1,-1],"loss_changes":[1.3759491E1,2.3755188E0,1.3930664E0,5.512886E-1,9.66629E-1,4.1020966E-1,6.124115E-1,3.224516E-1,5.454674E-1,6.43837E-1,3.6009502E-1,6.2919617E-1,7.1455324E-1,5.142791E-1,5.294647E-1,3.9390206E-1,2.54148E-1,3.7021255E-1,2.833938E-1,5.042572E-1,1.8080229E-1,3.0120373E-1,3.2898724E-1,3.210373E-1,5.920496E-1,3.1468466E-1,5.402206E-1,1.0655236E-1,0E0,4.4406128E-1,7.6436234E-1,0E0,0E0,0E0,0E0,0E0,0E0,0E0,0E0,0E0,0E0,0E0,0E0,0E0,0E0,0E0,0E0,0E0,0E0,0E0,0E0,0E0,0E0,0E0,0E0,0E0,0E0,0E0,0E0,0E0,0E0],"parents":[2147483647,0,0,1,1,2,2,3,3,4,4,5,5,6,6,7,7,8,8,9,9,10,10,11,11,12,12,13,13,14,14,15,15,16,16,17,17,18,18,19,19,20,20,21,21,22,22,23,23,24,24,25,25,26,26,27,27,29,29,30,30],"right_children":[2,4,6,8,10,12,14,16,18,20,22,24,26,28,30,32,34,36,38,40,42,44,46,48,50,52,54,56,-1,58,60,-1,-1,-1,-1,-1,-1,-1,-1,-1,-1,-1,-1,-1,-1,-1,-1,-1,-1,-1,-1,-1,-1,-1,-1,-1,-1,-1,-1,-1,-1],"split_conditions":[9.425E1,9.075001E0,1.12850006E2,5.595E1,2.1475E1,6.2629623E0,4.387496E0,3.148593E-2,8.215E1,9.4149994E1,5E-1,6.1041636E0,6.272545E0,2.4825E1,3.0325E1,4.355E0,3.3049998E0,1.3757982E0,5E-1,2.0325E1,3.8275938E0,7.629178E0,7.3362217E0,9.455E1,1.9925E1,1.08149994E2,1.0385E2,1.158E2,-5.6543257E-2,5E-1,3.0525E1,2.8028773E-2,1.3841026E-1,1.376353E-2,2.1881897E-2,2.7132481E-2,4.417857E-2,-3.240238E-2,3.761209E-2,3.3211615E-2,-1.28239775E-2,-2.4107317E-2,5.47585E-2,5.032536E-2,8.944383E-2,-7.475293E-3,4.9910355E-2,5.852416E-2,4.004441E-2,8.456672E-2,4.289961E-3,3.3903744E-2,-8.812339E-2,-5.940247E-2,3.3106245E-2,1.3189693E-1,1.4094687E-2,4.7323294E-2,4.1047923E-2,9.1327764E-2,5.0451387E-2],"split_indices":[2,1,2,2,1,0,0,0,2,2,3,0,0,1,1,1,1,0,3,1,0,0,0,2,1,2,2,2,0,3,1,0,0,0,0,0,0,0,0,0,0,0,0,0,0,0,0,0,0,0,0,0,0,0,0,0,0,0,0,0,0],"split_type":[0,0,0,0,0,0,0,0,0,0,0,0,0,0,0,0,0,0,0,0,0,0,0,0,0,0,0,0,0,0,0,0,0,0,0,0,0,0,0,0,0,0,0,0,0,0,0,0,0,0,0,0,0,0,0,0,0,0,0,0,0],"sum_hessian":[2.4764E4,1.3173E4,1.1591E4,6.059E3,7.114E3,5.346E3,6.245E3,2.077E3,3.982E3,6.978E3,1.36E2,5.172E3,1.74E2,1.4E1,6.231E3,4.08E2,1.669E3,3.956E3,2.6E1,6.954E3,2.4E1,8.2E1,5.4E1,5.112E3,6E1,8E0,1.66E2,1.3E1,1E0,4.664E3,1.567E3,4.06E2,2E0,5.05E2,1.164E3,3.836E3,1.2E2,2E1,6E0,6.933E3,2.1E1,2.2E1,2E0,4E1,4.2E1,1.1E1,4.3E1,9E1,5.022E3,5E1,1E1,2E0,6E0,5E0,1.61E2,1.2E1,1E0,3.015E3,1.649E3,4.3E1,1.524E3],"tree_param":{"num_deleted":"0","num_feature":"4","num_nodes":"61","size_leaf_vector":"0"}},{"base_weights":[8.4770106E-2,6.381056E-2,9.8570414E-2,6.892291E-2,4.8338734E-2,8.6023726E-2,1.0769853E-1,3.9913222E-2,7.1928404E-2,4.5989066E-2,1.7268452E-1,2.742112E-1,8.562053E-2,1.05748415E-1,1.303679E-1,6.346207E-2,2.8968442E-2,1.4420526E-1,7.138478E-2,4.67872E-2,-5.65759E-2,-2.5687609E-2,2.5407594E-1,1.19211555E-1,4.351755E-1,8.3765835E-2,1.1580339E-1,1.0551068E-1,3.2887238E-1,2.2718634E-1,1.2363819E-1,4.9975254E-2,2.2157079E-1,-7.3525603E-3,5.081009E-2,1.0347306E-1,4.1887388E-1,6.213661E-2,7.5992756E-2,4.5800168E-2,2.5555313E-1,-1.1598322E-1,1.9519734E-1,-9.210075E-2,1.6337043E-1,2.9522404E-1,-2.716875E-2,2.6379442E-1,-2.029705E-2,4.850526E-1,9.289503E-2,8.435815E-2,-1.5506983E-1,1.3256858E-1,7.252195E-2,1.10280484E-1,9.654103E-2,4.084499E-1,6.0093243E-2,3.505506E-1,1.6812435E-1,2.7692193E-1,1.2075641E-1],"categories":[],"categories_nodes":[],"categories_segments":[],"categories_sizes":[],"default_left":[0,1,1,1,0,0,1,1,0,1,0,0,1,0,1,1,1,0,0,1,1,1,0,1,1,1,1,1,1,0,0,0,0,0,0,0,0,0,0,0,0,0,0,0,0,0,0,0,0,0,0,0,0,0,0,0,0,0,0,0,0,0,0],"id":11,"left_children":[1,3,5,7,9,11,13,15,17,19,21,23,25,27,29,31,33,35,37,39,41,43,45,47,49,51,53,55,57,59,61,-1,-1,-1,-1,-1,-1,-1,-1,-1,-1,-1,-1,-1,-1,-1,-1,-1,-1,-1,-1,-1,-1,-1,-1,-1,-1,-1,-1,-1,-1,-1,-1],"loss_changes":[7.156952E0,7.7459335E-1,1.7007294E0,6.41449E-1,7.067094E-1,4.5401382E-1,3.6813354E-1,1.7754638E-1,2.5276566E-1,1.992755E-1,7.330872E-1,2.724645E-1,3.419075E-1,3.8754272E-1,4.149723E-1,4.5805115E-1,3.7878278E-1,5.048628E-1,2.7854156E-1,4.7953892E-1,3.0682594E-1,1.9082966E-1,3.7834692E-1,1.6671869E-1,5.737269E-2,8.5069275E-1,2.5233603E-1,3.296051E-1,1.4656514E-1,2.5436783E-1,2.4838352E-1,0E0,0E0,0E0,0E0,0E0,0E0,0E0,0E0,0E0,0E0,0E0,0E0,0E0,0E0,0E0,0E0,0E0,0E0,0E0,0E0,0E0,0E0,0E0,0E0,0E0,0E0,0E0,0E0,0E0,0E0,0E0,0E0],"parents":[2147483647,0,0,1,1,2,2,3,3,4,4,5,5,6,6,7,7,8,8,9,9,10,10,11,11,12,12,13,13,14,14,15,15,16,16,17,17,18,18,19,19,20,20,21,21,22,22,23,23,24,24,25,25,26,26,27,27,28,28,29,29,30,30],"right_children":[2,4,6,8,10,12,14,16,18,20,22,24,26,28,30,32,34,36,38,40,42,44,46,48,50,52,54,56,58,60,62,-1,-1,-1,-1,-1,-1,-1,-1,-1,-1,-1,-1,-1,-1,-1,-1,-1,-1,-1,-1,-1,-1,-1,-1,-1,-1,-1,-1,-1,-1,-1,-1],"split_conditions":[1.1625E1,5E-1,1.7275E1,4.965E1,9.075E1,1.1674999E1,9.521072E0,6.1602905E-2,2.875E0,2.5298262E0,5.25E0,8.8649994E1,5.240354E0,4.93E1,9.564878E0,5.3389184E-2,2.0671198E-1,2.8449998E0,6.5850006E1,2.3669205E0,2.9487257E0,2.683149E-1,1.14E1,1.6071515E0,2.795403E0,1.1125E2,6.276652E0,5E-1,9.410187E0,2.9575E1,1.2305E2,1.4992577E-2,6.647124E-2,-2.2057681E-3,1.5243028E-2,3.1041918E-2,1.2566216E-1,1.8640984E-2,2.2797827E-2,1.3740051E-2,7.666594E-2,-3.4794968E-2,5.8559205E-2,-2.7630225E-2,4.901113E-2,8.856721E-2,-8.150626E-3,7.913833E-2,-6.0891155E-3,1.4551578E-1,2.7868511E-2,2.5307445E-2,-4.652095E-2,3.9770577E-2,2.1756586E-2,3.3084147E-2,2.896231E-2,1.2253497E-1,1.8027974E-2,1.0516518E-1,5.0437305E-2,8.307658E-2,3.6226925E-2],"split_indices":[1,3,1,2,2,1,0,0,1,0,1,2,0,1,0,0,0,1,2,0,0,0,1,0,0,2,0,3,0,1,2,0,0,0,0,0,0,0,0,0,0,0,0,0,0,0,0,0,0,0,0,0,0,0,0,0,0,0,0,0,0,0,0],"split_type":[0,0,0,0,0,0,0,0,0,0,0,0,0,0,0,0,0,0,0,0,0,0,0,0,0,0,0,0,0,0,0,0,0,0,0,0,0,0,0,0,0,0,0,0,0,0,0,0,0,0,0,0,0,0,0,0,0,0,0,0,0,0,0],"sum_hessian":[2.4764E4,9.834E3,1.493E4,7.389E3,2.445E3,6.292E3,8.638E3,6.95E2,6.694E3,2.401E3,4.4E1,1.2E1,6.28E3,7.959E3,6.79E2,2.19E2,4.76E2,4.8E1,6.646E3,2.383E3,1.8E1,1.3E1,3.1E1,7E0,5E0,5.92E3,3.6E2,7.952E3,7E0,4.2E1,6.37E2,2.03E2,1.6E1,1.79E2,2.97E2,4.3E1,5E0,2.215E3,4.431E3,2.373E3,1E1,1.5E1,3E0,1E1,3E0,2.7E1,4E0,3E0,4E0,4E0,1E0,5.906E3,1.4E1,2.58E2,1.02E2,5.184E3,2.768E3,5E0,2E0,1.2E1,3E1,1E1,6.27E2],"tree_param":{"num_deleted":"0","num_feature":"4","num_nodes":"63","size_leaf_vector":"0"}},{"base_weights":[5.9390463E-2,5.0176434E-2,7.52683E-2,3.944824E-2,5.5645783E-2,2.9727182E-1,7.50156E-2,3.9840497E-2,-1.7188224E-1,5.8861904E-2,4.2275112E-2,1.1388429E-1,4.578825E-1,-7.707059E-2,7.54607E-2,3.998648E-2,-3.6591125E-1,-1.3951029E-2,-4.0529132E-1,5.958517E-2,-1.4016927E-2,4.064308E-2,1.8192677E-1,-3.906266E-2,2.0012343E-1,-3.3952754E-2,-3.1650996E-1,2.3507631E-1,7.509914E-2,3.9608702E-2,3.6582828E-1,6.3266635E-2,-2.386285E-1,-2.0361766E-3,6.0323305E-2,-8.1549615E-2,3.692461E-2,-1.3824522E-1,4.1162282E-2,2.2633485E-1,-2.3209285E-2,2.642913E-1,3.809929E-3,-5.453972E-2,2.1977377E-1,3.1524608E-1,-6.8482205E-2,6.3487336E-2,7.854173E-2],"categories":[],"categories_nodes":[],"categories_segments":[],"categories_sizes":[],"default_left":[1,1,0,1,1,0,0,1,0,1,0,1,0,0,1,1,0,1,0,0,0,1,1,0,1,1,0,1,1,0,0,0,0,0,0,0,0,0,0,0,0,0,0,0,0,0,0,0,0],"id":12,"left_children":[1,3,5,7,9,11,13,15,17,19,21,23,-1,25,27,29,-1,31,-1,33,35,37,39,-1,41,43,-1,45,47,-1,-1,-1,-1,-1,-1,-1,-1,-1,-1,-1,-1,-1,-1,-1,-1,-1,-1,-1,-1],"loss_changes":[3.6193237E0,9.174919E-1,4.8777008E-1,4.4586277E-1,4.4382858E-1,2.4239439E-1,6.2068176E-1,3.2779408E-1,3.629716E-1,4.417076E-1,4.520836E-1,8.695743E-2,0E0,2.6800454E-1,5.050278E-1,6.361933E-1,0E0,1.3654073E-1,0E0,3.7683105E-1,2.885494E-1,1.9089055E-1,2.1477616E-1,0E0,4.9381137E-2,1.3734944E-1,0E0,5.0831306E-1,3.5630798E-1,0E0,0E0,0E0,0E0,0E0,0E0,0E0,0E0,0E0,0E0,0E0,0E0,0E0,0E0,0E0,0E0,0E0,0E0,0E0,0E0],"parents":[2147483647,0,0,1,1,2,2,3,3,4,4,5,5,6,6,7,7,8,8,9,9,10,10,11,11,13,13,14,14,15,15,17,17,19,19,20,20,21,21,22,22,24,24,25,25,27,27,28,28],"right_children":[2,4,6,8,10,12,14,16,18,20,22,24,-1,26,28,30,-1,32,-1,34,36,38,40,-1,42,44,-1,46,48,-1,-1,-1,-1,-1,-1,-1,-1,-1,-1,-1,-1,-1,-1,-1,-1,-1,-1,-1,-1],"split_conditions":[4.321786E0,6.945E1,9.53E1,6.9350006E1,5E-1,9.4350006E1,9.795E1,4.298514E0,9.005E0,1.9575E1,2.135E1,4.5476637E0,1.3736476E-1,9.775E1,4.33E0,4.2300663E0,-1.09773375E-1,5E-1,-1.215874E-1,7.395E0,1.0605E2,3.1896615E-1,2.2650002E1,-1.1718798E-2,4.9186497E0,4.802289E0,-9.495299E-2,5E-1,1.8970001E1,1.1882612E-2,1.0974849E-1,1.897999E-2,-7.158855E-2,-6.10853E-4,1.8096993E-2,-2.4464885E-2,1.10773835E-2,-4.1473567E-2,1.2348685E-2,6.790046E-2,-6.962786E-3,7.928739E-2,1.1429787E-3,-1.6361916E-2,6.593213E-2,9.4573826E-2,-2.0544663E-2,1.9046202E-2,2.356252E-2],"split_indices":[0,2,2,2,3,2,2,0,1,1,1,0,0,2,0,0,0,3,0,1,2,0,1,0,0,0,0,3,1,0,0,0,0,0,0,0,0,0,0,0,0,0,0,0,0,0,0,0,0],"split_type":[0,0,0,0,0,0,0,0,0,0,0,0,0,0,0,0,0,0,0,0,0,0,0,0,0,0,0,0,0,0,0,0,0,0,0,0,0,0,0,0,0,0,0,0,0,0,0,0,0],"sum_hessian":[2.4764E4,1.5673E4,9.091E3,5.295E3,1.0378E4,9E0,9.082E3,5.286E3,9E0,8.363E3,2.015E3,5E0,4E0,2.6E1,9.056E3,5.285E3,1E0,6E0,3E0,8.281E3,8.2E1,1.993E3,2.2E1,2E0,3E0,2.3E1,3E0,1.9E1,9.037E3,5.28E3,5E0,5E0,1E0,9.8E1,8.183E3,3.5E1,4.7E1,5E0,1.988E3,1.8E1,4E0,2E0,1E0,2.2E1,1E0,1.5E1,4E0,2.071E3,6.966E3],"tree_param":{"num_deleted":"0","num_feature":"4","num_nodes":"49","size_leaf_vector":"0"}},{"base_weights":[4.157947E-2,2.9815974E-2,4.8492204E-2,3.2977484E-2,2.044147E-2,4.422667E-2,5.5799402E-2,3.3756062E-2,-2.7277041E-2,1.8347384E-2,9.8838456E-2,4.4962727E-2,7.3630596E-4,1.5947652E-1,5.4418415E-2,3.2901037E-2,1.1281642E-1,-1.12798266E-1,3.6979496E-2,1.8876716E-2,-1.5441643E-1,3.6809377E-2,2.0430642E-1,1.346912E-2,4.59849E-2,-5.7735957E-2,5.2555624E-2,2.0801629E-1,1.5591359E-2,1.0542596E-2,5.604538E-2,3.4967538E-2,4.541409E-3,-8.370646E-3,1.8149543E-1,-7.3866494E-2,-3.5497466E-1,1.1401466E-1,-3.0371342E-2,1.1360262E-1,1.7976213E-2,7.053525E-2,-1.274425E-1,4.5099917E-1,1.0522038E-1,7.840592E-3,1.5071465E-1,1.1552065E-1,4.5261312E-2,2.7292954E-2,-1.2758026E-1,-3.161864E-2,1.2665698E-1,7.686334E-2,2.6321465E-1,9.9169455E-2,-1.5379217E-1,3.5548348E-2,-6.928271E-2,8.374995E-2,5.3877592E-2],"categories":[],"categories_nodes":[],"categories_segments":[],"categories_sizes":[],"default_left":[0,1,1,1,0,1,1,1,1,0,1,0,0,1,0,0,0,0,0,1,0,0,1,1,1,0,1,0,0,0,1,0,0,0,0,0,0,0,0,0,0,0,0,0,0,0,0,0,0,0,0,0,0,0,0,0,0,0,0,0,0],"id":13,"left_children":[1,3,5,7,9,11,13,15,17,19,21,23,25,27,29,31,33,35,37,39,-1,41,43,45,47,49,51,53,55,57,59,-1,-1,-1,-1,-1,-1,-1,-1,-1,-1,-1,-1,-1,-1,-1,-1,-1,-1,-1,-1,-1,-1,-1,-1,-1,-1,-1,-1,-1,-1],"loss_changes":[2.012394E0,2.710724E-1,4.836769E-1,3.225088E-1,3.782404E-1,3.1537628E-1,8.138733E-1,4.5379543E-1,4.877574E-1,2.0922518E-1,3.8500434E-1,3.1128883E-1,5.0298315E-1,5.205679E-1,4.0423012E-1,3.9231968E-1,6.007758E-1,3.320568E-1,2.6807034E-1,1.898849E-1,0E0,2.2503114E-1,4.9030954E-1,2.3520035E-1,4.669304E-1,4.6670726E-1,5.528983E-1,3.8517666E-1,2.9838654E-1,4.0966558E-1,3.2388306E-1,0E0,0E0,0E0,0E0,0E0,0E0,0E0,0E0,0E0,0E0,0E0,0E0,0E0,0E0,0E0,0E0,0E0,0E0,0E0,0E0,0E0,0E0,0E0,0E0,0E0,0E0,0E0,0E0,0E0,0E0],"parents":[2147483647,0,0,1,1,2,2,3,3,4,4,5,5,6,6,7,7,8,8,9,9,10,10,11,11,12,12,13,13,14,14,15,15,16,16,17,17,18,18,19,19,21,21,22,22,23,23,24,24,25,25,26,26,27,27,28,28,29,29,30,30],"right_children":[2,4,6,8,10,12,14,16,18,20,22,24,26,28,30,32,34,36,38,40,-1,42,44,46,48,50,52,54,56,58,60,-1,-1,-1,-1,-1,-1,-1,-1,-1,-1,-1,-1,-1,-1,-1,-1,-1,-1,-1,-1,-1,-1,-1,-1,-1,-1,-1,-1,-1,-1],"split_conditions":[1.1105E1,5E-1,6.0165505E0,2.4298925E0,8.695E1,1.18649994E2,6.057619E0,2.2108598E0,8.725E1,8.645E1,1.8864179E0,7.8850006E1,2.3150002E1,5E-1,1.8305E1,8.4350006E1,8.52E1,1.095E1,9.035E1,4.1068606E-3,-4.632493E-2,1.0475E1,2.0780716E0,1.265E1,1.0801044E0,2.12E1,5.7496047E0,1.9849998E1,2.245E1,1.795E1,6.2876034E0,1.0490262E-2,1.3624228E-3,-2.511194E-3,5.444863E-2,-2.2159949E-2,-1.064924E-1,3.42044E-2,-9.111403E-3,3.408079E-2,5.3928643E-3,2.1160576E-2,-3.823275E-2,1.3529976E-1,3.1566113E-2,2.3521779E-3,4.5214396E-2,3.4656197E-2,1.3578394E-2,8.187886E-3,-3.827408E-2,-9.485592E-3,3.7997097E-2,2.3059003E-2,7.89644E-2,2.9750837E-2,-4.6137653E-2,1.0664505E-2,-2.0784814E-2,2.5124986E-2,1.6163278E-2],"split_indices":[1,3,0,0,2,2,0,0,2,2,0,2,1,3,1,2,2,1,2,0,0,1,0,1,0,1,0,1,1,1,0,0,0,0,0,0,0,0,0,0,0,0,0,0,0,0,0,0,0,0,0,0,0,0,0,0,0,0,0,0,0],"split_type":[0,0,0,0,0,0,0,0,0,0,0,0,0,0,0,0,0,0,0,0,0,0,0,0,0,0,0,0,0,0,0,0,0,0,0,0,0,0,0,0,0,0,0,0,0,0,0,0,0,0,0,0,0,0,0,0,0,0,0,0,0],"sum_hessian":[2.4764E4,9.168E3,1.5596E4,6.854E3,2.314E3,9.852E3,5.744E3,6.767E3,8.7E1,2.255E3,5.9E1,9.688E3,1.64E2,7.4E1,5.67E3,6.696E3,7.1E1,3.7E1,5E1,2.249E3,6E0,3.8E1,2.1E1,3.05E2,9.383E3,7.7E1,8.7E1,5.5E1,1.9E1,2.03E2,5.467E3,6.241E3,4.55E2,2.6E1,4.5E1,3.3E1,4E0,2.3E1,2.7E1,2E1,2.229E3,3.2E1,6E0,5E0,1.6E1,2.94E2,1.1E1,9.5E1,9.288E3,3.5E1,4.2E1,4.1E1,4.6E1,1.7E1,3.8E1,1.3E1,6E0,1.55E2,4.8E1,3.94E2,5.073E3],"tree_param":{"num_deleted":"0","num_feature":"4","num_nodes":"61","size_leaf_vector":"0"}},{"base_weights":[2.9118296E-2,2.1697698E-2,3.4676183E-2,2.1845732E-2,-1.5506469E-1,3.3051528E-2,4.956397E-2,2.1560714E-2,1.1832356E-1,3.323222E-2,-9.678544E-2,7.2639056E-2,3.94055E-2,2.1813024E-2,-7.421347E-2,5.4309208E-2,2.9557616E-1,3.241602E-2,7.358649E-2,1.394622E-1,-2.265311E-1,1.0145107E-1,4.8357345E-2,-1.6643327E-1,4.260065E-2,1.22159E-2,2.4323398E-2,6.1061144E-2,-1.6533594E-1,-8.2234725E-2,1.0439245E-1,7.883892E-2,4.9260366E-1,3.3688527E-2,8.664923E-3,9.466221E-2,1.0197446E-2,1.6379952E-2,2.276789E-1,-2.7424517E-1,1.4916182E-1,1.4902179E-1,7.316674E-2,-1.0950671E-1,5.8228303E-2,1.6149387E-1,-3.0036077E-1,-3.919893E-2,4.631695E-2],"categories":[],"categories_nodes":[],"categories_segments":[],"categories_sizes":[],"default_left":[1,1,1,1,0,1,1,1,1,1,1,1,1,1,1,0,0,1,1,1,0,0,1,0,0,0,0,0,0,0,0,0,0,0,0,0,0,0,0,0,0,0,0,0,0,0,0,0,0],"id":14,"left_children":[1,3,5,7,-1,9,11,13,15,17,19,21,23,25,27,29,31,33,35,37,39,41,43,45,47,-1,-1,-1,-1,-1,-1,-1,-1,-1,-1,-1,-1,-1,-1,-1,-1,-1,-1,-1,-1,-1,-1,-1,-1],"loss_changes":[1.0206261E0,2.809658E-1,3.4080696E-1,2.889285E-1,0E0,3.0276203E-1,3.2319856E-1,2.5704145E-1,3.356955E-1,4.1759682E-1,5.833305E-1,2.9172683E-1,6.437305E-1,2.5370884E-1,3.5523915E-1,1.7271018E-1,3.0278927E-1,3.7750053E-1,3.356992E-1,7.2275996E-2,2.560169E-1,2.4877906E-1,3.6789483E-1,7.0728326E-1,2.9182363E-1,0E0,0E0,0E0,0E0,0E0,0E0,0E0,0E0,0E0,0E0,0E0,0E0,0E0,0E0,0E0,0E0,0E0,0E0,0E0,0E0,0E0,0E0,0E0,0E0],"parents":[2147483647,0,0,1,1,2,2,3,3,5,5,6,6,7,7,8,8,9,9,10,10,11,11,12,12,13,13,14,14,15,15,16,16,17,17,18,18,19,19,20,20,21,21,22,22,23,23,24,24],"right_children":[2,4,6,8,-1,10,12,14,16,18,20,22,24,26,28,30,32,34,36,38,40,42,44,46,48,-1,-1,-1,-1,-1,-1,-1,-1,-1,-1,-1,-1,-1,-1,-1,-1,-1,-1,-1,-1,-1,-1,-1,-1],"split_conditions":[2.0164685E0,1.59E1,3.1325E1,1.465E1,-4.6519406E-2,9.96735E0,1.3215E2,9.255E1,1.9562345E0,9.521072E0,1.275E2,5E-1,7.594954E0,1.9302244E-1,1.8193393E0,8.815E1,1.495E1,1.3015E2,9.849621E0,9.978302E0,3.1099998E1,3.275E1,6.9761868E0,3.425E1,1.3275E2,3.6647702E-3,7.29702E-3,1.8318344E-2,-4.9600784E-2,-2.4670418E-2,3.1317737E-2,2.3651678E-2,1.477811E-1,1.0106558E-2,2.5994768E-3,2.8398665E-2,3.0592338E-3,4.9139857E-3,6.8303674E-2,-8.227356E-2,4.4748545E-2,4.470654E-2,2.1950023E-2,-3.2852016E-2,1.7468492E-2,4.8448164E-2,-9.010823E-2,-1.175968E-2,1.3895086E-2],"split_indices":[0,1,1,1,0,0,2,2,0,0,2,3,0,0,0,2,1,2,0,0,1,1,0,1,2,0,0,0,0,0,0,0,0,0,0,0,0,0,0,0,0,0,0,0,0,0,0,0,0],"split_type":[0,0,0,0,0,0,0,0,0,0,0,0,0,0,0,0,0,0,0,0,0,0,0,0,0,0,0,0,0,0,0,0,0,0,0,0,0,0,0,0,0,0,0,0,0,0,0,0,0],"sum_hessian":[2.4764E4,1.0607E4,1.4157E4,1.0599E4,8E0,1.2767E4,1.39E3,1.0569E4,3E1,1.275E4,1.7E1,4.23E2,9.67E2,1.0542E4,2.7E1,2.3E1,7E0,1.2499E4,2.51E2,6E0,1.1E1,1.92E2,2.31E2,1.4E1,9.53E2,2.187E3,8.355E3,1.1E1,1.6E1,6E0,1.7E1,4E0,3E0,1.1863E4,6.36E2,1.88E2,6.3E1,3E0,3E0,1E1,1E0,7E1,1.22E2,1.3E1,2.18E2,4E0,1E1,4.1E1,9.12E2],"tree_param":{"num_deleted":"0","num_feature":"4","num_nodes":"49","size_leaf_vector":"0"}},{"base_weights":[2.0391E-2,1.6462028E-2,2.6857896E-2,1.662901E-2,-9.126607E-2,7.538916E-2,2.642603E-2,1.8867115E-2,9.079586E-3,-5.0890874E-2,-2.0390987E-1,-1.2872852E-1,9.319751E-2,-1.2744326E-2,2.68672E-2,1.9628283E-2,-1.213187E-2,7.8115533E-3,1.3157994E-1,-1.1480555E-1,7.507794E-2,-2.3908341E-1,-8.904187E-2,-2.3964405E-2,-1.658413E-1,1.1715848E-1,-7.666073E-2,3.2198932E-3,-1.6312997E-1,4.4813526E-1,2.677242E-2,1.9465936E-2,2.852976E-1,-3.1082998E-3,-1.8658039E-1,7.309076E-3,1.3186799E-1,4.6771598E-1,8.684889E-2,-5.021161E-2,-1.8179655E-1,2.014656E-1,-1.5770245E-2,-3.6523342E-3,-3.2294273E-2,-1.8950367E-1,-3.5595894E-2,5.8695354E-2,1.8315774E-1,-1.9914696E-1,1.5685534E-1,-1.6494192E-2,1.18458115E-1,-6.2005322E-2,-2.5185356E-1,5.7087746E-2,2.610762E-2],"categories":[],"categories_nodes":[],"categories_segments":[],"categories_sizes":[],"default_left":[0,0,0,1,0,1,0,0,1,0,1,0,1,0,0,1,1,0,1,0,1,0,0,1,0,0,0,0,1,0,1,0,0,0,0,0,0,0,0,0,0,0,0,0,0,0,0,0,0,0,0,0,0,0,0,0,0],"id":15,"left_children":[1,3,5,7,9,11,13,15,17,19,21,23,25,27,29,31,33,35,37,39,41,-1,-1,43,45,47,49,51,53,-1,55,-1,-1,-1,-1,-1,-1,-1,-1,-1,-1,-1,-1,-1,-1,-1,-1,-1,-1,-1,-1,-1,-1,-1,-1,-1,-1],"loss_changes":[6.287937E-1,2.7868605E-1,1.9414234E-1,2.5977993E-1,9.877525E-2,3.1006715E-1,1.6065598E-1,2.8022146E-1,5.4574907E-1,1.6159324E-1,2.95344E-3,2.324231E-2,3.18299E-1,2.5020736E-1,3.5429382E-1,4.9398088E-1,4.4805238E-1,2.1627559E-1,5.006651E-1,4.7125474E-2,8.3551794E-2,0E0,0E0,3.8964103E-4,8.664027E-3,2.4777067E-1,3.172623E-1,2.1777642E-1,7.410517E-2,0E0,1.8337965E-1,0E0,0E0,0E0,0E0,0E0,0E0,0E0,0E0,0E0,0E0,0E0,0E0,0E0,0E0,0E0,0E0,0E0,0E0,0E0,0E0,0E0,0E0,0E0,0E0,0E0,0E0],"parents":[2147483647,0,0,1,1,2,2,3,3,4,4,5,5,6,6,7,7,8,8,9,9,10,10,11,11,12,12,13,13,14,14,15,15,16,16,17,17,18,18,19,19,20,20,23,23,24,24,25,25,26,26,27,27,28,28,30,30],"right_children":[2,4,6,8,10,12,14,16,18,20,22,24,26,28,30,32,34,36,38,40,42,-1,-1,44,46,48,50,52,54,-1,56,-1,-1,-1,-1,-1,-1,-1,-1,-1,-1,-1,-1,-1,-1,-1,-1,-1,-1,-1,-1,-1,-1,-1,-1,-1,-1],"split_conditions":[1.6875E1,1.6825E1,1.6975E1,5E-1,1.055E2,3.2252545E0,6.1300003E1,1.6425E1,5.359453E0,1.0195E2,5E-1,9.765E1,1.1045E2,6.005E1,6.145E1,6.914584E0,5.986434E0,1.6775E1,1.03100006E2,1.0075E2,4.3738065E0,-7.1725026E-2,-2.6712561E-2,2.9254537E0,1.01399994E2,1.0375E2,1.6925E1,5.855E1,2.3409104E-1,1.3444059E-1,3.0377078E0,5.839781E-3,8.558928E-2,-9.3249E-4,-5.597412E-2,2.1927229E-3,3.95604E-2,1.403148E-1,2.605467E-2,-1.5063483E-2,-5.453897E-2,6.0439683E-2,-4.731074E-3,-1.0957003E-3,-9.688282E-3,-5.6851104E-2,-1.0678768E-2,1.7608607E-2,5.4947324E-2,-5.974409E-2,4.7056604E-2,-4.948258E-3,3.5537437E-2,-1.8601598E-2,-7.555607E-2,1.7126324E-2,7.832287E-3],"split_indices":[1,1,1,3,2,0,2,1,0,2,3,2,2,2,2,0,0,1,2,2,0,0,0,0,2,2,1,2,0,0,0,0,0,0,0,0,0,0,0,0,0,0,0,0,0,0,0,0,0,0,0,0,0,0,0,0,0],"split_type":[0,0,0,0,0,0,0,0,0,0,0,0,0,0,0,0,0,0,0,0,0,0,0,0,0,0,0,0,0,0,0,0,0,0,0,0,0,0,0,0,0,0,0,0,0,0,0,0,0,0,0,0,0,0,0,0,0],"sum_hessian":[2.4764E4,1.5407E4,9.357E3,1.5384E4,2.3E1,8.1E1,9.276E3,1.1865E4,3.519E3,1.8E1,5E0,6E0,7.5E1,1.03E2,9.173E3,1.1581E4,2.84E2,3.484E3,3.5E1,1.2E1,6E0,3E0,2E0,2E0,4E0,6.6E1,9E0,9.4E1,9E0,1E0,9.172E3,1.1575E4,6E0,2.71E2,1.3E1,3.471E3,1.3E1,3E0,3.2E1,7E0,5E0,2E0,4E0,1E0,1E0,3E0,1E0,3.6E1,3E1,6E0,3E0,8.1E1,1.3E1,5E0,4E0,1.95E2,8.977E3],"tree_param":{"num_deleted":"0","num_feature":"4","num_nodes":"57","size_leaf_vector":"0"}},{"base_weights":[1.4282165E-2,1.1449373E-2,1.9227445E-2,1.132392E-2,2.5686133E-1,2.3776998E-1,1.9007012E-2,1.1906965E-2,-4.1833438E-2,2.9295704E-1,2.0956993E-3,2.9232708E-1,3.1213442E-2,-6.4368665E-2,1.9479461E-2,1.2230934E-2,-6.803491E-2,-1.0355472E-3,-9.7916156E-2,8.0613375E-2,3.1417713E-1,-1.0557997E-1,7.83664E-2,8.094953E-2,1.8720344E-2,1.15754055E-2,5.5727612E-2,-1.1416009E-1,3.684225E-2,-3.0033013E-2,1.7923696E-1,-1.4677246E-1,3.6448885E-2,-7.003267E-2,-4.079975E-1,-1.2267196E-1,1.590094E-1,3.2517627E-2,2.1343347E-1,-8.303442E-2,1.9365966E-2],"categories":[],"categories_nodes":[],"categories_segments":[],"categories_sizes":[],"default_left":[1,1,0,1,0,1,0,1,1,0,0,0,0,1,1,1,1,1,1,0,0,0,0,1,1,0,0,0,0,0,0,0,0,0,0,0,0,0,0,0,0],"id":16,"left_children":[1,3,5,7,9,11,13,15,17,-1,-1,19,-1,21,23,25,27,29,31,-1,-1,33,35,37,39,-1,-1,-1,-1,-1,-1,-1,-1,-1,-1,-1,-1,-1,-1,-1,-1],"loss_changes":[3.4671164E-1,4.8193288E-1,4.2991543E-1,4.8836064E-1,7.295358E-2,9.229761E-2,3.5616565E-1,4.0410018E-1,3.9115623E-1,0E0,0E0,7.054746E-3,0E0,3.082711E-1,4.1658545E-1,4.4156766E-1,3.089671E-1,5.281276E-1,4.7799945E-1,0E0,0E0,4.0143186E-1,2.1405405E-1,6.924527E-1,5.831425E-1,0E0,0E0,0E0,0E0,0E0,0E0,0E0,0E0,0E0,0E0,0E0,0E0,0E0,0E0,0E0,0E0],"parents":[2147483647,0,0,1,1,2,2,3,3,4,4,5,5,6,6,7,7,8,8,11,11,13,13,14,14,15,15,16,16,17,17,18,18,21,21,22,22,23,23,24,24],"right_children":[2,4,6,8,10,12,14,16,18,-1,-1,20,-1,22,24,26,28,30,32,-1,-1,34,36,38,40,-1,-1,-1,-1,-1,-1,-1,-1,-1,-1,-1,-1,-1,-1,-1,-1],"split_conditions":[4.357379E0,1.1415E2,1.19E1,1.0675E2,1.158E2,5.069235E0,1.4025E1,1.9575E1,4.1958427E0,8.7887116E-2,6.287098E-4,1.105E1,9.364033E-3,1.0215E2,4.417613E0,1.7975E1,4.093171E0,4.1657257E0,5E-1,2.4184013E-2,9.4253145E-2,1.3975E1,1.345E1,4.4039235E0,4.4532056E0,3.4726218E-3,1.6718285E-2,-3.4248028E-2,1.1052676E-2,-9.009904E-3,5.377109E-2,-4.403174E-2,1.0934666E-2,-2.1009803E-2,-1.2239925E-1,-3.680159E-2,4.7702823E-2,9.755288E-3,6.4030044E-2,-2.4910327E-2,5.80979E-3],"split_indices":[0,2,1,2,2,0,1,1,0,0,0,1,0,2,0,1,0,0,3,0,0,1,1,0,0,0,0,0,0,0,0,0,0,0,0,0,0,0,0,0,0],"split_type":[0,0,0,0,0,0,0,0,0,0,0,0,0,0,0,0,0,0,0,0,0,0,0,0,0,0,0,0,0,0,0,0,0,0,0,0,0,0,0,0,0],"sum_hessian":[2.4764E4,1.5747E4,9.017E3,1.574E4,7E0,8E0,9.009E3,1.557E4,1.7E2,6E0,1E0,6E0,2E0,5E1,8.959E3,1.5508E4,6.2E1,9.9E1,7.1E1,1E0,5E0,3.9E1,1.1E1,1.08E2,8.851E3,1.5279E4,2.29E2,4.3E1,1.9E1,8.6E1,1.3E1,5.2E1,1.9E1,3.6E1,3E0,3E0,8E0,8E1,2.8E1,5.5E1,8.796E3],"tree_param":{"num_deleted":"0","num_feature":"4","num_nodes":"41","size_leaf_vector":"0"}},{"base_weights":[1.0003401E-2,5.4034544E-3,1.2151812E-2,6.1346996E-3,-3.7598114E-2,-9.828743E-3,1.2720124E-2,5.685518E-3,8.4724516E-2,-1.3214345E-1,6.157875E-4,-1.2217529E-2,3.310627E-1,4.612157E-2,1.1917032E-2,6.197497E-3,-6.703541E-2,-4.9950697E-2,1.4923796E-1,-3.2378855E-1,-1.0007377E-1,-6.2844485E-2,5.898692E-2,-3.6267543E-3,-7.228453E-2,3.957721E-1,1.0082197E-1,1.6830672E-1,3.9687768E-2,1.4570993E-2,5.520564E-3,5.846485E-3,9.834833E-2,-8.07897E-2,8.391456E-2,-1.513203E-1,1.5866136E-2,2.3695281E-1,4.5726266E-2,1.1990428E-1,-1.2522985E-1,-1.3116366E-1,1.0268246E-1,3.995546E-1,2.8747397E-2,-6.8188417E-3,1.01751655E-1,-2.6940042E-2,-1.4009802E-1,4.0055208E-2,2.2441857E-1,1.0526843E-1,2.682522E-2,-1.6371448E-2,1.5417758E-2,-4.440358E-3,1.2031135E-2],"categories":[],"categories_nodes":[],"categories_segments":[],"categories_sizes":[],"default_left":[0,1,0,1,0,1,1,1,0,1,1,0,1,0,1,1,1,1,1,0,1,0,0,1,1,0,0,0,1,1,0,0,0,0,0,0,0,0,0,0,0,0,0,0,0,0,0,0,0,0,0,0,0,0,0,0,0],"id":17,"left_children":[1,3,5,7,9,11,13,15,17,19,21,23,25,27,29,31,33,35,37,-1,39,41,43,45,47,-1,-1,49,51,53,55,-1,-1,-1,-1,-1,-1,-1,-1,-1,-1,-1,-1,-1,-1,-1,-1,-1,-1,-1,-1,-1,-1,-1,-1,-1,-1],"loss_changes":[2.4467635E-1,2.4820337E-1,2.1098661E-1,2.7327815E-1,4.7699022E-1,3.5094383E-1,4.4084644E-1,2.8754526E-1,3.897425E-1,2.0114511E-1,3.5561052E-1,2.1853119E-1,4.7936738E-3,2.9676074E-1,2.727232E-1,2.4716333E-1,1.1889474E-1,1.0247826E-1,2.6155043E-1,0E0,2.0316428E-1,5.3366673E-1,5.0344414E-1,1.258261E-1,1.5919906E-1,0E0,0E0,1.27743E-1,3.0759686E-1,2.97817E-1,3.0576235E-1,0E0,0E0,0E0,0E0,0E0,0E0,0E0,0E0,0E0,0E0,0E0,0E0,0E0,0E0,0E0,0E0,0E0,0E0,0E0,0E0,0E0,0E0,0E0,0E0,0E0,0E0],"parents":[2147483647,0,0,1,1,2,2,3,3,4,4,5,5,6,6,7,7,8,8,9,9,10,10,11,11,12,12,13,13,14,14,15,15,16,16,17,17,18,18,20,20,21,21,22,22,23,23,24,24,27,27,28,28,29,29,30,30],"right_children":[2,4,6,8,10,12,14,16,18,20,22,24,26,28,30,32,34,36,38,-1,40,42,44,46,48,-1,-1,50,52,54,56,-1,-1,-1,-1,-1,-1,-1,-1,-1,-1,-1,-1,-1,-1,-1,-1,-1,-1,-1,-1,-1,-1,-1,-1,-1,-1],"split_conditions":[1.0280001E1,8.4850006E1,7.645E1,8.325E1,8.595E1,1.2700001E1,1.1239109E0,8.245E1,9.775E0,1.233427E0,2.0397406E0,7.595E1,1.1444452E0,7.675E1,5E-1,8.205E1,2.4189408E0,1.6358995E0,1.7495226E0,-9.713657E-2,1.5482864E0,1.005E1,8.625E1,1.175E1,1.0746286E0,1.1873163E-1,3.0246593E-2,1.085E1,1.045E1,1.3292539E0,1.9975E1,1.7539456E-3,2.9504498E-2,-2.4236912E-2,2.517437E-2,-4.539609E-2,4.759841E-3,7.108585E-2,1.37178805E-2,3.5971284E-2,-3.7568957E-2,-3.9349098E-2,3.0804738E-2,1.19866386E-1,8.624219E-3,-2.0456526E-3,3.0525498E-2,-8.082013E-3,-4.2029407E-2,1.2016563E-2,6.732557E-2,3.158053E-2,8.047566E-3,-4.9114344E-3,4.625328E-3,-1.3321075E-3,3.6093406E-3],"split_indices":[1,2,2,2,2,1,0,2,1,0,0,2,0,2,3,2,0,0,0,0,0,1,2,1,0,0,0,1,1,0,1,0,0,0,0,0,0,0,0,0,0,0,0,0,0,0,0,0,0,0,0,0,0,0,0,0,0],"split_type":[0,0,0,0,0,0,0,0,0,0,0,0,0,0,0,0,0,0,0,0,0,0,0,0,0,0,0,0,0,0,0,0,0,0,0,0,0,0,0,0,0,0,0,0,0,0,0,0,0,0,0,0,0,0,0,0,0],"sum_hessian":[2.4764E4,7.885E3,1.6879E4,7.754E3,1.31E2,4.25E2,1.6454E4,7.711E3,4.3E1,3.7E1,9.4E1,4.23E2,2E0,3.85E2,1.6069E4,7.658E3,5.3E1,1.4E1,2.9E1,4E0,3.3E1,4.5E1,4.9E1,3.71E2,5.2E1,1E0,1E0,1.8E1,3.67E2,1.1356E4,4.713E3,7.63E3,2.8E1,4.9E1,4E0,5E0,9E0,1.5E1,1.4E1,3E0,3E1,3.2E1,1.3E1,3E0,4.6E1,3.61E2,1E1,3.2E1,2E1,6E0,1.2E1,5.9E1,3.08E2,3.02E2,1.1054E4,1.863E3,2.85E3],"tree_param":{"num_deleted":"0","num_feature":"4","num_nodes":"57","size_leaf_vector":"0"}},{"base_weights":[7.016372E-3,-4.11788E-2,7.1899085E-3,8.8940725E-2,-5.1656604E-2,2.1484764E-1,7.1306974E-3,-4.436207E-2,2.8146514E-1,-5.990226E-2,1.45268915E-2,2.7215657E-1,-6.4502954E-2,6.669051E-3,2.1113988E-2,-9.858251E-3,-5.052346E-2,-6.287164E-2,7.843149E-2,7.177162E-3,1.8230518E-2,6.7831576E-2,4.53871E-1,8.317975E-3,2.085187E-3,-7.493955E-2,2.345672E-2,-5.112603E-2,-1.0871916E-1,-4.7912914E-2,2.0753253E-1,7.835587E-3,4.702689E-2,2.4310786E-3,-9.2719615E-2,-1.24174565E-1,8.775339E-2,2.455615E-1,1.961659E-2],"categories":[],"categories_nodes":[],"categories_segments":[],"categories_sizes":[],"default_left":[0,0,0,0,1,0,1,1,0,1,1,0,0,1,0,0,0,0,0,0,0,0,0,1,1,0,0,0,0,0,0,0,0,0,0,0,0,0,0],"id":18,"left_children":[1,3,5,7,9,11,13,15,-1,17,19,21,-1,23,25,-1,-1,27,-1,-1,-1,29,-1,31,33,35,37,-1,-1,-1,-1,-1,-1,-1,-1,-1,-1,-1,-1],"loss_changes":[2.0742095E-1,1.2593403E-1,3.0188692E-1,1.9213466E-1,4.6165496E-2,1.2961984E-1,1.5911877E-1,5.648844E-4,0E0,3.5327792E-2,1.4136313E-4,1.9198605E-1,0E0,1.805085E-1,1.7907959E-1,0E0,0E0,3.375268E-2,0E0,0E0,0E0,7.462195E-2,0E0,3.2761824E-1,2.0747203E-1,1.6309033E-1,6.519245E-1,0E0,0E0,0E0,0E0,0E0,0E0,0E0,0E0,0E0,0E0,0E0,0E0],"parents":[2147483647,0,0,1,1,2,2,3,3,4,4,5,5,6,6,7,7,9,9,10,10,11,11,13,13,14,14,17,17,21,21,23,23,24,24,25,25,26,26],"right_children":[2,4,6,8,10,12,14,16,-1,18,20,22,-1,24,26,-1,-1,28,-1,-1,-1,30,-1,32,34,36,38,-1,-1,-1,-1,-1,-1,-1,-1,-1,-1,-1,-1],"split_conditions":[2.2350001E0,1.785E0,2.2649999E0,1.73E0,5E-1,4.75E1,3.5025E1,2.0534301E-2,8.4439546E-2,5.365E1,3.6961745E-2,4.525E1,-1.9350886E-2,5E-1,1.2545E2,-2.9574754E-3,-1.5157038E-2,4.525E1,2.3529448E-2,2.1531486E-3,5.4691555E-3,2.245E0,1.3616131E-1,3.1275E1,3.485E1,3.7300003E1,1.2655E2,-1.5337809E-2,-3.261575E-2,-1.4373875E-2,6.225976E-2,2.350676E-3,1.4108068E-2,7.293236E-4,-2.7815886E-2,-3.725237E-2,2.632602E-2,7.366845E-2,5.8849775E-3],"split_indices":[1,1,1,1,3,2,1,0,0,2,0,2,0,3,2,0,0,2,0,0,0,1,0,1,1,1,2,0,0,0,0,0,0,0,0,0,0,0,0],"split_type":[0,0,0,0,0,0,0,0,0,0,0,0,0,0,0,0,0,0,0,0,0,0,0,0,0,0,0,0,0,0,0,0,0,0,0,0,0,0,0],"sum_hessian":[2.4764E4,8.8E1,2.4676E4,6E0,8.2E1,6E0,2.467E4,4E0,2E0,7.3E1,9E0,5E0,1E0,2.3883E4,7.87E2,1E0,3E0,7.2E1,1E0,4E0,5E0,3E0,2E0,1.7564E4,6.319E3,1.8E1,7.69E2,5.9E1,1.3E1,2E0,1E0,1.7349E4,2.15E2,6.297E3,2.2E1,1.4E1,4E0,1.2E1,7.57E2],"tree_param":{"num_deleted":"0","num_feature":"4","num_nodes":"39","size_leaf_vector":"0"}},{"base_weights":[4.922349E-3,-4.0137665E-3,5.625456E-3,-2.7636874E-3,-1.6391577E-1,2.0562351E-1,5.5555007E-3,-1.9396105E-3,-1.4958504E-1,-2.7954233E-1,-8.354596E-3,-1.6165352E-1,2.81185E-1,1.8519593E-2,4.808569E-3,5.3327E-3,-1.3934965E-2,-1.7580771E-1,4.3209553E-2,3.688419E-2,-3.3001527E-1,-1.090527E-1,1.6226046E-1,4.9211836E-1,9.8388E-2,3.9298167E-3,5.4298025E-2,-1.7504338E-2,5.662258E-3,9.330342E-3,-5.4308344E-2,-7.015878E-2,-3.6701462E-3,-2.630569E-1,-1.1329981E-1,7.341468E-2,-1.7302322E-1,-1.7875671E-1,3.4273672E-1,4.139592E-1,2.0742328E-3,-9.544734E-4,7.258361E-2,-5.2076387E-3,-1.9071993E-1,4.7502767E-2,5.327083E-3],"categories":[],"categories_nodes":[],"categories_segments":[],"categories_sizes":[],"default_left":[0,1,0,1,0,1,0,1,0,1,1,0,1,1,0,0,1,0,0,0,0,0,0,0,1,1,0,1,0,0,0,0,0,0,0,0,0,0,0,0,0,0,0,0,0,0,0],"id":19,"left_children":[1,3,5,7,9,11,13,15,17,19,21,-1,23,25,27,29,31,33,-1,-1,-1,35,-1,-1,37,39,41,43,45,-1,-1,-1,-1,-1,-1,-1,-1,-1,-1,-1,-1,-1,-1,-1,-1,-1,-1],"loss_changes":[1.5562224E-1,3.6074847E-1,3.2007438E-1,2.1676964E-1,2.4948254E-1,2.6747057E-1,2.2216195E-1,1.557869E-1,5.8152497E-2,1.399402E-1,1.3795923E-1,0E0,2.214874E-1,6.522857E-1,4.1350406E-1,2.6563364E-1,3.8872635E-1,1.92796E-2,0E0,0E0,0E0,7.1065105E-2,0E0,0E0,3.9986628E-1,6.755316E-1,3.658067E-1,1.702991E0,2.929021E-1,0E0,0E0,0E0,0E0,0E0,0E0,0E0,0E0,0E0,0E0,0E0,0E0,0E0,0E0,0E0,0E0,0E0,0E0],"parents":[2147483647,0,0,1,1,2,2,3,3,4,4,5,5,6,6,7,7,8,8,9,9,10,10,12,12,13,13,14,14,15,15,16,16,17,17,21,21,24,24,25,25,26,26,27,27,28,28],"right_children":[2,4,6,8,10,12,14,16,18,20,22,-1,24,26,28,30,32,34,-1,-1,-1,36,-1,-1,38,40,42,44,46,-1,-1,-1,-1,-1,-1,-1,-1,-1,-1,-1,-1,-1,-1,-1,-1,-1,-1],"split_conditions":[4.41E0,6.235E1,4.4449997E0,5.2567816E-1,7.06E1,8.350617E-2,5.915E0,1.3552639E-1,1.15E2,8.898197E-2,1.738571E-1,-4.8496056E-2,9.71957E-2,2.6147014E-1,6.9849997E0,5.805E1,1.5742965E-1,3.65E0,1.2962867E-2,1.1065257E-2,-9.900459E-2,7.35E1,4.867814E-2,1.4763552E-1,5E-1,3.6961745E-2,4.9049997E0,6.9953525E-1,7.1549997E0,2.7991026E-3,-1.6292503E-2,-2.1047635E-2,-1.1010439E-3,-7.891707E-2,-3.3989944E-2,2.2024406E-2,-5.190697E-2,-5.3627018E-2,1.0282102E-1,1.2418777E-1,6.222699E-4,-2.8634202E-4,2.1775084E-2,-1.5622916E-3,-5.721598E-2,1.4250831E-2,1.598125E-3],"split_indices":[1,2,1,0,2,0,1,0,2,0,0,0,0,0,1,2,0,1,0,0,0,2,0,0,3,0,1,0,1,0,0,0,0,0,0,0,0,0,0,0,0,0,0,0,0,0,0],"split_type":[0,0,0,0,0,0,0,0,0,0,0,0,0,0,0,0,0,0,0,0,0,0,0,0,0,0,0,0,0,0,0,0,0,0,0,0,0,0,0,0,0,0,0,0,0,0,0],"sum_hessian":[2.4764E4,1.806E3,2.2958E4,1.793E3,1.3E1,7E0,2.2951E4,1.784E3,9E0,7E0,6E0,1E0,6E0,1.249E3,2.1702E4,1.111E3,6.73E2,8E0,1E0,1E0,6E0,4E0,2E0,2E0,4E0,8.88E2,3.61E2,7.99E2,2.0903E4,1.042E3,6.9E1,1.03E2,5.7E2,2E0,6E0,1E0,3E0,2E0,2E0,3E0,8.85E2,9E1,2.71E2,7.47E2,5.2E1,1.65E2,2.0738E4],"tree_param":{"num_deleted":"0","num_feature":"4","num_nodes":"47","size_leaf_vector":"0"}},{"base_weights":[3.4473678E-3,3.3693998E-3,7.2209E-2,3.4216703E-3,-7.760897E-2,1.0725947E-1,-1.6490865E-1,3.0545876E-3,1.6969198E-2,-3.230993E-1,-1.9460406E-2,3.1139985E-1,5.3547017E-2,-4.5064133E-2,-2.622211E-1,2.9499542E-3,6.745735E-2,1.0224735E-1,1.2257685E-2,-4.098892E-3,-2.0326762E-2,9.59323E-4,1.2355736E-1,-5.53751E-2,-1.2221098E-2,2.9841503E-3,-2.7196693E-1,2.4729007E-1,2.0391122E-2,1.3373761E-1,1.3296986E-2,9.934547E-2,9.033289E-3,-1.4450121E-1,2.51228E-2,2.377789E-1,7.95573E-2],"categories":[],"categories_nodes":[],"categories_segments":[],"categories_sizes":[],"default_left":[1,1,0,1,1,1,1,1,1,0,0,0,1,1,0,1,1,1,1,0,0,0,1,0,0,0,0,0,0,0,0,0,0,0,0,0,0],"id":20,"left_children":[1,3,5,7,9,11,13,15,17,-1,19,-1,21,23,-1,25,27,29,31,-1,-1,33,35,-1,-1,-1,-1,-1,-1,-1,-1,-1,-1,-1,-1,-1,-1],"loss_changes":[1.3252702E-1,1.0497618E-1,2.5039834E-1,1.2289715E-1,2.2211091E-1,2.5744742E-1,3.4832686E-2,1.6201468E-1,2.607132E-1,0E0,1.03002414E-4,0E0,7.71968E-2,3.3918582E-4,0E0,2.2675729E-1,3.250553E-1,9.345806E-2,1.7292121E-1,0E0,0E0,4.9323093E-2,2.631475E-2,0E0,0E0,0E0,0E0,0E0,0E0,0E0,0E0,0E0,0E0,0E0,0E0,0E0,0E0],"parents":[2147483647,0,0,1,1,2,2,3,3,4,4,5,5,6,6,7,7,8,8,10,10,12,12,13,13,15,15,16,16,17,17,18,18,21,21,22,22],"right_children":[2,4,6,8,10,12,14,16,18,-1,20,-1,22,24,-1,26,28,30,32,-1,-1,34,36,-1,-1,-1,-1,-1,-1,-1,-1,-1,-1,-1,-1,-1,-1],"split_conditions":[4.915E1,4.8125E1,1.484E2,9.532022E0,5E-1,9.410187E0,9.818134E0,1.4325E2,9.564878E0,-9.692979E-2,1.38E2,9.3419954E-2,9.812658E0,9.43209E0,-7.866633E-2,1.4305E2,9.110386E0,1.381E2,2.1975E1,-1.2296677E-3,-6.0980287E-3,1.369E2,9.852358E0,-1.661253E-2,-3.6663294E-3,8.952451E-4,-8.1590086E-2,7.4187025E-2,6.117337E-3,4.0121283E-2,3.989096E-3,2.9803641E-2,2.7099866E-3,-4.3350365E-2,7.5368406E-3,7.133368E-2,2.3867192E-2],"split_indices":[1,1,2,0,3,0,0,2,0,0,2,0,0,0,0,2,0,2,1,0,0,2,0,0,0,0,0,0,0,0,0,0,0,0,0,0,0],"split_type":[0,0,0,0,0,0,0,0,0,0,0,0,0,0,0,0,0,0,0,0,0,0,0,0,0,0,0,0,0,0,0,0,0,0,0,0,0],"sum_hessian":[2.4764E4,2.4737E4,2.7E1,2.4722E4,1.5E1,2.4E1,3E0,2.4071E4,6.51E2,2E0,1.3E1,4E0,2E1,2E0,1E0,2.4033E4,3.8E1,3.3E1,6.18E2,1E0,1.2E1,1.2E1,8E0,1E0,1E0,2.4031E4,2E0,7E0,3.1E1,2.4E1,9E0,2.1E1,5.97E2,1E0,1.1E1,1E0,7E0],"tree_param":{"num_deleted":"0","num_feature":"4","num_nodes":"37","size_leaf_vector":"0"}},{"base_weights":[2.4143637E-3,-5.12314E-3,2.9050468E-3,-6.327064E-3,1.9690269E-1,1.2062057E-1,2.8340057E-3,-2.2356478E-3,-4.82016E-2,3.2031703E-1,8.1809364E-2,9.342641E-3,2.3056385E-1,2.9280249E-2,2.60663E-3,4.0344434E-4,-4.2737946E-2,-5.7748623E-2,1.332585E-1,-7.2859526E-2,1.7735869E-1,5.2577052E-2,-1.4664912E-1,2.6110372E-1,2.3662329E-2,-4.6308998E-2,5.8676876E-2,-2.7848607E-2,2.9162618E-3,-1.5213543E-3,7.376687E-2,-6.586348E-2,1.57293E-1,-4.766231E-2,-2.0308548E-1,-2.0225525E-3,3.1430745E-1,2.185313E-1,2.6920438E-2,1.5928137E-1,8.246104E-3,2.9663673E-1,4.1719317E-2,1.9177297E-1,-7.8714296E-2,4.808623E-2,2.3138326E-1,-4.3994408E-2,4.414095E-2,8.752533E-2,2.778679E-3],"categories":[],"categories_nodes":[],"categories_segments":[],"categories_sizes":[],"default_left":[0,1,1,1,0,0,0,0,1,0,1,1,0,0,0,0,1,1,1,0,1,0,0,1,0,0,1,1,1,0,0,0,0,0,0,0,0,0,0,0,0,0,0,0,0,0,0,0,0,0,0],"id":21,"left_children":[1,3,5,7,9,11,13,15,17,-1,19,21,23,25,27,29,31,33,35,-1,37,39,-1,41,-1,43,45,47,49,-1,-1,-1,-1,-1,-1,-1,-1,-1,-1,-1,-1,-1,-1,-1,-1,-1,-1,-1,-1,-1,-1],"loss_changes":[9.160888E-2,3.6948657E-1,1.941061E-1,2.5790942E-1,1.01632595E-1,1.6912553E-1,1.3966519E-1,1.4677624E-1,2.3983765E-1,0E0,1.01593316E-1,6.1664075E-2,3.8052946E-2,4.4268692E-1,2.1736515E-1,1.8227291E-1,3.9892894E-1,1.779573E-1,1.7208314E-1,0E0,1.8892765E-2,3.1798676E-2,0E0,3.4396827E-2,0E0,4.471418E-1,2.5043097E-1,2.716023E-1,2.6529425E-1,0E0,0E0,0E0,0E0,0E0,0E0,0E0,0E0,0E0,0E0,0E0,0E0,0E0,0E0,0E0,0E0,0E0,0E0,0E0,0E0,0E0,0E0],"parents":[2147483647,0,0,1,1,2,2,3,3,4,4,5,5,6,6,7,7,8,8,10,10,11,11,12,12,13,13,14,14,15,15,16,16,17,17,18,18,20,20,21,21,23,23,25,25,26,26,27,27,28,28],"right_children":[2,4,6,8,10,12,14,16,18,-1,20,22,24,26,28,30,32,34,36,-1,38,40,-1,42,-1,44,46,48,50,-1,-1,-1,-1,-1,-1,-1,-1,-1,-1,-1,-1,-1,-1,-1,-1,-1,-1,-1,-1,-1,-1],"split_conditions":[5.395E1,6.05E0,9.582674E-3,3.1896615E-1,4.66E1,3.72E0,5.475E1,4.775E0,4.9049997E0,9.6095115E-2,2.9843187E-1,4.1068606E-3,5.895E1,3.96E0,5.585E1,4.525E0,2.327221E-1,4.675E0,4.5312363E-1,-2.1857858E-2,6.735251E-1,2.62E0,-4.399474E-2,6.8447674E-3,7.098699E-3,3.205E0,3.9562756E-1,2.0397407E-1,5.6127094E-2,-4.564063E-4,2.2130063E-2,-1.9759046E-2,4.7187906E-2,-1.4298693E-2,-6.0925648E-2,-6.067658E-4,9.429224E-2,6.5559395E-2,8.076131E-3,4.7784414E-2,2.4738314E-3,8.899102E-2,1.2515795E-2,5.7531893E-2,-2.361429E-2,1.4425869E-2,6.941498E-2,-1.3198323E-2,1.3242286E-2,2.62576E-2,8.336037E-4],"split_indices":[2,1,0,0,2,1,2,1,1,0,0,0,2,1,2,1,0,1,0,0,0,1,0,0,0,1,0,0,0,0,0,0,0,0,0,0,0,0,0,0,0,0,0,0,0,0,0,0,0,0,0],"split_type":[0,0,0,0,0,0,0,0,0,0,0,0,0,0,0,0,0,0,0,0,0,0,0,0,0,0,0,0,0,0,0,0,0,0,0,0,0,0,0,0,0,0,0,0,0,0,0,0,0,0,0],"sum_hessian":[2.4764E4,1.513E3,2.3251E4,1.505E3,8E0,1.3E1,2.3238E4,1.372E3,1.33E2,3E0,5E0,7E0,6E0,1.97E2,2.3041E4,1.289E3,8.3E1,1.27E2,6E0,2E0,3E0,6E0,1E0,5E0,1E0,5.5E1,1.42E2,2.31E2,2.281E4,1.257E3,3.2E1,7.5E1,8E0,1.2E2,7E0,4E0,2E0,2E0,1E0,1E0,5E0,4E0,1E0,6E0,4.9E1,1.35E2,7E0,1.89E2,4.2E1,3.6E1,2.2774E4],"tree_param":{"num_deleted":"0","num_feature":"4","num_nodes":"51","size_leaf_vector":"0"}},{"base_weights":[1.7093252E-3,-2.8518818E-2,1.8182767E-3,6.9515266E-2,-3.644315E-2,1.7170313E-1,1.7700009E-3,-3.6486723E-2,2.2301348E-1,-6.309226E-2,-2.1729201E-2,2.191358E-1,-5.6446433E-2,3.6946826E-2,1.6310824E-3,-9.998441E-3,-4.060918E-2,-7.375988E-2,2.8642653E-3,2.2071505E-1,-3.0306224E-2,3.9954543E-2,3.849989E-1,-7.436149E-2,7.662834E-2,-1.2689048E-2,1.8950925E-3,-3.3668555E-2,7.394862E-2,-3.9189022E-2,1.3869262E-1,-1.1423331E-1,1.3644536E-2,-6.644201E-2,8.8296905E-2,-3.1337654E-3,-6.2147196E-2,5.4321803E-2,1.6921897E-3],"categories":[],"categories_nodes":[],"categories_segments":[],"categories_sizes":[],"default_left":[0,0,0,0,1,0,1,1,0,1,1,0,0,0,0,0,0,0,0,0,1,0,0,0,1,0,0,0,0,0,0,0,0,0,0,0,0,0,0],"id":22,"left_children":[1,3,5,7,9,11,13,15,-1,17,19,21,-1,23,25,-1,-1,-1,-1,-1,27,29,-1,31,33,35,37,-1,-1,-1,-1,-1,-1,-1,-1,-1,-1,-1,-1],"loss_changes":[8.161294E-2,7.167343E-2,2.0208025E-1,1.2203485E-1,3.1174488E-2,8.812161E-2,1.2049979E-1,1.3995636E-4,0E0,2.0615645E-2,1.2105879E-1,1.6293493E-1,0E0,4.3413585E-1,9.293373E-2,0E0,0E0,0E0,0E0,0E0,2.1418855E-2,3.6693163E-2,0E0,9.279163E-2,1.2606522E-1,2.1010627E-1,2.5660217E-1,0E0,0E0,0E0,0E0,0E0,0E0,0E0,0E0,0E0,0E0,0E0,0E0],"parents":[2147483647,0,0,1,1,2,2,3,3,4,4,5,5,6,6,7,7,9,9,10,10,11,11,13,13,14,14,20,20,21,21,23,23,24,24,25,25,26,26],"right_children":[2,4,6,8,10,12,14,16,-1,18,20,22,-1,24,26,-1,-1,-1,-1,-1,28,30,-1,32,34,36,38,-1,-1,-1,-1,-1,-1,-1,-1,-1,-1,-1,-1],"split_conditions":[2.2350001E0,1.785E0,2.2649999E0,1.73E0,3.559279E-2,4.75E1,4.1068606E-3,2.0534301E-2,6.6904046E-2,5E-1,4.1068606E-2,2.245E0,-1.6933931E-2,4.775E1,3.1149998E0,-2.9995323E-3,-1.2182754E-2,-2.2127965E-2,8.5927965E-4,6.621452E-2,5.24E1,4.55E1,1.1549967E-1,2.935E0,2.335E0,3.0349998E0,3.205E0,-1.0100567E-2,2.2184588E-2,-1.1756707E-2,4.1607786E-2,-3.4269992E-2,4.093361E-3,-1.9932605E-2,2.6489073E-2,-9.401297E-4,-1.864416E-2,1.6296541E-2,5.0765695E-4],"split_indices":[1,1,1,1,0,2,0,0,0,3,0,1,0,2,1,0,0,0,0,0,2,2,0,1,1,1,1,0,0,0,0,0,0,0,0,0,0,0,0],"split_type":[0,0,0,0,0,0,0,0,0,0,0,0,0,0,0,0,0,0,0,0,0,0,0,0,0,0,0,0,0,0,0,0,0,0,0,0,0,0,0],"sum_hessian":[2.4764E4,8.8E1,2.4676E4,6E0,8.2E1,6E0,2.467E4,4E0,2E0,2.8E1,5.4E1,5E0,1E0,9.6E1,2.4574E4,1E0,3E0,2.4E1,4E0,1E0,5.3E1,3E0,2E0,2.5E1,7.1E1,4.44E2,2.413E4,5.2E1,1E0,2E0,1E0,1.7E1,8E0,5E0,6.6E1,3.73E2,7.1E1,9.2E1,2.4038E4],"tree_param":{"num_deleted":"0","num_feature":"4","num_nodes":"39","size_leaf_vector":"0"}},{"base_weights":[1.2049159E-3,1.1886957E-3,2.0144129E-1,4.1128832E-4,4.9764547E-3,-5.1401657E-5,7.364941E-2,1.1411993E-2,-3.0295383E-3,1.0596045E-3,-4.0799815E-2,2.304789E-1,2.5864072E-2,-8.73412E-3,1.9291071E-2,-2.5792664E-1,-1.9391985E-3,4.7018199E-4,2.1812003E-2,3.0811275E-3,-6.507518E-2,1.1669146E-1,3.9143574E-1,-9.86796E-2,6.22569E-2,4.8817517E-3,-5.4483317E-2,3.680386E-2,2.7277896E-3,1.8099499E-1,-3.4648615E-1,-1.3270494E-1,-8.120773E-4],"categories":[],"categories_nodes":[],"categories_segments":[],"categories_sizes":[],"default_left":[1,0,0,1,1,1,0,0,1,0,0,1,1,1,1,0,0,0,0,0,0,0,0,0,0,0,0,0,0,0,0,0,0],"id":23,"left_children":[1,3,-1,5,7,9,11,13,15,17,19,21,23,25,27,29,31,-1,-1,-1,-1,-1,-1,-1,-1,-1,-1,-1,-1,-1,-1,-1,-1],"loss_changes":[8.0194265E-2,7.291882E-2,0E0,6.9630444E-1,2.1730655E-1,9.2449206E-1,9.607843E-1,3.712858E-1,5.219978E-1,2.431483E-1,5.77553E-1,5.0376856E-1,4.5939314E-1,4.1014415E-1,4.8750603E-1,3.736778E-1,2.7595153E-1,0E0,0E0,0E0,0E0,0E0,0E0,0E0,0E0,0E0,0E0,0E0,0E0,0E0,0E0,0E0,0E0],"parents":[2147483647,0,0,1,1,3,3,4,4,5,5,6,6,7,7,8,8,9,9,10,10,11,11,12,12,13,13,14,14,15,15,16,16],"right_children":[2,4,-1,6,8,10,12,14,16,18,20,22,24,26,28,30,32,-1,-1,-1,-1,-1,-1,-1,-1,-1,-1,-1,-1,-1,-1,-1,-1],"split_conditions":[5.1025E1,2.3975E1,6.043239E-2,1.2675E2,1.3015E2,1.2095E2,1.2745E2,1.20149994E2,6.9255357E0,2.2175E1,2.1875E1,5E-1,7.7496457E0,2.5975E1,7.6154885E0,2.5325E1,1.3025E2,1.410546E-4,6.5436014E-3,9.243383E-4,-1.9522555E-2,3.500744E-2,1.17430724E-1,-2.9603882E-2,1.867707E-2,1.4645256E-3,-1.6344996E-2,1.1041159E-2,8.183369E-4,5.4298498E-2,-1.0394585E-1,-3.9811485E-2,-2.436232E-4],"split_indices":[1,1,0,2,2,2,2,2,0,1,1,3,0,1,0,1,2,0,0,0,0,0,0,0,0,0,0,0,0,0,0,0,0],"split_type":[0,0,0,0,0,0,0,0,0,0,0,0,0,0,0,0,0,0,0,0,0,0,0,0,0,0,0,0,0,0,0,0,0],"sum_hessian":[2.4764E4,2.4763E4,1E0,2.0547E4,4.216E3,2.0419E4,1.28E2,2.337E3,1.879E3,1.9878E4,5.41E2,2.9E1,9.9E1,6.57E2,1.68E3,7E0,1.872E3,1.933E4,5.48E2,1.93E2,3.48E2,1.8E1,1.1E1,2.2E1,7.7E1,5.07E2,1.5E2,8.16E2,8.64E2,1E0,6E0,1.5E1,1.857E3],"tree_param":{"num_deleted":"0","num_feature":"4","num_nodes":"33","size_leaf_vector":"0"}},{"base_weights":[8.473106E-4,1.9053177E-3,-1.8655057E-3,1.1616297E-3,1.5196723E-2,-2.5724678E-3,3.771648E-2,2.0456312E-3,-2.4405945E-2,8.387069E-2,7.5932574E-3,-3.5806722E-3,1.892783E-2,1.3581687E-1,2.3742199E-2,1.1845258E-3,6.6506885E-2,-6.4904876E-2,9.225549E-3,1.7877963E-1,6.2110137E-2,-2.712222E-1,9.561696E-3,-3.3620775E-3,-2.878684E-1,-1.3254963E-1,2.4493115E-2,4.048729E-3,3.327943E-1,-6.820389E-2,4.2889237E-2,2.2987933E-3,-1.1322058E-2,8.554151E-2,-1.6022241E-1,1.0283111E-1,-7.6515734E-2,4.8355095E-2,-2.4335833E-2,2.5118825E-1,-4.5238685E-2,-1.4103699E-1,7.211652E-2,-7.827926E-2,-2.9415494E-1,-8.703352E-2,1.3713508E-2,-9.986836E-4,-1.423405E-2,-3.5277307E-1,-1.412487E-2,1.7645836E-2,-1.6788705E-1,6.753844E-2,3.4936666E-3,8.814744E-2,-9.767947E-2,4.4477588E-1,-1.1355674E-1,-1.17100015E-1,1.4443159E-1,7.0810355E-2,-1.2535157E-2],"categories":[],"categories_nodes":[],"categories_segments":[],"categories_sizes":[],"default_left":[1,1,0,1,0,1,1,1,1,1,0,1,0,0,1,0,0,1,1,0,1,1,1,0,0,0,1,1,1,1,1,0,0,0,0,0,0,0,0,0,0,0,0,0,0,0,0,0,0,0,0,0,0,0,0,0,0,0,0,0,0,0,0],"id":24,"left_children":[1,3,5,7,9,11,13,15,17,19,21,23,25,27,29,31,33,35,37,39,41,43,45,47,49,51,53,55,57,59,61,-1,-1,-1,-1,-1,-1,-1,-1,-1,-1,-1,-1,-1,-1,-1,-1,-1,-1,-1,-1,-1,-1,-1,-1,-1,-1,-1,-1,-1,-1,-1,-1],"loss_changes":[7.108354E-2,1.7609732E-1,1.9455062E-1,3.8143232E-1,4.9228227E-1,1.4807627E-1,1.6402306E-1,9.0531117E-1,7.6878905E-1,1.8303144E-1,4.696487E-1,4.0439624E-1,2.6120922E-1,3.879829E-1,1.9305871E-1,2.2434866E-1,9.415829E-1,5.064434E-1,4.069684E-1,2.8711796E-1,1.6872692E-1,3.5220385E-3,3.404777E-1,1.6748987E-1,8.3853304E-2,6.134522E-2,2.673267E-1,9.416231E-2,3.5040575E-1,2.1445692E-1,1.4016363E-1,0E0,0E0,0E0,0E0,0E0,0E0,0E0,0E0,0E0,0E0,0E0,0E0,0E0,0E0,0E0,0E0,0E0,0E0,0E0,0E0,0E0,0E0,0E0,0E0,0E0,0E0,0E0,0E0,0E0,0E0,0E0,0E0],"parents":[2147483647,0,0,1,1,2,2,3,3,4,4,5,5,6,6,7,7,8,8,9,9,10,10,11,11,12,12,13,13,14,14,15,15,16,16,17,17,18,18,19,19,20,20,21,21,22,22,23,23,24,24,25,25,26,26,27,27,28,28,29,29,30,30],"right_children":[2,4,6,8,10,12,14,16,18,20,22,24,26,28,30,32,34,36,38,40,42,44,46,48,50,52,54,56,58,60,62,-1,-1,-1,-1,-1,-1,-1,-1,-1,-1,-1,-1,-1,-1,-1,-1,-1,-1,-1,-1,-1,-1,-1,-1,-1,-1,-1,-1,-1,-1,-1,-1],"split_conditions":[5E-1,1.2695E2,4.7025E1,7.5525165E0,2.4475E1,9.73189E0,2.5599432E-1,7.2486086E0,8.042603E0,7.396456E0,2.455E1,9.729153E0,1.2725E2,5.5449997E1,6.145E1,1.1825E2,1.26649994E2,1.10350006E2,1.2255E2,1.291E2,7.5648375E0,7.449845E0,6.9186907E0,1.2985E2,4.0325E1,2.2125E1,9.812658E0,1.1088523E-1,5.99E1,9.2075815E0,9.638802E0,6.89638E-4,-3.3966175E-3,2.5662454E-2,-4.8066724E-2,3.0849334E-2,-2.2954721E-2,1.4506529E-2,-7.3007504E-3,7.5356476E-2,-1.3571606E-2,-4.23111E-2,2.1634955E-2,-2.3483777E-2,-8.824649E-2,-2.6110057E-2,4.1140527E-3,-2.996051E-4,-4.270215E-3,-1.0583193E-1,-4.2374614E-3,5.293751E-3,-5.0366115E-2,2.0261534E-2,1.0481001E-3,2.6444232E-2,-2.9303843E-2,1.3343278E-1,-3.4067024E-2,-3.5130005E-2,4.3329477E-2,2.1243107E-2,-3.7605471E-3],"split_indices":[3,2,1,0,1,0,0,0,0,0,1,0,2,2,2,2,2,2,2,2,0,0,0,2,1,1,0,0,2,0,0,0,0,0,0,0,0,0,0,0,0,0,0,0,0,0,0,0,0,0,0,0,0,0,0,0,0,0,0,0,0,0,0],"split_type":[0,0,0,0,0,0,0,0,0,0,0,0,0,0,0,0,0,0,0,0,0,0,0,0,0,0,0,0,0,0,0,0,0,0,0,0,0,0,0,0,0,0,0,0,0,0,0,0,0,0,0,0,0,0,0,0,0,0,0,0,0,0,0],"sum_hessian":[2.4764E4,1.7816E4,6.948E3,1.6873E4,9.43E2,6.827E3,1.21E2,1.631E4,5.63E2,9.3E1,8.5E2,6.522E3,3.05E2,1.4E1,1.07E2,1.6096E4,2.14E2,2.55E2,3.08E2,1.6E1,7.7E1,5E0,8.45E2,6.518E3,4E0,1E1,2.95E2,9E0,5E0,1.8E1,8.9E1,1.478E4,1.316E3,1.98E2,1.6E1,1.6E1,2.39E2,1.42E2,1.66E2,1.2E1,4E0,3E0,7.4E1,1E0,4E0,3.4E1,8.11E2,5.355E3,1.163E3,3E0,1E0,2E0,8E0,9.6E1,1.99E2,5E0,4E0,4E0,1E0,1.5E1,3E0,5.9E1,3E1],"tree_param":{"num_deleted":"0","num_feature":"4","num_nodes":"63","size_leaf_vector":"0"}}]},"name":"gbtree"},"learner_model_param":{"base_score":"5E-1","boost_from_average":"1","num_class":"0","num_feature":"4","num_target":"1"},"objective":{"name":"reg:squarederror","reg_loss_param":{"scale_pos_weight":"1"}}},"version":[1,7,3]}