{"learner":{"attributes":{"best_iteration":"199","best_ntree_limit":"200","scikit_learn":"{\"n_estimators\": 100, \"objective\": \"reg:squarederror\", \"max_depth\": null, \"max_leaves\": null, \"max_bin\": null, \"grow_policy\": null, \"learning_rate\": null, \"verbosity\": null, \"booster\": null, \"tree_method\": null, \"gamma\": null, \"min_child_weight\": null, \"max_delta_step\": null, \"subsample\": null, \"sampling_method\": null, \"colsample_bytree\": null, \"colsample_bylevel\": null, \"colsample_bynode\": null, \"reg_alpha\": null, \"reg_lambda\": null, \"scale_pos_weight\": null, \"base_score\": null, \"missing\": NaN, \"num_parallel_tree\": null, \"random_state\": null, \"n_jobs\": null, \"monotone_constraints\": null, \"interaction_constraints\": null, \"importance_type\": null, \"gpu_id\": null, \"validate_parameters\": null, \"predictor\": null, \"enable_categorical\": false, \"feature_types\": null, \"max_cat_to_onehot\": null, \"max_cat_threshold\": null, \"eval_metric\": null, \"early_stopping_rounds\": null, \"callbacks\": null, \"_estimator_type\": \"regressor\"}"},"feature_names":[],"feature_types":[],"gradient_booster":{"model":{"gbtree_model_param":{"num_parallel_tree":"1","num_trees":"200","size_leaf_vector":"0"},"tree_info":[0,0,0,0,0,0,0,0,0,0,0,0,0,0,0,0,0,0,0,0,0,0,0,0,0,0,0,0,0,0,0,0,0,0,0,0,0,0,0,0,0,0,0,0,0,0,0,0,0,0,0,0,0,0,0,0,0,0,0,0,0,0,0,0,0,0,0,0,0,0,0,0,0,0,0,0,0,0,0,0,0,0,0,0,0,0,0,0,0,0,0,0,0,0,0,0,0,0,0,0,0,0,0,0,0,0,0,0,0,0,0,0,0,0,0,0,0,0,0,0,0,0,0,0,0,0,0,0,0,0,0,0,0,0,0,0,0,0,0,0,0,0,0,0,0,0,0,0,0,0,0,0,0,0,0,0,0,0,0,0,0,0,0,0,0,0,0,0,0,0,0,0,0,0,0,0,0,0,0,0,0,0,0,0,0,0,0,0,0,0,0,0,0,0,0,0,0,0,0,0],"trees":[{"base_weights":[1.3218635E1,1.1018776E1,1.5164091E1,9.812808E0,1.1985849E1,1.419079E1,1.6426119E1,9.362217E0,1.0432061E1,1.1368309E1,1.2437775E1,1.35721445E1,1.4747147E1,1.5833302E1,1.7079332E1],"categories":[],"categories_nodes":[],"categories_segments":[],"categories_sizes":[],"default_left":[1,1,1,1,1,1,1,0,0,0,0,0,0,0,0],"id":0,"left_children":[1,3,5,7,9,11,13,-1,-1,-1,-1,-1,-1,-1,-1],"loss_changes":[7.2798E4,9.2183125E3,1.087725E4,8.9790625E2,1.0971875E3,1.56E3,1.252125E3,0E0,0E0,0E0,0E0,0E0,0E0,0E0,0E0],"parents":[2147483647,0,0,1,1,2,2,3,3,4,4,5,5,6,6],"right_children":[2,4,6,8,10,12,14,-1,-1,-1,-1,-1,-1,-1,-1],"split_conditions":[2.3176384E0,6.256118E-1,5.983696E0,5.935E1,1.175931E0,3.998713E0,1.2605E2,4.6811086E-1,5.2160305E-1,5.6841546E-1,6.2188876E-1,6.786072E-1,7.373573E-1,7.916651E-1,8.5396665E-1],"split_indices":[0,0,0,3,0,0,3,0,0,0,0,0,0,0,0],"split_type":[0,0,0,0,0,0,0,0,0,0,0,0,0,0,0],"sum_hessian":[1.7048E4,8.004E3,9.044E3,3.567E3,4.437E3,5.113E3,3.931E3,2.074E3,1.493E3,1.886E3,2.551E3,2.433E3,2.68E3,2.074E3,1.857E3],"tree_param":{"num_deleted":"0","num_feature":"4","num_nodes":"15","size_leaf_vector":"0"}},{"base_weights":[1.255549E1,1.0643642E1,1.4506336E1,9.457807E0,1.1636477E1,1.3635708E1,1.5661573E1,8.864755E0,1.0023125E1,1.11175375E1,1.2235465E1,1.3129709E1,1.4239222E1,1.5163292E1,1.6297935E1],"categories":[],"categories_nodes":[],"categories_segments":[],"categories_sizes":[],"default_left":[1,0,1,0,1,0,0,0,0,0,0,0,0,0,0],"id":1,"left_children":[1,3,5,7,9,11,13,-1,-1,-1,-1,-1,-1,-1,-1],"loss_changes":[6.356425E4,1.005275E4,8.288375E3,1.23175E3,1.323E3,1.2875E3,9.026875E2,0E0,0E0,0E0,0E0,0E0,0E0,0E0,0E0],"parents":[2147483647,0,0,1,1,2,2,3,3,4,4,5,5,6,6],"right_children":[2,4,6,8,10,12,14,-1,-1,-1,-1,-1,-1,-1,-1],"split_conditions":[1.3525E1,7.245E1,1.1575E2,5.935E1,8.2350006E1,1.05649994E2,1.2795E2,4.4323775E-1,5.011563E-1,5.558769E-1,6.1177325E-1,6.564855E-1,7.119611E-1,7.581646E-1,8.1489676E-1],"split_indices":[2,3,3,3,3,3,3,0,0,0,0,0,0,0,0],"split_type":[0,0,0,0,0,0,0,0,0,0,0,0,0,0,0],"sum_hessian":[1.7083E4,8.631E3,8.452E3,3.938E3,4.693E3,4.827E3,3.625E3,1.93E3,2.008E3,2.525E3,2.168E3,2.638E3,2.189E3,2.047E3,1.578E3],"tree_param":{"num_deleted":"0","num_feature":"4","num_nodes":"15","size_leaf_vector":"0"}},{"base_weights":[1.1933378E1,9.934432E0,1.3687562E1,8.882163E0,1.0858087E1,1.2802389E1,1.4835367E1,8.186971E0,9.249884E0,1.0195422E1,1.1165549E1,1.2248236E1,1.33040495E1,1.4309592E1,1.5377641E1],"categories":[],"categories_nodes":[],"categories_segments":[],"categories_sizes":[],"default_left":[1,1,1,0,1,1,1,0,0,0,0,0,0,0,0],"id":2,"left_children":[1,3,5,7,9,11,13,-1,-1,-1,-1,-1,-1,-1,-1],"loss_changes":[5.988525E4,7.6829375E3,9.069875E3,8.82125E2,7.536875E2,1.2695625E3,9.09625E2,0E0,0E0,0E0,0E0,0E0,0E0,0E0,0E0],"parents":[2147483647,0,0,1,1,2,2,3,3,4,4,5,5,6,6],"right_children":[2,4,6,8,10,12,14,-1,-1,-1,-1,-1,-1,-1,-1],"split_conditions":[2.3176384E0,6.6668034E-1,5.9617925E0,4.49E0,1.0664148E0,3.9959753E0,7.8235693E0,4.0934855E-1,4.624942E-1,5.097711E-1,5.582775E-1,6.124118E-1,6.652025E-1,7.154796E-1,7.6888204E-1],"split_indices":[0,0,0,2,0,0,0,0,0,0,0,0,0,0,0],"split_type":[0,0,0,0,0,0,0,0,0,0,0,0,0,0,0],"sum_hessian":[1.7116E4,8.003E3,9.113E3,3.746E3,4.257E3,5.152E3,3.961E3,1.304E3,2.442E3,1.36E3,2.897E3,2.46E3,2.692E3,2.025E3,1.936E3],"tree_param":{"num_deleted":"0","num_feature":"4","num_nodes":"15","size_leaf_vector":"0"}},{"base_weights":[1.1323269E1,9.470829E0,1.3033367E1,8.455661E0,1.033138E1,1.2277397E1,1.4204458E1,7.950309E0,8.943613E0,9.756258E0,1.0703438E1,1.1786597E1,1.2869697E1,1.3746439E1,1.4739724E1],"categories":[],"categories_nodes":[],"categories_segments":[],"categories_sizes":[],"default_left":[1,1,1,0,0,1,1,0,0,0,0,0,0,0,0],"id":3,"left_children":[1,3,5,7,9,11,13,-1,-1,-1,-1,-1,-1,-1,-1],"loss_changes":[5.3974E4,7.077125E3,7.6845E3,8.5803125E2,8.4434375E2,1.4186875E3,6.495625E2,0E0,0E0,0E0,0E0,0E0,0E0,0E0,0E0],"parents":[2147483647,0,0,1,1,2,2,3,3,4,4,5,5,6,6],"right_children":[2,4,6,8,10,12,14,-1,-1,-1,-1,-1,-1,-1,-1],"split_conditions":[2.4052513E0,6.6668034E-1,6.2821274E0,5.365E0,7.855E1,1.04649994E2,1.2795E2,3.9751545E-1,4.4718066E-1,4.878129E-1,5.351719E-1,5.893299E-1,6.4348483E-1,6.8732196E-1,7.369862E-1],"split_indices":[0,0,0,2,3,3,3,0,0,0,0,0,0,0,0],"split_type":[0,0,0,0,0,0,0,0,0,0,0,0,0,0,0],"sum_hessian":[1.7076E4,8.2E3,8.876E3,3.767E3,4.433E3,5.401E3,3.475E3,1.859E3,1.908E3,1.752E3,2.681E3,2.965E3,2.436E3,1.887E3,1.588E3],"tree_param":{"num_deleted":"0","num_feature":"4","num_nodes":"15","size_leaf_vector":"0"}},{"base_weights":[1.0769739E1,9.117475E0,1.2511335E1,8.146141E0,1.0070808E1,1.1777543E1,1.3481651E1,7.6910496E0,8.768225E0,9.65379E0,1.0459223E1,1.1432552E1,1.2375552E1,1.3063859E1,1.3995216E1],"categories":[],"categories_nodes":[],"categories_segments":[],"categories_sizes":[],"default_left":[1,1,1,1,1,1,1,0,0,0,0,0,0,0,0],"id":4,"left_children":[1,3,5,7,9,11,13,-1,-1,-1,-1,-1,-1,-1,-1],"loss_changes":[4.8712625E4,7.984375E3,5.721E3,1.1555938E3,6.1040625E2,8.3025E2,5.78625E2,0E0,0E0,0E0,0E0,0E0,0E0,0E0,0E0],"parents":[2147483647,0,0,1,1,2,2,3,3,4,4,5,5,6,6],"right_children":[2,4,6,8,10,12,14,-1,-1,-1,-1,-1,-1,-1,-1],"split_conditions":[2.794034E0,8.583338E-1,6.2821274E0,6.315E0,1.561976E0,4.9953113E0,8.198662E0,3.8455248E-1,4.3841124E-1,4.8268953E-1,5.2296114E-1,5.716276E-1,6.1877763E-1,6.5319294E-1,6.9976085E-1],"split_indices":[0,0,0,2,0,0,0,0,0,0,0,0,0,0,0],"split_type":[0,0,0,0,0,0,0,0,0,0,0,0,0,0,0],"sum_hessian":[1.6967E4,8.71E3,8.257E3,4.319E3,4.391E3,4.709E3,3.548E3,2.502E3,1.817E3,2.13E3,2.261E3,2.999E3,1.71E3,1.971E3,1.577E3],"tree_param":{"num_deleted":"0","num_feature":"4","num_nodes":"15","size_leaf_vector":"0"}},{"base_weights":[1.0216622E1,8.523282E0,1.1736556E1,7.5137005E0,9.233239E0,1.0915451E1,1.2632355E1,6.906508E0,7.7983136E0,8.655475E0,9.571985E0,1.0502626E1,1.1376222E1,1.204732E1,1.3094504E1],"categories":[],"categories_nodes":[],"categories_segments":[],"categories_sizes":[],"default_left":[1,1,1,0,1,1,0,0,0,0,0,0,0,0,0],"id":5,"left_children":[1,3,5,7,9,11,13,-1,-1,-1,-1,-1,-1,-1,-1],"loss_changes":[4.383925E4,5.7213125E3,6.477625E3,5.235156E2,8.4465625E2,7.745E2,1.0034375E3,0E0,0E0,0E0,0E0,0E0,0E0,0E0,0E0],"parents":[2147483647,0,0,1,1,2,2,3,3,4,4,5,5,6,6],"right_children":[2,4,6,8,10,12,14,-1,-1,-1,-1,-1,-1,-1,-1],"split_conditions":[2.3176384E0,5.352608E-1,5.6715746E0,4.115E0,1.0636768E0,1.01649994E2,1.2325E2,3.453254E-1,3.8991567E-1,4.3277374E-1,4.7859928E-1,5.2513134E-1,5.688111E-1,6.0236603E-1,6.5472525E-1],"split_indices":[0,0,0,2,0,3,3,0,0,0,0,0,0,0,0],"split_type":[0,0,0,0,0,0,0,0,0,0,0,0,0,0,0],"sum_hessian":[1.7071E4,8.078E3,8.993E3,3.34E3,4.738E3,4.699E3,4.294E3,1.074E3,2.266E3,1.761E3,2.977E3,2.491E3,2.208E3,1.907E3,2.387E3],"tree_param":{"num_deleted":"0","num_feature":"4","num_nodes":"15","size_leaf_vector":"0"}},{"base_weights":[9.71372E0,8.181121E0,1.1237664E1,7.371984E0,9.05409E0,1.0632655E1,1.2281745E1,6.939958E0,7.9432263E0,8.736404E0,9.451944E0,1.0155636E1,1.1064564E1,1.1969033E1,1.2832609E1],"categories":[],"categories_nodes":[],"categories_segments":[],"categories_sizes":[],"default_left":[1,1,1,1,1,0,0,0,0,0,0,0,0,0,0],"id":6,"left_children":[1,3,5,7,9,11,13,-1,-1,-1,-1,-1,-1,-1,-1],"loss_changes":[3.9792875E4,5.95E3,5.2765E3,1.0371719E3,4.3475E2,1.0058125E3,3.8628125E2,0E0,0E0,0E0,0E0,0E0,0E0,0E0,0E0],"parents":[2147483647,0,0,1,1,2,2,3,3,4,4,5,5,6,6],"right_children":[2,4,6,8,10,12,14,-1,-1,-1,-1,-1,-1,-1,-1],"split_conditions":[2.6051185E0,8.665476E-1,1.1845E2,6.315E0,1.133E1,1.0495E2,1.3145E2,3.4699792E-1,3.9716133E-1,4.3682024E-1,4.725972E-1,5.077818E-1,5.532282E-1,5.984517E-1,6.416305E-1],"split_indices":[0,0,3,2,2,3,3,0,0,0,0,0,0,0,0],"split_type":[0,0,0,0,0,0,0,0,0,0,0,0,0,0,0],"sum_hessian":[1.7076E4,8.517E3,8.559E3,4.425E3,4.092E3,5.426E3,3.133E3,2.527E3,1.898E3,2.288E3,1.804E3,2.59E3,2.836E3,2.013E3,1.12E3],"tree_param":{"num_deleted":"0","num_feature":"4","num_nodes":"15","size_leaf_vector":"0"}},{"base_weights":[9.220734E0,7.819367E0,1.0705469E1,6.9028873E0,8.550987E0,1.0134165E1,1.1639502E1,6.5503397E0,7.4357877E0,8.073702E0,8.877001E0,9.721579E0,1.0544576E1,1.133865E1,1.2151215E1],"categories":[],"categories_nodes":[],"categories_segments":[],"categories_sizes":[],"default_left":[1,1,1,1,0,0,0,0,0,0,0,0,0,0,0],"id":7,"left_children":[1,3,5,7,9,11,13,-1,-1,-1,-1,-1,-1,-1,-1],"loss_changes":[3.54685E4,5.8375E3,4.307875E3,6.856875E2,6.8859375E2,7.7025E2,3.4575E2,0E0,0E0,0E0,0E0,0E0,0E0,0E0,0E0],"parents":[2147483647,0,0,1,1,2,2,3,3,4,4,5,5,6,6],"right_children":[2,4,6,8,10,12,14,-1,-1,-1,-1,-1,-1,-1,-1],"split_conditions":[2.794034E0,7.3239017E-1,1.1845E2,6.125E1,8.055E1,1.0625E2,1.3105E2,3.27517E-1,3.717894E-1,4.036851E-1,4.4385004E-1,4.8607895E-1,5.272288E-1,5.669325E-1,6.0756075E-1],"split_indices":[0,0,3,3,3,3,3,0,0,0,0,0,0,0,0],"split_type":[0,0,0,0,0,0,0,0,0,0,0,0,0,0,0],"sum_hessian":[1.7086E4,8.793E3,8.293E3,3.908E3,4.885E3,5.153E3,3.14E3,2.36E3,1.548E3,1.993E3,2.892E3,2.582E3,2.571E3,1.992E3,1.148E3],"tree_param":{"num_deleted":"0","num_feature":"4","num_nodes":"15","size_leaf_vector":"0"}},{"base_weights":[8.778161E0,7.291275E0,1.0058123E1,6.4409604E0,7.9176655E0,9.29146E0,1.0787963E1,5.8943815E0,6.70882E0,7.3890395E0,8.187363E0,8.9307785E0,9.593503E0,1.0253782E1,1.1231222E1],"categories":[],"categories_nodes":[],"categories_segments":[],"categories_sizes":[],"default_left":[1,1,0,0,1,0,1,0,0,0,0,0,0,0,0],"id":8,"left_children":[1,3,5,7,9,11,13,-1,-1,-1,-1,-1,-1,-1,-1],"loss_changes":[3.237925E4,4.1525E3,5.0256875E3,4.5135938E2,5.8678125E2,4.0184375E2,9.94625E2,0E0,0E0,0E0,0E0,0E0,0E0,0E0,0E0],"parents":[2147483647,0,0,1,1,2,2,3,3,4,4,5,5,6,6],"right_children":[2,4,6,8,10,12,14,-1,-1,-1,-1,-1,-1,-1,-1],"split_conditions":[2.2738318E0,7.785E0,1.11649994E2,4.1549997E0,1.003443E0,9.9649994E1,7.1089754E0,2.9471907E-1,3.35441E-1,3.6945197E-1,4.0936813E-1,4.4653893E-1,4.7967514E-1,5.126891E-1,5.615611E-1],"split_indices":[0,2,3,2,0,3,0,0,0,0,0,0,0,0,0],"split_type":[0,0,0,0,0,0,0,0,0,0,0,0,0,0,0],"sum_hessian":[1.7051E4,7.891E3,9.16E3,3.352E3,4.539E3,4.474E3,4.686E3,1.11E3,2.242E3,1.543E3,2.996E3,2.053E3,2.421E3,2.136E3,2.55E3],"tree_param":{"num_deleted":"0","num_feature":"4","num_nodes":"15","size_leaf_vector":"0"}},{"base_weights":[8.34605E0,7.0680265E0,9.691024E0,6.298517E0,7.7708316E0,9.0664015E0,1.0381996E1,5.803525E0,6.6276464E0,7.427121E0,8.117934E0,8.825928E0,9.524265E0,9.843768E0,1.0690016E1],"categories":[],"categories_nodes":[],"categories_segments":[],"categories_sizes":[],"default_left":[1,1,1,1,1,1,1,0,0,0,0,0,0,0,0],"id":9,"left_children":[1,3,5,7,9,11,13,-1,-1,-1,-1,-1,-1,-1,-1],"loss_changes":[2.9335125E4,4.6967188E3,3.5019375E3,6.448125E2,4.8634375E2,3.98625E2,5.495E2,0E0,0E0,0E0,0E0,0E0,0E0,0E0,0E0],"parents":[2147483647,0,0,1,1,2,2,3,3,4,4,5,5,6,6],"right_children":[2,4,6,8,10,12,14,-1,-1,-1,-1,-1,-1,-1,-1],"split_conditions":[2.8077235E0,8.2000315E-1,2.0675E1,4.92E0,1.5756655E0,4.9788837E0,7.0213623E0,2.9017624E-1,3.3138233E-1,3.7135607E-1,4.0589672E-1,4.412964E-1,4.7621328E-1,4.9218842E-1,5.345008E-1],"split_indices":[0,0,2,2,0,0,0,0,0,0,0,0,0,0,0],"split_type":[0,0,0,0,0,0,0,0,0,0,0,0,0,0,0],"sum_hessian":[1.7105E4,8.774E3,8.331E3,4.193E3,4.581E3,4.383E3,3.948E3,1.682E3,2.511E3,2.313E3,2.268E3,2.887E3,1.496E3,1.449E3,2.499E3],"tree_param":{"num_deleted":"0","num_feature":"4","num_nodes":"15","size_leaf_vector":"0"}},{"base_weights":[7.9150577E0,6.5872154E0,9.079843E0,5.7967424E0,7.1379375E0,8.343739E0,9.6994505E0,5.2304316E0,6.007424E0,6.7914023E0,7.480415E0,8.108437E0,8.6950655E0,9.260879E0,1.0130571E1],"categories":[],"categories_nodes":[],"categories_segments":[],"categories_sizes":[],"default_left":[1,1,1,0,1,1,1,0,0,0,0,0,0,0,0],"id":10,"left_children":[1,3,5,7,9,11,13,-1,-1,-1,-1,-1,-1,-1,-1],"loss_changes":[2.6380125E4,3.4378125E3,4.0714375E3,3.6075E2,5.076875E2,2.7403125E2,8.39625E2,0E0,0E0,0E0,0E0,0E0,0E0,0E0,0E0],"parents":[2147483647,0,0,1,1,2,2,3,3,4,4,5,5,6,6],"right_children":[2,4,6,8,10,12,14,-1,-1,-1,-1,-1,-1,-1,-1],"split_conditions":[2.295735E0,5.352608E-1,5.203392E0,3.8049998E0,1.2306893E0,3.9959753E0,7.2212296E0,2.6152158E-1,3.003712E-1,3.3957013E-1,3.7402076E-1,4.0542182E-1,4.3475327E-1,4.6304393E-1,5.0652856E-1],"split_indices":[0,0,0,2,0,0,0,0,0,0,0,0,0,0,0],"split_type":[0,0,0,0,0,0,0,0,0,0,0,0,0,0,0],"sum_hessian":[1.7094E4,7.991E3,9.103E3,3.286E3,4.705E3,4.167E3,4.936E3,8.98E2,2.388E3,2.349E3,2.356E3,2.51E3,1.657E3,2.458E3,2.478E3],"tree_param":{"num_deleted":"0","num_feature":"4","num_nodes":"15","size_leaf_vector":"0"}},{"base_weights":[7.5177436E0,6.2527266E0,8.624537E0,5.5266967E0,6.7916136E0,8.044341E0,9.354685E0,5.094837E0,5.771298E0,6.397283E0,7.052844E0,7.685707E0,8.369517E0,9.063885E0,9.888915E0],"categories":[],"categories_nodes":[],"categories_segments":[],"categories_sizes":[],"default_left":[1,1,1,0,0,0,1,0,0,0,0,0,0,0,0],"id":11,"left_children":[1,3,5,7,9,11,13,-1,-1,-1,-1,-1,-1,-1,-1],"loss_changes":[2.3941188E4,3.0928438E3,3.795875E3,3.3122656E2,4.2748438E2,5.303125E2,5.3803125E2,0E0,0E0,0E0,0E0,0E0,0E0,0E0,0E0],"parents":[2147483647,0,0,1,1,2,2,3,3,4,4,5,5,6,6],"right_children":[2,4,6,8,10,12,14,-1,-1,-1,-1,-1,-1,-1,-1],"split_conditions":[2.2929971E0,7.745E0,2.0425E1,4.395E0,7.745E1,1.01649994E2,1.2915E2,2.5474188E-1,2.885649E-1,3.1986415E-1,3.526422E-1,3.8428536E-1,4.1847587E-1,4.5319423E-1,4.9444577E-1],"split_indices":[0,2,2,2,3,3,3,0,0,0,0,0,0,0,0],"split_type":[0,0,0,0,0,0,0,0,0,0,0,0,0,0,0],"sum_hessian":[1.7137E4,8E3,9.137E3,3.413E3,4.587E3,5.098E3,4.039E3,1.242E3,2.171E3,1.838E3,2.749E3,2.436E3,2.662E3,2.627E3,1.412E3],"tree_param":{"num_deleted":"0","num_feature":"4","num_nodes":"15","size_leaf_vector":"0"}},{"base_weights":[7.1453466E0,6.052894E0,8.313325E0,5.3674555E0,6.6550083E0,7.8760037E0,9.058634E0,5.0658045E0,5.801506E0,6.3704095E0,6.9689646E0,7.606402E0,8.306556E0,8.80876E0,9.473639E0],"categories":[],"categories_nodes":[],"categories_segments":[],"categories_sizes":[],"default_left":[1,1,1,1,1,1,1,0,0,0,0,0,0,0,0],"id":12,"left_children":[1,3,5,7,9,11,13,-1,-1,-1,-1,-1,-1,-1,-1],"loss_changes":[2.1780125E4,3.6142812E3,2.622875E3,5.127969E2,3.7592188E2,5.424375E2,2.3284375E2,0E0,0E0,0E0,0E0,0E0,0E0,0E0,0E0],"parents":[2147483647,0,0,1,1,2,2,3,3,4,4,5,5,6,6],"right_children":[2,4,6,8,10,12,14,-1,-1,-1,-1,-1,-1,-1,-1],"split_conditions":[2.829627E0,8.764999E0,6.627104E0,6.155E1,1.5756655E0,1.09149994E2,1.3145E2,2.5329024E-1,2.900753E-1,3.185205E-1,3.4844825E-1,3.803201E-1,4.153278E-1,4.40438E-1,4.7368193E-1],"split_indices":[0,2,0,3,0,3,3,0,0,0,0,0,0,0,0],"split_type":[0,0,0,0,0,0,0,0,0,0,0,0,0,0,0],"sum_hessian":[1.7108E4,8.843E3,8.265E3,4.14E3,4.703E3,5.216E3,3.049E3,2.45E3,1.69E3,2.478E3,2.225E3,3.219E3,1.997E3,1.917E3,1.132E3],"tree_param":{"num_deleted":"0","num_feature":"4","num_nodes":"15","size_leaf_vector":"0"}},{"base_weights":[6.785049E0,5.681502E0,7.817643E0,4.952747E0,6.1496744E0,7.2640615E0,8.418663E0,4.4479427E0,5.148028E0,5.7416644E0,6.406978E0,6.9153776E0,7.4688206E0,8.120488E0,8.865617E0],"categories":[],"categories_nodes":[],"categories_segments":[],"categories_sizes":[],"default_left":[1,0,0,0,0,1,1,0,0,0,0,0,0,0,0],"id":13,"left_children":[1,3,5,7,9,11,13,-1,-1,-1,-1,-1,-1,-1,-1],"loss_changes":[1.9418562E4,2.7877188E3,2.87375E3,2.9610156E2,4.9076562E2,2.7670312E2,4.908125E2,0E0,0E0,0E0,0E0,0E0,0E0,0E0,0E0],"parents":[2147483647,0,0,1,1,2,2,3,3,4,4,5,5,6,6],"right_children":[2,4,6,8,10,12,14,-1,-1,-1,-1,-1,-1,-1,-1],"split_conditions":[1.3025E1,7.7799997E0,2.0025E1,3.8049998E0,7.745E1,9.855E1,1.27350006E2,2.2239713E-1,2.574014E-1,2.8708324E-1,3.2034892E-1,3.457689E-1,3.7344104E-1,4.0602443E-1,4.4328085E-1],"split_indices":[2,2,2,2,3,3,3,0,0,0,0,0,0,0,0],"split_type":[0,0,0,0,0,0,0,0,0,0,0,0,0,0,0],"sum_hessian":[1.7079E4,8.259E3,8.82E3,3.235E3,5.024E3,4.598E3,4.222E3,9.09E2,2.326E3,1.952E3,3.072E3,1.714E3,2.884E3,2.544E3,1.678E3],"tree_param":{"num_deleted":"0","num_feature":"4","num_nodes":"15","size_leaf_vector":"0"}},{"base_weights":[6.4495687E0,5.288533E0,7.3366847E0,4.655106E0,5.691219E0,6.700552E0,7.87484E0,4.3400292E0,4.8672748E0,5.36168E0,5.941223E0,6.4119754E0,6.9396186E0,7.5101285E0,8.265136E0],"categories":[],"categories_nodes":[],"categories_segments":[],"categories_sizes":[],"default_left":[1,1,1,1,1,1,1,0,0,0,0,0,0,0,0],"id":14,"left_children":[1,3,5,7,9,11,13,-1,-1,-1,-1,-1,-1,-1,-1],"loss_changes":[1.7613938E4,1.8679375E3,3.2724062E3,1.7220703E2,3.4184375E2,2.630625E2,6.8609375E2,0E0,0E0,0E0,0E0,0E0,0E0,0E0,0E0],"parents":[2147483647,0,0,1,1,2,2,3,3,4,4,5,5,6,6],"right_children":[2,4,6,8,10,12,14,-1,-1,-1,-1,-1,-1,-1,-1],"split_conditions":[2.0109928E0,4.3395823E-1,5.017215E0,5.405E1,1.003443E0,9.6149994E1,7.1445684E0,2.1700147E-1,2.4336374E-1,2.6808402E-1,2.9706118E-1,3.2059878E-1,3.4698093E-1,3.7550643E-1,4.132568E-1],"split_indices":[0,0,0,3,0,3,0,0,0,0,0,0,0,0,0],"split_type":[0,0,0,0,0,0,0,0,0,0,0,0,0,0,0],"sum_hessian":[1.7138E4,7.426E3,9.712E3,2.891E3,4.535E3,4.457E3,5.255E3,1.172E3,1.719E3,1.966E3,2.569E3,2.032E3,2.425E3,2.727E3,2.528E3],"tree_param":{"num_deleted":"0","num_feature":"4","num_nodes":"15","size_leaf_vector":"0"}},{"base_weights":[6.121349E0,5.0195594E0,6.971061E0,4.451791E0,5.4340014E0,6.381109E0,7.491865E0,4.2165637E0,4.7397857E0,5.118079E0,5.643571E0,6.1048646E0,6.6073694E0,7.102677E0,7.8634415E0],"categories":[],"categories_nodes":[],"categories_segments":[],"categories_sizes":[],"default_left":[1,1,1,1,1,1,0,0,0,0,0,0,0,0,0],"id":15,"left_children":[1,3,5,7,9,11,13,-1,-1,-1,-1,-1,-1,-1,-1],"loss_changes":[1.59909375E4,1.7305E3,2.9208438E3,1.9354297E2,2.5620312E2,2.4325E2,6.854375E2,0E0,0E0,0E0,0E0,0E0,0E0,0E0,0E0],"parents":[2147483647,0,0,1,1,2,2,3,3,4,4,5,5,6,6],"right_children":[2,4,6,8,10,12,14,-1,-1,-1,-1,-1,-1,-1,-1],"split_conditions":[2.000041E0,4.9419224E-1,5.0555453E0,5.745E1,1.000705E0,9.6149994E1,1.2225E2,2.1082819E-1,2.3698929E-1,2.5590396E-1,2.8217855E-1,3.0524322E-1,3.303685E-1,3.5513386E-1,3.931721E-1],"split_indices":[0,0,0,3,0,3,3,0,0,0,0,0,0,0,0],"split_type":[0,0,0,0,0,0,0,0,0,0,0,0,0,0,0],"sum_hessian":[1.7117E4,7.456E3,9.661E3,3.151E3,4.305E3,4.536E3,5.125E3,1.743E3,1.408E3,1.727E3,2.578E3,2.055E3,2.481E3,2.513E3,2.612E3],"tree_param":{"num_deleted":"0","num_feature":"4","num_nodes":"15","size_leaf_vector":"0"}},{"base_weights":[5.820823E0,4.770138E0,6.6260877E0,4.2069526E0,5.173189E0,6.1185904E0,7.176463E0,3.5294547E0,4.311111E0,4.8936334E0,5.388253E0,5.8167005E0,6.348392E0,6.9510136E0,7.6862636E0],"categories":[],"categories_nodes":[],"categories_segments":[],"categories_sizes":[],"default_left":[1,1,0,0,0,0,1,0,0,0,0,0,0,0,0],"id":16,"left_children":[1,3,5,7,9,11,13,-1,-1,-1,-1,-1,-1,-1,-1],"loss_changes":[1.44423125E4,1.663875E3,2.6604062E3,2.037539E2,2.3360156E2,3.13E2,4.7976562E2,0E0,0E0,0E0,0E0,0E0,0E0,0E0,0E0],"parents":[2147483647,0,0,1,1,2,2,3,3,4,4,5,5,6,6],"right_children":[2,4,6,8,10,12,14,-1,-1,-1,-1,-1,-1,-1,-1],"split_conditions":[2.000041E0,7.275E0,1.9425E1,3.145E0,9.625E0,1.4924999E1,8.351986E0,1.7647274E-1,2.1555555E-1,2.4468167E-1,2.6941267E-1,2.9083502E-1,3.1741962E-1,3.475507E-1,3.843132E-1],"split_indices":[0,2,2,2,2,2,0,0,0,0,0,0,0,0,0],"split_type":[0,0,0,0,0,0,0,0,0,0,0,0,0,0,0],"sum_hessian":[1.7106E4,7.425E3,9.681E3,3.102E3,4.323E3,5.043E3,4.638E3,4.18E2,2.684E3,1.89E3,2.433E3,2.191E3,2.852E3,3.226E3,1.412E3],"tree_param":{"num_deleted":"0","num_feature":"4","num_nodes":"15","size_leaf_vector":"0"}},{"base_weights":[5.528482E0,4.605287E0,6.350278E0,3.9494429E0,4.936976E0,5.923812E0,6.914857E0,3.158539E0,4.0273714E0,4.5831513E0,5.165422E0,5.6811204E0,6.1434307E0,6.728157E0,7.410812E0],"categories":[],"categories_nodes":[],"categories_segments":[],"categories_sizes":[],"default_left":[1,0,1,0,0,0,0,0,0,0,0,0,0,0,0],"id":17,"left_children":[1,3,5,7,9,11,13,-1,-1,-1,-1,-1,-1,-1,-1],"loss_changes":[1.284775E4,1.720125E3,2.1204688E3,1.5313672E2,4.0529688E2,2.3804688E2,3.0728125E2,0E0,0E0,0E0,0E0,0E0,0E0,0E0,0E0],"parents":[2147483647,0,0,1,1,2,2,3,3,4,4,5,5,6,6],"right_children":[2,4,6,8,10,12,14,-1,-1,-1,-1,-1,-1,-1,-1],"split_conditions":[1.2775E1,6.885E0,1.14350006E2,2.895E0,7.575E1,1.01649994E2,1.3185E2,1.5792696E-1,2.0136857E-1,2.2915757E-1,2.582711E-1,2.8405604E-1,3.0717155E-1,3.3640787E-1,3.705406E-1],"split_indices":[2,2,3,2,3,3,3,0,0,0,0,0,0,0,0],"split_type":[0,0,0,0,0,0,0,0,0,0,0,0,0,0,0],"sum_hessian":[1.6972E4,7.996E3,8.976E3,2.69E3,5.306E3,5.12E3,3.856E3,2.45E2,2.445E3,2.09E3,3.216E3,2.445E3,2.675E3,2.812E3,1.044E3],"tree_param":{"num_deleted":"0","num_feature":"4","num_nodes":"15","size_leaf_vector":"0"}},{"base_weights":[5.253581E0,4.392505E0,6.052045E0,3.8461964E0,4.7795877E0,5.714664E0,6.679973E0,3.624823E0,4.1286035E0,4.541678E0,5.0550127E0,5.5110884E0,6.029685E0,6.4811134E0,7.027871E0],"categories":[],"categories_nodes":[],"categories_segments":[],"categories_sizes":[],"default_left":[1,0,1,0,0,0,0,0,0,0,0,0,0,0,0],"id":18,"left_children":[1,3,5,7,9,11,13,-1,-1,-1,-1,-1,-1,-1,-1],"loss_changes":[1.1714531E4,1.719875E3,1.8384062E3,1.9846875E2,2.9201562E2,3.3673438E2,1.6823438E2,0E0,0E0,0E0,0E0,0E0,0E0,0E0,0E0],"parents":[2147483647,0,0,1,1,2,2,3,3,4,4,5,5,6,6],"right_children":[2,4,6,8,10,12,14,-1,-1,-1,-1,-1,-1,-1,-1],"split_conditions":[1.3025E1,6.925E1,1.18649994E2,5.905E1,1.066E1,1.0795E2,1.3135E2,1.8124115E-1,2.0643018E-1,2.270839E-1,2.5275064E-1,2.7555442E-1,3.0148426E-1,3.2405567E-1,3.5139355E-1],"split_indices":[2,3,3,3,2,3,3,0,0,0,0,0,0,0,0],"split_type":[0,0,0,0,0,0,0,0,0,0,0,0,0,0,0],"sum_hessian":[1.7076E4,8.219E3,8.857E3,3.413E3,4.806E3,5.768E3,3.089E3,1.921E3,1.492E3,2.588E3,2.218E3,3.515E3,2.253E3,1.978E3,1.111E3],"tree_param":{"num_deleted":"0","num_feature":"4","num_nodes":"15","size_leaf_vector":"0"}},{"base_weights":[4.986723E0,4.2462077E0,5.8342648E0,3.7826965E0,4.7040176E0,5.5421286E0,6.390344E0,3.523688E0,4.0847144E0,4.4740953E0,4.9039273E0,5.3514724E0,5.833599E0,6.211347E0,6.726932E0],"categories":[],"categories_nodes":[],"categories_segments":[],"categories_sizes":[],"default_left":[1,1,1,1,0,1,1,0,0,0,0,0,0,0,0],"id":19,"left_children":[1,3,5,7,9,11,13,-1,-1,-1,-1,-1,-1,-1,-1],"loss_changes":[1.0653469E4,1.9098281E3,1.253E3,3.3910938E2,1.8792188E2,2.58125E2,1.22390625E2,0E0,0E0,0E0,0E0,0E0,0E0,0E0,0E0],"parents":[2147483647,0,0,1,1,2,2,3,3,4,4,5,5,6,6],"right_children":[2,4,6,8,10,12,14,-1,-1,-1,-1,-1,-1,-1,-1],"split_conditions":[2.9993773E0,9.135E0,6.9310117E0,6.155E1,1.1295E1,1.1005E2,8.957064E0,1.761844E-1,2.0423572E-1,2.2370477E-1,2.4519637E-1,2.6757362E-1,2.9167995E-1,3.1056735E-1,3.363466E-1],"split_indices":[0,2,0,3,2,3,0,0,0,0,0,0,0,0,0],"split_type":[0,0,0,0,0,0,0,0,0,0,0,0,0,0,0],"sum_hessian":[1.7013E4,9.083E3,7.93E3,4.518E3,4.565E3,5.206E3,2.724E3,2.439E3,2.079E3,2.134E3,2.431E3,3.159E3,2.047E3,1.791E3,9.33E2],"tree_param":{"num_deleted":"0","num_feature":"4","num_nodes":"15","size_leaf_vector":"0"}},{"base_weights":[4.740736E0,4.051576E0,5.56047E0,3.5439441E0,4.435435E0,5.249917E0,6.010429E0,3.2059155E0,3.7335737E0,4.203752E0,4.66959E0,5.1090784E0,5.498127E0,5.85496E0,6.361908E0],"categories":[],"categories_nodes":[],"categories_segments":[],"categories_sizes":[],"default_left":[1,0,0,0,0,1,0,0,0,0,0,0,0,0,0],"id":20,"left_children":[1,3,5,7,9,11,13,-1,-1,-1,-1,-1,-1,-1,-1],"loss_changes":[9.597625E3,1.7877188E3,1.0548906E3,2.4378906E2,2.6604688E2,1.33E2,1.35875E2,0E0,0E0,0E0,0E0,0E0,0E0,0E0,0E0],"parents":[2147483647,0,0,1,1,2,2,3,3,4,4,5,5,6,6],"right_children":[2,4,6,8,10,12,14,-1,-1,-1,-1,-1,-1,-1,-1],"split_conditions":[1.4434999E1,7.2850006E1,2.2325E1,5.615E1,1.1375E1,1.1005E2,1.3315E2,1.6029577E-1,1.866787E-1,2.101876E-1,2.334795E-1,2.554539E-1,2.7490637E-1,2.92748E-1,3.1809542E-1],"split_indices":[2,3,2,3,2,3,3,0,0,0,0,0,0,0,0],"split_type":[0,0,0,0,0,0,0,0,0,0,0,0,0,0,0],"sum_hessian":[1.7028E4,9.254E3,7.774E3,3.989E3,5.265E3,4.607E3,3.167E3,1.44E3,2.549E3,2.656E3,2.609E3,2.953E3,1.654E3,2.208E3,9.59E2],"tree_param":{"num_deleted":"0","num_feature":"4","num_nodes":"15","size_leaf_vector":"0"}},{"base_weights":[4.5048966E0,3.8598545E0,5.2836814E0,3.3734014E0,4.2227235E0,4.998094E0,5.758954E0,2.9370275E0,3.4981978E0,4.0555267E0,4.5219917E0,4.845993E0,5.215952E0,5.6145015E0,6.0776787E0],"categories":[],"categories_nodes":[],"categories_segments":[],"categories_sizes":[],"default_left":[1,0,1,0,1,0,0,0,0,0,0,0,0,0,0],"id":21,"left_children":[1,3,5,7,9,11,13,-1,-1,-1,-1,-1,-1,-1,-1],"loss_changes":[8.56625E3,1.63675E3,1.0219375E3,2.0761328E2,2.4950781E2,1.3521094E2,9.933594E1,0E0,0E0,0E0,0E0,0E0,0E0,0E0,0E0],"parents":[2147483647,0,0,1,1,2,2,3,3,4,4,5,5,6,6],"right_children":[2,4,6,8,10,12,14,-1,-1,-1,-1,-1,-1,-1,-1],"split_conditions":[1.4475E1,7.245E1,1.1975E2,5.265E1,8.705E1,1.1005E2,1.3315E2,1.4685138E-1,1.7490989E-1,2.0277634E-1,2.260996E-1,2.4229966E-1,2.607976E-1,2.807251E-1,3.0388394E-1],"split_indices":[2,3,3,3,3,3,3,0,0,0,0,0,0,0,0],"split_type":[0,0,0,0,0,0,0,0,0,0,0,0,0,0,0],"sum_hessian":[1.7092E4,9.352E3,7.74E3,4E3,5.352E3,4.842E3,2.898E3,8.95E2,3.105E3,3.443E3,1.909E3,2.865E3,1.977E3,2.007E3,8.91E2],"tree_param":{"num_deleted":"0","num_feature":"4","num_nodes":"15","size_leaf_vector":"0"}},{"base_weights":[4.2750344E0,3.4901433E0,4.880691E0,3.034613E0,3.7621393E0,4.4479947E0,5.2432933E0,2.3533657E0,3.110365E0,3.5474372E0,3.9440165E0,4.240189E0,4.5897574E0,5.0637074E0,5.652473E0],"categories":[],"categories_nodes":[],"categories_segments":[],"categories_sizes":[],"default_left":[1,1,1,0,1,0,1,0,0,0,0,0,0,0,0],"id":22,"left_children":[1,3,5,7,9,11,13,-1,-1,-1,-1,-1,-1,-1,-1],"loss_changes":[8.071E3,9.071953E2,1.4830469E3,1.3598828E2,1.6711719E2,1.096875E2,3.5479688E2,0E0,0E0,0E0,0E0,0E0,0E0,0E0,0E0],"parents":[2147483647,0,0,1,1,2,2,3,3,4,4,5,5,6,6],"right_children":[2,4,6,8,10,12,14,-1,-1,-1,-1,-1,-1,-1,-1],"split_conditions":[2.000041E0,6.76E0,4.9939423E0,2.9250002E0,1.003443E0,1.4434999E1,8.205507E0,1.17668286E-1,1.5551825E-1,1.7737186E-1,1.9720082E-1,2.1200946E-1,2.2948788E-1,2.5318536E-1,2.8262365E-1],"split_indices":[0,2,0,2,0,2,0,0,0,0,0,0,0,0,0],"split_type":[0,0,0,0,0,0,0,0,0,0,0,0,0,0,0],"sum_hessian":[1.7013E4,7.413E3,9.6E3,2.776E3,4.637E3,4.383E3,5.217E3,2.81E2,2.495E3,2.136E3,2.501E3,1.79E3,2.593E3,3.635E3,1.582E3],"tree_param":{"num_deleted":"0","num_feature":"4","num_nodes":"15","size_leaf_vector":"0"}},{"base_weights":[4.071879E0,3.460039E0,4.761084E0,2.985324E0,3.7764611E0,4.519256E0,5.2521944E0,2.6866164E0,3.1422534E0,3.5492735E0,3.9545333E0,4.306395E0,4.6898007E0,5.0985093E0,5.5225797E0],"categories":[],"categories_nodes":[],"categories_segments":[],"categories_sizes":[],"default_left":[1,1,1,0,0,0,1,0,0,0,0,0,0,0,0],"id":23,"left_children":[1,3,5,7,9,11,13,-1,-1,-1,-1,-1,-1,-1,-1],"loss_changes":[7.1719688E3,1.3457188E3,9.280469E2,1.611543E2,2.0510938E2,1.7500781E2,8.146094E1,0E0,0E0,0E0,0E0,0E0,0E0,0E0,0E0],"parents":[2147483647,0,0,1,1,2,2,3,3,4,4,5,5,6,6],"right_children":[2,4,6,8,10,12,14,-1,-1,-1,-1,-1,-1,-1,-1],"split_conditions":[2.9993773E0,8.13E0,7.013149E0,4.395E0,1.066E1,1.7825E1,8.970753E0,1.3433082E-1,1.5711267E-1,1.7746368E-1,1.9772667E-1,2.1531975E-1,2.3449004E-1,2.5492546E-1,2.7612898E-1],"split_indices":[0,2,0,2,2,2,0,0,0,0,0,0,0,0,0],"split_type":[0,0,0,0,0,0,0,0,0,0,0,0,0,0,0],"sum_hessian":[1.7046E4,9.033E3,8.013E3,3.617E3,5.416E3,5.376E3,2.637E3,1.252E3,2.365E3,2.389E3,3.027E3,2.403E3,2.973E3,1.694E3,9.43E2],"tree_param":{"num_deleted":"0","num_feature":"4","num_nodes":"15","size_leaf_vector":"0"}},{"base_weights":[3.8683016E0,3.15223E0,4.397641E0,2.7627754E0,3.4073415E0,4.0067306E0,4.733507E0,2.3874078E0,2.8440423E0,3.2303557E0,3.5517333E0,3.82296E0,4.1558743E0,4.487342E0,4.984683E0],"categories":[],"categories_nodes":[],"categories_segments":[],"categories_sizes":[],"default_left":[1,1,1,1,1,1,0,0,0,0,0,0,0,0,0],"id":24,"left_children":[1,3,5,7,9,11,13,-1,-1,-1,-1,-1,-1,-1,-1],"loss_changes":[6.4378906E3,7.0971094E2,1.2656094E3,8.0759766E1,1.0017969E2,1.0821875E2,3.0267188E2,0E0,0E0,0E0,0E0,0E0,0E0,0E0,0E0],"parents":[2147483647,0,0,1,1,2,2,3,3,4,4,5,5,6,6],"right_children":[2,4,6,8,10,12,14,-1,-1,-1,-1,-1,-1,-1,-1],"split_conditions":[1.9452829E0,4.3122035E-1,4.9953113E0,4.955E1,1.0116566E0,9.555E1,1.2255E2,1.1937039E-1,1.4220212E-1,1.6151778E-1,1.7758666E-1,1.91148E-1,2.0779371E-1,2.243671E-1,2.4923415E-1],"split_indices":[0,0,0,3,0,3,3,0,0,0,0,0,0,0,0],"split_type":[0,0,0,0,0,0,0,0,0,0,0,0,0,0,0],"sum_hessian":[1.702E4,7.237E3,9.783E3,2.869E3,4.368E3,4.527E3,5.256E3,5.16E2,2.353E3,1.973E3,2.395E3,2.04E3,2.487E3,2.664E3,2.592E3],"tree_param":{"num_deleted":"0","num_feature":"4","num_nodes":"15","size_leaf_vector":"0"}},{"base_weights":[3.6607413E0,3.0579615E0,4.229668E0,2.6829321E0,3.3416317E0,3.9907794E0,4.6750264E0,2.1102045E0,2.7565353E0,3.1479702E0,3.5042396E0,3.8251808E0,4.1832952E0,4.558641E0,5.022174E0],"categories":[],"categories_nodes":[],"categories_segments":[],"categories_sizes":[],"default_left":[1,0,0,0,0,0,0,0,0,0,0,0,0,0,0],"id":25,"left_children":[1,3,5,7,9,11,13,-1,-1,-1,-1,-1,-1,-1,-1],"loss_changes":[5.8770312E3,8.7860156E2,9.2109375E2,1.4585352E2,1.3842188E2,1.675E2,1.0146875E2,0E0,0E0,0E0,0E0,0E0,0E0,0E0,0E0],"parents":[2147483647,0,0,1,1,2,2,3,3,4,4,5,5,6,6],"right_children":[2,4,6,8,10,12,14,-1,-1,-1,-1,-1,-1,-1,-1],"split_conditions":[1.3025E1,8.219999E0,2.2635E1,3.1350002E0,7.9850006E1,1.7475E1,1.3485E2,1.0551023E-1,1.3782677E-1,1.573985E-1,1.7521198E-1,1.9125904E-1,2.0916477E-1,2.2793205E-1,2.511087E-1],"split_indices":[2,2,2,2,3,2,3,0,0,0,0,0,0,0,0],"split_type":[0,0,0,0,0,0,0,0,0,0,0,0,0,0,0],"sum_hessian":[1.7174E4,8.342E3,8.832E3,3.597E3,4.745E3,5.755E3,3.077E3,4.13E2,3.184E3,2.175E3,2.57E3,3.105E3,2.65E3,2.315E3,7.62E2],"tree_param":{"num_deleted":"0","num_feature":"4","num_nodes":"15","size_leaf_vector":"0"}},{"base_weights":[3.4902015E0,2.8305016E0,3.9670653E0,2.457133E0,3.0637228E0,3.692359E0,4.370377E0,2.003235E0,2.534925E0,2.902562E0,3.2101429E0,3.5325372E0,3.8903463E0,4.1505446E0,4.552758E0],"categories":[],"categories_nodes":[],"categories_segments":[],"categories_sizes":[],"default_left":[1,1,0,0,1,1,0,0,0,0,0,0,0,0,0],"id":26,"left_children":[1,3,5,7,9,11,13,-1,-1,-1,-1,-1,-1,-1,-1],"loss_changes":[5.350922E3,6.155117E2,1.0797031E3,9.2234375E1,9.4515625E1,1.72625E2,1.4155469E2,0E0,0E0,0E0,0E0,0E0,0E0,0E0,0E0],"parents":[2147483647,0,0,1,1,2,2,3,3,4,4,5,5,6,6],"right_children":[2,4,6,8,10,12,14,-1,-1,-1,-1,-1,-1,-1,-1],"split_conditions":[1.8740973E0,6.76E0,2.0675E1,3.1550002E0,1.0061808E0,4.031568E0,1.24850006E2,1.0016175E-1,1.2674625E-1,1.451281E-1,1.6050714E-1,1.7662686E-1,1.9451731E-1,2.0752724E-1,2.2763792E-1],"split_indices":[0,2,2,2,0,0,3,0,0,0,0,0,0,0,0],"split_type":[0,0,0,0,0,0,0,0,0,0,0,0,0,0,0],"sum_hessian":[1.7044E4,7.154E3,9.89E3,2.755E3,4.399E3,5.889E3,4.001E3,4.07E2,2.348E3,2.104E3,2.295E3,3.269E3,2.62E3,1.825E3,2.176E3],"tree_param":{"num_deleted":"0","num_feature":"4","num_nodes":"15","size_leaf_vector":"0"}},{"base_weights":[3.316991E0,2.7024643E0,3.7792268E0,2.3534608E0,2.9285662E0,3.522187E0,4.1715283E0,2.108719E0,2.4515953E0,2.7695885E0,3.0754137E0,3.354464E0,3.7107456E0,4.057226E0,4.5179014E0],"categories":[],"categories_nodes":[],"categories_segments":[],"categories_sizes":[],"default_left":[1,1,1,1,1,1,1,0,0,0,0,0,0,0,0],"id":27,"left_children":[1,3,5,7,9,11,13,-1,-1,-1,-1,-1,-1,-1,-1],"loss_changes":[4.805953E3,5.6773047E2,9.608125E2,6.371289E1,9.455469E1,1.7259375E2,1.330625E2,0E0,0E0,0E0,0E0,0E0,0E0,0E0,0E0],"parents":[2147483647,0,0,1,1,2,2,3,3,4,4,5,5,6,6],"right_children":[2,4,6,8,10,12,14,-1,-1,-1,-1,-1,-1,-1,-1],"split_conditions":[1.972662E0,4.2574453E-1,6.032978E0,5.195E1,1.0499873E0,3.9959753E0,8.970753E0,1.0543596E-1,1.2257977E-1,1.3847943E-1,1.5377069E-1,1.6772321E-1,1.8553728E-1,2.0286131E-1,2.2589508E-1],"split_indices":[0,0,0,3,0,0,0,0,0,0,0,0,0,0,0],"split_type":[0,0,0,0,0,0,0,0,0,0,0,0,0,0,0],"sum_hessian":[1.6954E4,7.281E3,9.673E3,2.867E3,4.414E3,5.85E3,3.823E3,8.27E2,2.04E3,2.129E3,2.285E3,3.106E3,2.744E3,2.884E3,9.39E2],"tree_param":{"num_deleted":"0","num_feature":"4","num_nodes":"15","size_leaf_vector":"0"}},{"base_weights":[3.1434984E0,2.582173E0,3.593469E0,2.2155542E0,2.7778478E0,3.3246675E0,3.929718E0,1.6755263E0,2.2699597E0,2.590189E0,2.9007287E0,3.2064657E0,3.4805431E0,3.7895217E0,4.2044606E0],"categories":[],"categories_nodes":[],"categories_segments":[],"categories_sizes":[],"default_left":[1,0,0,0,0,1,0,0,0,0,0,0,0,0,0],"id":28,"left_children":[1,3,5,7,9,11,13,-1,-1,-1,-1,-1,-1,-1,-1],"loss_changes":[4.3148906E3,5.405547E2,8.455781E2,7.426074E1,1.0698047E2,8.6234375E1,1.4642188E2,0E0,0E0,0E0,0E0,0E0,0E0,0E0,0E0],"parents":[2147483647,0,0,1,1,2,2,3,3,4,4,5,5,6,6],"right_children":[2,4,6,8,10,12,14,-1,-1,-1,-1,-1,-1,-1,-1],"split_conditions":[1.2295E1,6.76E0,2.0025E1,2.8850002E0,7.4850006E1,1.01649994E2,2.8425E1,8.377632E-2,1.1349799E-1,1.2950945E-1,1.4503644E-1,1.6032329E-1,1.7402716E-1,1.8947609E-1,2.1022303E-1],"split_indices":[2,2,2,2,3,3,2,0,0,0,0,0,0,0,0],"split_type":[0,0,0,0,0,0,0,0,0,0,0,0,0,0,0],"sum_hessian":[1.7119E4,7.62E3,9.499E3,2.656E3,4.964E3,5.285E3,4.214E3,2.46E2,2.41E3,1.973E3,2.991E3,3.018E3,2.267E3,2.8E3,1.414E3],"tree_param":{"num_deleted":"0","num_feature":"4","num_nodes":"15","size_leaf_vector":"0"}},{"base_weights":[2.983872E0,2.4239306E0,3.403552E0,2.1063406E0,2.6335535E0,3.1891448E0,3.7976656E0,1.7193757E0,2.1774263E0,2.5467715E0,2.8086464E0,3.0447907E0,3.360035E0,3.69396E0,4.112139E0],"categories":[],"categories_nodes":[],"categories_segments":[],"categories_sizes":[],"default_left":[1,1,1,0,1,1,1,0,0,0,0,0,0,0,0],"id":29,"left_children":[1,3,5,7,9,11,13,-1,-1,-1,-1,-1,-1,-1,-1],"loss_changes":[4.021E3,4.8370703E2,8.158281E2,7.677051E1,6.005664E1,1.4646094E2,9.722656E1,0E0,0E0,0E0,0E0,0E0,0E0,0E0,0E0],"parents":[2147483647,0,0,1,1,2,2,3,3,4,4,5,5,6,6],"right_children":[2,4,6,8,10,12,14,-1,-1,-1,-1,-1,-1,-1,-1],"split_conditions":[1.9261177E0,4.3395823E-1,6.2821274E0,4.955E1,1.2909231E0,4.143822E0,9.061104E0,8.5968785E-2,1.0887132E-1,1.2733857E-1,1.4043233E-1,1.5223955E-1,1.6800176E-1,1.84698E-1,2.0560697E-1],"split_indices":[0,0,0,3,0,0,0,0,0,0,0,0,0,0,0],"split_type":[0,0,0,0,0,0,0,0,0,0,0,0,0,0,0],"sum_hessian":[1.7145E4,7.348E3,9.797E3,2.926E3,4.422E3,6.351E3,3.446E3,4.58E2,2.468E3,2.967E3,1.455E3,3.453E3,2.898E3,2.601E3,8.45E2],"tree_param":{"num_deleted":"0","num_feature":"4","num_nodes":"15","size_leaf_vector":"0"}},{"base_weights":[2.838731E0,2.3135903E0,3.2342985E0,1.9880402E0,2.4831543E0,2.9774513E0,3.5372372E0,1.557176E0,2.0511498E0,2.3293767E0,2.6308591E0,2.8068254E0,3.0802283E0,3.410927E0,3.8028936E0],"categories":[],"categories_nodes":[],"categories_segments":[],"categories_sizes":[],"default_left":[1,1,1,1,0,0,0,0,0,0,0,0,0,0,0],"id":30,"left_children":[1,3,5,7,9,11,13,-1,-1,-1,-1,-1,-1,-1,-1],"loss_changes":[3.5513281E3,4.015703E2,7.4958594E2,6.551953E1,1.0375781E2,8.4171875E1,1.372539E2,0E0,0E0,0E0,0E0,0E0,0E0,0E0,0E0],"parents":[2147483647,0,0,1,1,2,2,3,3,4,4,5,5,6,6],"right_children":[2,4,6,8,10,12,14,-1,-1,-1,-1,-1,-1,-1,-1],"split_conditions":[1.972662E0,3.4086943E-1,1.11649994E2,2.8850002E0,9.605E0,1.4545E1,2.8425E1,7.78588E-2,1.02557495E-1,1.1646884E-1,1.3154297E-1,1.4034127E-1,1.5401141E-1,1.7054635E-1,1.9014469E-1],"split_indices":[0,0,3,2,2,2,2,0,0,0,0,0,0,0,0],"split_type":[0,0,0,0,0,0,0,0,0,0,0,0,0,0,0],"sum_hessian":[1.7131E4,7.363E3,9.768E3,2.526E3,4.837E3,5.292E3,4.476E3,3.26E2,2.2E3,2.378E3,2.459E3,2E3,3.292E3,3.043E3,1.433E3],"tree_param":{"num_deleted":"0","num_feature":"4","num_nodes":"15","size_leaf_vector":"0"}},{"base_weights":[2.7014425E0,2.274818E0,3.1471076E0,2.010498E0,2.5305157E0,2.9675298E0,3.4338765E0,1.764204E0,2.1233344E0,2.3699105E0,2.633015E0,2.8436446E0,3.0963035E0,3.3471134E0,3.6503937E0],"categories":[],"categories_nodes":[],"categories_segments":[],"categories_sizes":[],"default_left":[1,1,0,1,0,1,0,0,0,0,0,0,0,0,0],"id":31,"left_children":[1,3,5,7,9,11,13,-1,-1,-1,-1,-1,-1,-1,-1],"loss_changes":[3.2398984E3,5.848711E2,4.198203E2,1.1567383E2,6.673633E1,7.322266E1,4.80625E1,0E0,0E0,0E0,0E0,0E0,0E0,0E0,0E0],"parents":[2147483647,0,0,1,1,2,2,3,3,4,4,5,5,6,6],"right_children":[2,4,6,8,10,12,14,-1,-1,-1,-1,-1,-1,-1,-1],"split_conditions":[1.3755E1,8.583338E-1,2.2325E1,4.395E0,1.0674999E1,4.6695004E0,3.1575E1,8.82102E-2,1.0616672E-1,1.18495524E-1,1.3165075E-1,1.4218223E-1,1.5481518E-1,1.6735567E-1,1.8251969E-1],"split_indices":[2,0,2,2,2,0,2,0,0,0,0,0,0,0,0],"split_type":[0,0,0,0,0,0,0,0,0,0,0,0,0,0,0],"sum_hessian":[1.7077E4,8.728E3,8.349E3,4.296E3,4.432E3,5.141E3,3.208E3,1.355E3,2.941E3,1.736E3,2.696E3,2.632E3,2.509E3,2.302E3,9.06E2],"tree_param":{"num_deleted":"0","num_feature":"4","num_nodes":"15","size_leaf_vector":"0"}},{"base_weights":[2.5610135E0,2.1709244E0,3.0045707E0,1.8192495E0,2.341864E0,2.8506272E0,3.3241868E0,1.5308189E0,1.8819052E0,2.1836526E0,2.4858243E0,2.7281408E0,2.9786432E0,3.2597563E0,3.6861732E0],"categories":[],"categories_nodes":[],"categories_segments":[],"categories_sizes":[],"default_left":[1,1,1,1,1,1,1,0,0,0,0,0,0,0,0],"id":32,"left_children":[1,3,5,7,9,11,13,-1,-1,-1,-1,-1,-1,-1,-1],"loss_changes":[2.9496406E3,5.424297E2,3.837578E2,5.095508E1,1.338711E2,7.655859E1,4.84375E1,0E0,0E0,0E0,0E0,0E0,0E0,0E0,0E0],"parents":[2147483647,0,0,1,1,2,2,3,3,4,4,5,5,6,6],"right_children":[2,4,6,8,10,12,14,-1,-1,-1,-1,-1,-1,-1,-1],"split_conditions":[2.9993773E0,4.5312363E-1,7.040528E0,4.955E1,1.3210402E0,4.9953113E0,1.3795E2,7.654095E-2,9.409526E-2,1.0918263E-1,1.2429122E-1,1.3640705E-1,1.4893216E-1,1.6298781E-1,1.8430866E-1],"split_indices":[0,0,0,3,0,0,3,0,0,0,0,0,0,0,0],"split_type":[0,0,0,0,0,0,0,0,0,0,0,0,0,0,0],"sum_hessian":[1.7084E4,9.093E3,7.991E3,2.978E3,6.115E3,5.4E3,2.591E3,5.36E2,2.442E3,2.921E3,3.194E3,2.771E3,2.629E3,2.208E3,3.83E2],"tree_param":{"num_deleted":"0","num_feature":"4","num_nodes":"15","size_leaf_vector":"0"}},{"base_weights":[2.44079E0,2.0796847E0,2.8810537E0,1.8524677E0,2.3266828E0,2.7084985E0,3.1319194E0,1.6646627E0,2.0067904E0,2.2431624E0,2.440252E0,2.5901005E0,2.8103065E0,3.0328703E0,3.3510764E0],"categories":[],"categories_nodes":[],"categories_segments":[],"categories_sizes":[],"default_left":[1,1,0,1,0,0,1,0,0,0,0,0,0,0,0],"id":33,"left_children":[1,3,5,7,9,11,13,-1,-1,-1,-1,-1,-1,-1,-1],"loss_changes":[2.7137031E3,5.2335156E2,3.2509375E2,1.3873242E2,3.721875E1,4.7847656E1,5.786914E1,0E0,0E0,0E0,0E0,0E0,0E0,0E0,0E0],"parents":[2147483647,0,0,1,1,2,2,3,3,4,4,5,5,6,6],"right_children":[2,4,6,8,10,12,14,-1,-1,-1,-1,-1,-1,-1,-1],"split_conditions":[3.2211475E0,9.559999E0,2.2675E1,2.8063548E-1,1.2295E1,1.7825E1,8.928314E0,8.323314E-2,1.00339524E-1,1.1215812E-1,1.2201261E-1,1.2950502E-1,1.4051533E-1,1.5164351E-1,1.6755383E-1],"split_indices":[0,2,2,0,2,2,0,0,0,0,0,0,0,0,0],"split_type":[0,0,0,0,0,0,0,0,0,0,0,0,0,0,0],"sum_hessian":[1.7106E4,9.401E3,7.705E3,4.901E3,4.5E3,4.572E3,3.133E3,2.216E3,2.685E3,2.605E3,1.895E3,2.126E3,2.446E3,2.168E3,9.65E2],"tree_param":{"num_deleted":"0","num_feature":"4","num_nodes":"15","size_leaf_vector":"0"}},{"base_weights":[2.305853E0,1.8719103E0,2.6231787E0,1.6100408E0,2.018378E0,2.379736E0,2.841562E0,1.1202902E0,1.6552209E0,1.9203753E0,2.1236777E0,2.2765377E0,2.4790332E0,2.7172053E0,3.0741863E0],"categories":[],"categories_nodes":[],"categories_segments":[],"categories_sizes":[],"default_left":[1,1,1,0,0,1,0,0,0,0,0,0,0,0,0],"id":34,"left_children":[1,3,5,7,9,11,13,-1,-1,-1,-1,-1,-1,-1,-1],"loss_changes":[2.3343594E3,2.7210352E2,5.1478125E2,5.52334E1,4.339453E1,4.195508E1,1.4108984E2,0E0,0E0,0E0,0E0,0E0,0E0,0E0,0E0],"parents":[2147483647,0,0,1,1,2,2,3,3,4,4,5,5,6,6],"right_children":[2,4,6,8,10,12,14,-1,-1,-1,-1,-1,-1,-1,-1],"split_conditions":[1.8768353E0,6.325E0,4.9953113E0,2.8249998E0,9.655E0,9.625E1,2.6725E1,5.6014508E-2,8.276104E-2,9.601877E-2,1.0618389E-1,1.13826886E-1,1.23951666E-1,1.3586026E-1,1.5370932E-1],"split_indices":[0,2,0,2,2,3,2,0,0,0,0,0,0,0,0],"split_type":[0,0,0,0,0,0,0,0,0,0,0,0,0,0,0],"sum_hessian":[1.6987E4,7.178E3,9.809E3,2.579E3,4.599E3,4.644E3,5.165E3,2.2E2,2.359E3,2.392E3,2.207E3,2.289E3,2.355E3,3.374E3,1.791E3],"tree_param":{"num_deleted":"0","num_feature":"4","num_nodes":"15","size_leaf_vector":"0"}},{"base_weights":[2.195341E0,1.889103E0,2.599946E0,1.6644872E0,2.1194324E0,2.4606068E0,2.8480608E0,1.4907844E0,1.8049506E0,2.0308506E0,2.2380238E0,2.3307455E0,2.5620189E0,2.7545536E0,3.0610812E0],"categories":[],"categories_nodes":[],"categories_segments":[],"categories_sizes":[],"default_left":[1,1,1,1,1,1,0,0,0,0,0,0,0,0,0],"id":35,"left_children":[1,3,5,7,9,11,13,-1,-1,-1,-1,-1,-1,-1,-1],"loss_changes":[2.103461E3,4.9773828E2,2.4633984E2,1.1710742E2,4.566797E1,5.592578E1,4.3935547E1,0E0,0E0,0E0,0E0,0E0,0E0,0E0,0E0],"parents":[2147483647,0,0,1,1,2,2,3,3,4,4,5,5,6,6],"right_children":[2,4,6,8,10,12,14,-1,-1,-1,-1,-1,-1,-1,-1],"split_conditions":[3.415539E0,1.0116566E0,7.018625E0,2.8337336E-1,8.825E1,5E-1,1.3485E2,7.453922E-2,9.0247534E-2,1.0154253E-1,1.1190119E-1,1.1653727E-1,1.2810095E-1,1.3772768E-1,1.5305406E-1],"split_indices":[0,0,0,0,3,1,3,0,0,0,0,0,0,0,0],"split_type":[0,0,0,0,0,0,0,0,0,0,0,0,0,0,0],"sum_hessian":[1.7015E4,9.688E3,7.327E3,4.909E3,4.779E3,4.699E3,2.628E3,2.2E3,2.709E3,2.746E3,2.033E3,2.071E3,2.628E3,1.836E3,7.92E2],"tree_param":{"num_deleted":"0","num_feature":"4","num_nodes":"15","size_leaf_vector":"0"}},{"base_weights":[2.0816443E0,1.7741659E0,2.4492192E0,1.4726212E0,1.9127957E0,2.303889E0,2.6787968E0,9.8592293E-1,1.5109506E0,1.7531334E0,2.0281515E0,2.24409E0,2.43454E0,2.5979145E0,2.9005756E0],"categories":[],"categories_nodes":[],"categories_segments":[],"categories_sizes":[],"default_left":[1,0,0,0,0,1,0,0,0,0,0,0,0,0,0],"id":36,"left_children":[1,3,5,7,9,11,13,-1,-1,-1,-1,-1,-1,-1,-1],"loss_changes":[1.9250391E3,3.859121E2,2.5317578E2,5.3225098E1,1.1371094E2,3.1779297E1,4.6402344E1,0E0,0E0,0E0,0E0,0E0,0E0,0E0,0E0],"parents":[2147483647,0,0,1,1,2,2,3,3,4,4,5,5,6,6],"right_children":[2,4,6,8,10,12,14,-1,-1,-1,-1,-1,-1,-1,-1],"split_conditions":[1.4434999E1,6.595E1,2.2775E1,2.8249998E0,1.0275E1,1.11649994E2,3.2324997E1,4.9296148E-2,7.554753E-2,8.765667E-2,1.0140758E-1,1.1220451E-1,1.21727005E-1,1.2989573E-1,1.4502878E-1],"split_indices":[2,3,2,2,2,3,2,0,0,0,0,0,0,0,0],"split_type":[0,0,0,0,0,0,0,0,0,0,0,0,0,0,0],"sum_hessian":[1.707E4,9.298E3,7.772E3,2.932E3,6.366E3,4.766E3,3.006E3,2.16E2,2.716E3,2.677E3,3.689E3,3.282E3,1.484E3,2.212E3,7.94E2],"tree_param":{"num_deleted":"0","num_feature":"4","num_nodes":"15","size_leaf_vector":"0"}},{"base_weights":[1.9794908E0,1.5992439E0,2.2526722E0,1.3674637E0,1.7233317E0,2.0582433E0,2.4592698E0,1.0040674E0,1.414567E0,1.624952E0,1.825483E0,1.9571847E0,2.1325111E0,2.380283E0,2.7637846E0],"categories":[],"categories_nodes":[],"categories_segments":[],"categories_sizes":[],"default_left":[1,1,0,1,0,1,1,0,0,0,0,0,0,0,0],"id":37,"left_children":[1,3,5,7,9,11,13,-1,-1,-1,-1,-1,-1,-1,-1],"loss_changes":[1.7777734E3,2.0394727E2,3.956953E2,4.1475586E1,4.3945312E1,3.445117E1,1.0964453E2,0E0,0E0,0E0,0E0,0E0,0E0,0E0,0E0],"parents":[2147483647,0,0,1,1,2,2,3,3,4,4,5,5,6,6],"right_children":[2,4,6,8,10,12,14,-1,-1,-1,-1,-1,-1,-1,-1],"split_conditions":[1.8740973E0,3.436073E-1,1.9175E1,2.8249998E0,9.605E0,5E-1,8.928314E0,5.020337E-2,7.0728354E-2,8.12476E-2,9.127415E-2,9.785923E-2,1.0662556E-1,1.1901416E-1,1.3818924E-1],"split_indices":[0,0,2,2,2,1,0,0,0,0,0,0,0,0,0],"split_type":[0,0,0,0,0,0,0,0,0,0,0,0,0,0,0],"sum_hessian":[1.7148E4,7.172E3,9.976E3,2.505E3,4.667E3,5.145E3,4.831E3,2.9E2,2.215E3,2.386E3,2.281E3,2.191E3,2.954E3,3.843E3,9.88E2],"tree_param":{"num_deleted":"0","num_feature":"4","num_nodes":"15","size_leaf_vector":"0"}},{"base_weights":[1.8771493E0,1.6040742E0,2.214879E0,1.4152485E0,1.7873791E0,2.0706935E0,2.4217274E0,1.1240046E0,1.4859042E0,1.719273E0,1.9101858E0,2.0123162E0,2.1667583E0,2.3689086E0,2.73603E0],"categories":[],"categories_nodes":[],"categories_segments":[],"categories_sizes":[],"default_left":[1,1,0,0,1,1,1,0,0,0,0,0,0,0,0],"id":38,"left_children":[1,3,5,7,9,11,13,-1,-1,-1,-1,-1,-1,-1,-1],"loss_changes":[1.5653906E3,3.2317578E2,2.2173828E2,9.381152E1,3.6620117E1,2.0802734E1,4.5265625E1,0E0,0E0,0E0,0E0,0E0,0E0,0E0,0E0],"parents":[2147483647,0,0,1,1,2,2,3,3,4,4,5,5,6,6],"right_children":[2,4,6,8,10,12,14,-1,-1,-1,-1,-1,-1,-1,-1],"split_conditions":[3.2211475E0,9.27E0,2.254E1,3.855E0,8.825E1,1.1005E2,1.3725E2,5.6200232E-2,7.4295215E-2,8.596365E-2,9.550929E-2,1.00615814E-1,1.0833792E-1,1.1844543E-1,1.3680151E-1],"split_indices":[0,2,2,2,3,3,3,0,0,0,0,0,0,0,0],"split_type":[0,0,0,0,0,0,0,0,0,0,0,0,0,0,0],"sum_hessian":[1.7011E4,9.409E3,7.602E3,4.639E3,4.77E3,4.486E3,3.116E3,9.09E2,3.73E3,3.078E3,1.692E3,2.804E3,1.682E3,2.675E3,4.41E2],"tree_param":{"num_deleted":"0","num_feature":"4","num_nodes":"15","size_leaf_vector":"0"}},{"base_weights":[1.7914014E0,1.5279031E0,2.1281533E0,1.3422742E0,1.7202932E0,2.0054512E0,2.3365414E0,1.1353508E0,1.434925E0,1.6421806E0,1.8149252E0,1.9220783E0,2.1282778E0,2.2645013E0,2.5685496E0],"categories":[],"categories_nodes":[],"categories_segments":[],"categories_sizes":[],"default_left":[1,1,1,1,0,1,1,0,0,0,0,0,0,0,0],"id":39,"left_children":[1,3,5,7,9,11,13,-1,-1,-1,-1,-1,-1,-1,-1],"loss_changes":[1.5163086E3,3.4092773E2,1.8746875E2,9.223535E1,3.1878906E1,4.441992E1,4.0631836E1,0E0,0E0,0E0,0E0,0E0,0E0,0E0,0E0],"parents":[2147483647,0,0,1,1,2,2,3,3,4,4,5,5,6,6],"right_children":[2,4,6,8,10,12,14,-1,-1,-1,-1,-1,-1,-1,-1],"split_conditions":[3.3498292E0,1.0061808E0,6.9008946E0,4.585E0,1.2225E1,1.1105E2,9.321205E0,5.6767542E-2,7.174625E-2,8.210903E-2,9.074626E-2,9.6103914E-2,1.0641389E-1,1.13225065E-1,1.2842749E-1],"split_indices":[0,0,0,2,2,3,0,0,0,0,0,0,0,0,0],"split_type":[0,0,0,0,0,0,0,0,0,0,0,0,0,0,0],"sum_hessian":[1.7124E4,9.61E3,7.514E3,4.895E3,4.715E3,4.736E3,2.778E3,1.518E3,3.377E3,2.593E3,2.122E3,2.831E3,1.905E3,2.128E3,6.5E2],"tree_param":{"num_deleted":"0","num_feature":"4","num_nodes":"15","size_leaf_vector":"0"}},{"base_weights":[1.701497E0,1.3891057E0,1.9365078E0,1.1861383E0,1.5012059E0,1.7668928E0,2.1118329E0,8.2332194E-1,1.2278942E0,1.4196953E0,1.5712296E0,1.0286143E0,1.7805301E0,2.0105946E0,2.2685862E0],"categories":[],"categories_nodes":[],"categories_segments":[],"categories_sizes":[],"default_left":[0,0,0,0,0,0,0,0,0,0,0,0,0,0,0],"id":40,"left_children":[1,3,5,7,9,11,13,-1,-1,-1,-1,-1,-1,-1,-1],"loss_changes":[1.2469102E3,1.6456445E2,2.850547E2,3.846924E1,2.4629883E1,4.792578E1,7.1134766E1,0E0,0E0,0E0,0E0,0E0,0E0,0E0,0E0],"parents":[2147483647,0,0,1,1,2,2,3,3,4,4,5,5,6,6],"right_children":[2,4,6,8,10,12,14,-1,-1,-1,-1,-1,-1,-1,-1],"split_conditions":[1.2295E1,6.775E0,1.11350006E2,2.9450002E0,9.605E0,6.425E1,2.6725E1,4.1166097E-2,6.139471E-2,7.0984766E-2,7.856148E-2,5.1430713E-2,8.90265E-2,1.0052973E-1,1.1342931E-1],"split_indices":[2,2,3,2,2,3,2,0,0,0,0,0,0,0,0],"split_type":[0,0,0,0,0,0,0,0,0,0,0,0,0,0,0],"sum_hessian":[1.702E4,7.31E3,9.71E3,2.605E3,4.705E3,4.941E3,4.769E3,2.71E2,2.334E3,2.184E3,2.521E3,9.1E1,4.85E3,2.906E3,1.863E3],"tree_param":{"num_deleted":"0","num_feature":"4","num_nodes":"15","size_leaf_vector":"0"}},{"base_weights":[1.6134392E0,1.365973E0,1.8981711E0,1.2021554E0,1.5200158E0,1.739198E0,2.0226955E0,7.546809E-1,1.2293409E0,1.5007771E0,2.061845E0,1.6315888E0,1.8173245E0,1.9463127E0,2.1829724E0],"categories":[],"categories_nodes":[],"categories_segments":[],"categories_sizes":[],"default_left":[1,0,0,0,1,1,0,0,0,0,0,0,0,0,0],"id":41,"left_children":[1,3,5,7,9,11,13,-1,-1,-1,-1,-1,-1,-1,-1],"loss_changes":[1.202793E3,2.2922461E2,1.5389844E2,5.31084E1,4.6055664E1,2.645996E1,5.026758E1,0E0,0E0,0E0,0E0,0E0,0E0,0E0,0E0],"parents":[2147483647,0,0,1,1,2,2,3,3,4,4,5,5,6,6],"right_children":[2,4,6,8,10,12,14,-1,-1,-1,-1,-1,-1,-1,-1],"split_conditions":[9.3850006E1,9.205E0,1.11649994E2,2.8850002E0,1.705E1,5E-1,2.8425E1,3.7734043E-2,6.1467048E-2,7.503886E-2,1.0309225E-1,8.157944E-2,9.086623E-2,9.731563E-2,1.0914862E-1],"split_indices":[3,2,3,2,2,1,2,0,0,0,0,0,0,0,0],"split_type":[0,0,0,0,0,0,0,0,0,0,0,0,0,0,0],"sum_hessian":[1.7106E4,9.155E3,7.951E3,4.441E3,4.714E3,3.499E3,4.452E3,2.56E2,4.185E3,4.556E3,1.58E2,1.481E3,2.018E3,3.024E3,1.428E3],"tree_param":{"num_deleted":"0","num_feature":"4","num_nodes":"15","size_leaf_vector":"0"}},{"base_weights":[1.5347438E0,1.2405766E0,1.7528101E0,1.0304543E0,1.3317829E0,1.6440201E0,1.9770604E0,8.815498E-1,1.106501E0,1.2565504E0,1.4117286E0,1.5301853E0,1.7342132E0,1.8988304E0,2.152716E0],"categories":[],"categories_nodes":[],"categories_segments":[],"categories_sizes":[],"default_left":[1,1,0,1,1,0,0,0,0,0,0,0,0,0,0],"id":42,"left_children":[1,3,5,7,9,11,13,-1,-1,-1,-1,-1,-1,-1,-1],"loss_changes":[1.0923164E3,1.3789648E2,2.3573633E2,2.3981934E1,2.8683594E1,6.512891E1,3.9816406E1,0E0,0E0,0E0,0E0,0E0,0E0,0E0,0E0],"parents":[2147483647,0,0,1,1,2,2,3,3,4,4,5,5,6,6],"right_children":[2,4,6,8,10,12,14,-1,-1,-1,-1,-1,-1,-1,-1],"split_conditions":[1.9452829E0,2.861113E-1,2.254E1,3.585E0,1.000705E0,1.5835E1,3.1625E1,4.407749E-2,5.532505E-2,6.282752E-2,7.0586435E-2,7.650927E-2,8.671066E-2,9.494152E-2,1.07635796E-1],"split_indices":[0,0,2,2,0,2,2,0,0,0,0,0,0,0,0],"split_type":[0,0,0,0,0,0,0,0,0,0,0,0,0,0,0],"sum_hessian":[1.7061E4,7.266E3,9.795E3,2.203E3,5.063E3,6.601E3,3.194E3,7.49E2,1.454E3,2.617E3,2.446E3,2.926E3,3.675E3,2.218E3,9.76E2],"tree_param":{"num_deleted":"0","num_feature":"4","num_nodes":"15","size_leaf_vector":"0"}},{"base_weights":[1.4599226E0,1.2560022E0,1.7421557E0,1.0776691E0,1.39152E0,1.674864E0,1.9869325E0,8.397919E-1,1.1240572E0,1.2712555E0,1.4590333E0,1.5621551E0,1.7605122E0,1.9526212E0,2.2969148E0],"categories":[],"categories_nodes":[],"categories_segments":[],"categories_sizes":[],"default_left":[1,1,1,0,1,1,0,0,0,0,0,0,0,0,0],"id":43,"left_children":[1,3,5,7,9,11,13,-1,-1,-1,-1,-1,-1,-1,-1],"loss_changes":[9.8277734E2,2.3869922E2,1.1487109E2,4.6460938E1,4.397168E1,5.1646484E1,1.1916016E1,0E0,0E0,0E0,0E0,0E0,0E0,0E0,0E0],"parents":[2147483647,0,0,1,1,2,2,3,3,4,4,5,5,6,6],"right_children":[2,4,6,8,10,12,14,-1,-1,-1,-1,-1,-1,-1,-1],"split_conditions":[3.5770755E0,8.924999E0,8.2411E0,3.5349998E0,5E-1,5E-1,4.1800003E1,4.1989595E-2,5.620286E-2,6.356277E-2,7.295167E-2,7.810776E-2,8.8025615E-2,9.763106E-2,1.14845745E-1],"split_indices":[0,2,0,2,1,1,2,0,0,0,0,0,0,0,0],"split_type":[0,0,0,0,0,0,0,0,0,0,0,0,0,0,0],"sum_hessian":[1.7113E4,9.938E3,7.175E3,4.295E3,5.643E3,5.634E3,1.541E3,7.04E2,3.591E3,2.036E3,3.607E3,2.441E3,3.193E3,1.394E3,1.47E2],"tree_param":{"num_deleted":"0","num_feature":"4","num_nodes":"15","size_leaf_vector":"0"}},{"base_weights":[1.3859577E0,1.1431317E0,1.600378E0,9.4061786E-1,1.2208217E0,1.507219E0,1.8023255E0,7.125747E-1,9.9873805E-1,1.2082613E0,1.9029647E0,1.4220117E0,1.5743946E0,1.7423763E0,1.9619266E0],"categories":[],"categories_nodes":[],"categories_segments":[],"categories_sizes":[],"default_left":[1,1,0,1,1,0,1,0,0,0,0,0,0,0,0],"id":44,"left_children":[1,3,5,7,9,11,13,-1,-1,-1,-1,-1,-1,-1,-1],"loss_changes":[8.882539E2,1.2503223E2,1.680332E2,2.8818237E1,4.7335938E1,3.3345703E1,2.394629E1,0E0,0E0,0E0,0E0,0E0,0E0,0E0,0E0],"parents":[2147483647,0,0,1,1,2,2,3,3,4,4,5,5,6,6],"right_children":[2,4,6,8,10,12,14,-1,-1,-1,-1,-1,-1,-1,-1],"split_conditions":[8.895E1,2.8337336E-1,1.1995E2,3.145E0,6.376585E0,1.631E1,9.140503E0,3.5628736E-2,4.99369E-2,6.0413063E-2,9.5148236E-2,7.1100585E-2,7.871973E-2,8.711882E-2,9.809633E-2],"split_indices":[3,0,3,2,0,2,0,0,0,0,0,0,0,0,0],"split_type":[0,0,0,0,0,0,0,0,0,0,0,0,0,0,0],"sum_hessian":[1.7094E4,8.019E3,9.075E3,2.227E3,5.792E3,6.216E3,2.859E3,4.55E2,1.772E3,5.69E3,1.02E2,2.75E3,3.466E3,2.087E3,7.72E2],"tree_param":{"num_deleted":"0","num_feature":"4","num_nodes":"15","size_leaf_vector":"0"}},{"base_weights":[1.3153424E0,1.0180672E0,1.4714305E0,8.6168015E-1,1.1057107E0,1.3841234E0,1.7164704E0,5.3455985E-1,8.805117E-1,8.7179166E-1,1.1272103E0,1.2774475E0,1.4589466E0,1.6300356E0,1.8371347E0],"categories":[],"categories_nodes":[],"categories_segments":[],"categories_sizes":[],"default_left":[1,1,1,0,1,1,0,0,0,0,0,0,0,0,0],"id":45,"left_children":[1,3,5,7,9,11,13,-1,-1,-1,-1,-1,-1,-1,-1],"loss_changes":[7.922871E2,7.981885E1,2.3755273E2,1.2595093E1,1.7992188E1,6.4177734E1,2.7689453E1,0E0,0E0,0E0,0E0,0E0,0E0,0E0,0E0],"parents":[2147483647,0,0,1,1,2,2,3,3,4,4,5,5,6,6],"right_children":[2,4,6,8,10,12,14,-1,-1,-1,-1,-1,-1,-1,-1],"split_conditions":[1.3210402E0,5.915E1,6.7338824E0,4.54E1,2.4230477E-1,9.505E1,1.3135E2,2.6727993E-2,4.4025585E-2,4.3589585E-2,5.6360513E-2,6.3872375E-2,7.294733E-2,8.150178E-2,9.185674E-2],"split_indices":[0,3,0,3,0,3,3,0,0,0,0,0,0,0,0],"split_type":[0,0,0,0,0,0,0,0,0,0,0,0,0,0,0],"sum_hessian":[1.7106E4,5.892E3,1.1214E4,2.12E3,3.772E3,8.273E3,2.941E3,1.17E2,2.003E3,3.21E2,3.451E3,3.418E3,4.855E3,1.722E3,1.219E3],"tree_param":{"num_deleted":"0","num_feature":"4","num_nodes":"15","size_leaf_vector":"0"}},{"base_weights":[1.2456123E0,9.97758E-1,1.4105403E0,8.6061734E-1,1.0974743E0,1.318675E0,1.6045803E0,4.769229E-1,8.853832E-1,1.007971E0,1.1478708E0,1.2322084E0,1.3890666E0,1.5449681E0,1.7775545E0],"categories":[],"categories_nodes":[],"categories_segments":[],"categories_sizes":[],"default_left":[1,1,0,0,1,0,1,0,0,0,0,0,0,0,0],"id":46,"left_children":[1,3,5,7,9,11,13,-1,-1,-1,-1,-1,-1,-1,-1],"loss_changes":[6.9384766E2,9.2032715E1,1.7988086E2,2.6821533E1,1.6583496E1,4.0499023E1,3.1033203E1,0E0,0E0,0E0,0E0,0E0,0E0,0E0,0E0],"parents":[2147483647,0,0,1,1,2,2,3,3,4,4,5,5,6,6],"right_children":[2,4,6,8,10,12,14,-1,-1,-1,-1,-1,-1,-1,-1],"split_conditions":[1.7098229E0,6.9399996E0,2.2325E1,2.7150002E0,5E-1,1.5440001E1,9.061104E0,2.3846146E-2,4.426916E-2,5.0398555E-2,5.739354E-2,6.161042E-2,6.945333E-2,7.724841E-2,8.887773E-2],"split_indices":[0,2,2,2,1,2,0,0,0,0,0,0,0,0,0],"split_type":[0,0,0,0,0,0,0,0,0,0,0,0,0,0,0],"sum_hessian":[1.7007E4,6.798E3,1.0209E4,2.866E3,3.932E3,6.934E3,3.275E3,1.75E2,2.691E3,1.424E3,2.508E3,3.12E3,3.814E3,2.443E3,8.32E2],"tree_param":{"num_deleted":"0","num_feature":"4","num_nodes":"15","size_leaf_vector":"0"}},{"base_weights":[1.1894474E0,1.0123563E0,1.4016452E0,8.3641833E-1,1.0918823E0,1.3240713E0,1.5532261E0,4.7578296E-1,8.577523E-1,1.0008762E0,1.1581777E0,1.2317662E0,1.3925712E0,1.5163153E0,1.772117E0],"categories":[],"categories_nodes":[],"categories_segments":[],"categories_sizes":[],"default_left":[1,0,1,0,0,1,0,0,0,0,0,0,0,0,0],"id":47,"left_children":[1,3,5,7,9,11,13,-1,-1,-1,-1,-1,-1,-1,-1],"loss_changes":[6.4271094E2,1.2986719E2,8.960254E1,2.2011475E1,3.765918E1,3.0929688E1,1.8586426E1,0E0,0E0,0E0,0E0,0E0,0E0,0E0,0E0],"parents":[2147483647,0,0,1,1,2,2,3,3,4,4,5,5,6,6],"right_children":[2,4,6,8,10,12,14,-1,-1,-1,-1,-1,-1,-1,-1],"split_conditions":[1.4434999E1,6.595E1,1.21149994E2,2.7150002E0,1.0275E1,5E-1,1.3805E2,2.3789149E-2,4.2887617E-2,5.004381E-2,5.790889E-2,6.1588313E-2,6.962856E-2,7.581577E-2,8.860585E-2],"split_indices":[2,3,3,2,2,1,3,0,0,0,0,0,0,0,0],"split_type":[0,0,0,0,0,0,0,0,0,0,0,0,0,0,0],"sum_hessian":[1.714E4,9.346E3,7.794E3,2.913E3,6.433E3,5.162E3,2.632E3,1.64E2,2.749E3,2.718E3,3.715E3,2.207E3,2.955E3,2.259E3,3.73E2],"tree_param":{"num_deleted":"0","num_feature":"4","num_nodes":"15","size_leaf_vector":"0"}},{"base_weights":[1.1276284E0,9.5859236E-1,1.3372637E0,8.503475E-1,1.0667717E0,1.2609522E0,1.4743732E0,6.777892E-1,8.898607E-1,9.5963794E-1,1.1284639E0,5.5501413E-1,1.2716796E0,1.4453334E0,1.7875445E0],"categories":[],"categories_nodes":[],"categories_segments":[],"categories_sizes":[],"default_left":[0,0,1,0,1,1,1,0,0,0,0,0,0,0,0],"id":48,"left_children":[1,3,5,7,9,11,13,-1,-1,-1,-1,-1,-1,-1,-1],"loss_changes":[6.025469E2,1.0959863E2,7.770117E1,3.159253E1,3.0086426E1,3.634131E1,2.2089355E1,0E0,0E0,0E0,0E0,0E0,0E0,0E0,0E0],"parents":[2147483647,0,0,1,1,2,2,3,3,4,4,5,5,6,6],"right_children":[2,4,6,8,10,12,14,-1,-1,-1,-1,-1,-1,-1,-1],"split_conditions":[1.4975E1,9.559999E0,6.9310117E0,3.8049998E0,5E-1,3.3676255E-1,9.770222E0,3.388946E-2,4.4493034E-2,4.79819E-2,5.6423195E-2,2.7750706E-2,6.3583985E-2,7.226667E-2,8.9377224E-2],"split_indices":[2,2,0,2,1,0,0,0,0,0,0,0,0,0,0],"split_type":[0,0,0,0,0,0,0,0,0,0,0,0,0,0,0],"sum_hessian":[1.7039E4,9.436E3,7.603E3,4.721E3,4.715E3,4.891E3,2.712E3,8.83E2,3.838E3,1.729E3,2.986E3,7.4E1,4.817E3,2.487E3,2.25E2],"tree_param":{"num_deleted":"0","num_feature":"4","num_nodes":"15","size_leaf_vector":"0"}},{"base_weights":[1.0695891E0,9.251701E-1,1.2946398E0,8.174901E-1,1.0504483E0,1.256751E0,1.5510125E0,6.837897E-1,8.748984E-1,9.418052E-1,1.1213588E0,1.1597213E0,1.3341005E0,1.4936421E0,1.782568E0],"categories":[],"categories_nodes":[],"categories_segments":[],"categories_sizes":[],"default_left":[1,1,0,1,1,1,1,0,0,0,0,0,0,0,0],"id":49,"left_children":[1,3,5,7,9,11,13,-1,-1,-1,-1,-1,-1,-1,-1],"loss_changes":[5.5519727E2,1.3985449E2,6.3026367E1,4.2492188E1,3.6061523E1,4.2231445E1,8.722168E0,0E0,0E0,0E0,0E0,0E0,0E0,0E0,0E0],"parents":[2147483647,0,0,1,1,2,2,3,3,4,4,5,5,6,6],"right_children":[2,4,6,8,10,12,14,-1,-1,-1,-1,-1,-1,-1,-1],"split_conditions":[3.9521687E0,1.2306893E0,3.2324997E1,4.865E0,5E-1,5E-1,9.756531E0,3.4189485E-2,4.3744918E-2,4.709026E-2,5.606794E-2,5.7986062E-2,6.6705026E-2,7.468211E-2,8.91284E-2],"split_indices":[0,0,2,2,1,1,0,0,0,0,0,0,0,0,0],"split_type":[0,0,0,0,0,0,0,0,0,0,0,0,0,0,0],"sum_hessian":[1.7118E4,1.043E4,6.688E3,5.613E3,4.817E3,5.832E3,8.56E2,1.69E3,3.923E3,1.908E3,2.909E3,2.594E3,3.238E3,6.92E2,1.64E2],"tree_param":{"num_deleted":"0","num_feature":"4","num_nodes":"15","size_leaf_vector":"0"}},{"base_weights":[1.0231946E0,8.717586E-1,1.2183359E0,7.6565677E-1,9.7937006E-1,1.1717476E0,1.4178482E0,6.463301E-1,8.173632E-1,9.7116363E-1,1.9242723E0,1.1383684E0,1.2690344E0,1.3358305E0,1.484913E0],"categories":[],"categories_nodes":[],"categories_segments":[],"categories_sizes":[],"default_left":[1,1,0,1,1,0,0,0,0,0,0,0,0,0,0],"id":50,"left_children":[1,3,5,7,9,11,13,-1,-1,-1,-1,-1,-1,-1,-1],"loss_changes":[5.0275977E2,1.0889404E2,6.755859E1,2.9334229E1,3.5072754E1,1.817871E1,5.744629E0,0E0,0E0,0E0,0E0,0E0,0E0,0E0,0E0],"parents":[2147483647,0,0,1,1,2,2,3,3,4,4,5,5,6,6],"right_children":[2,4,6,8,10,12,14,-1,-1,-1,-1,-1,-1,-1,-1],"split_conditions":[9.6149994E1,1.000705E0,2.8475E1,4.585E0,8.268479E0,1.1995E2,1.3315E2,3.2316506E-2,4.086816E-2,4.8558183E-2,9.621362E-2,5.691842E-2,6.345172E-2,6.679153E-2,7.4245654E-2],"split_indices":[3,0,2,2,0,3,3,0,0,0,0,0,0,0,0],"split_type":[0,0,0,0,0,0,0,0,0,0,0,0,0,0,0],"sum_hessian":[1.7048E4,9.602E3,7.446E3,4.839E3,4.763E3,6.042E3,1.404E3,1.467E3,3.372E3,4.724E3,3.9E1,4.508E3,1.534E3,6.41E2,7.63E2],"tree_param":{"num_deleted":"0","num_feature":"4","num_nodes":"15","size_leaf_vector":"0"}},{"base_weights":[9.683883E-1,8.382407E-1,1.1713727E0,7.245464E-1,9.3517447E-1,1.0865668E0,1.28474E0,3.1659243E-1,7.4386984E-1,8.851736E-1,9.871443E-1,1.0518754E0,1.1258268E0,1.2497439E0,1.4988073E0],"categories":[],"categories_nodes":[],"categories_segments":[],"categories_sizes":[],"default_left":[1,1,0,0,1,0,1,0,0,0,0,0,0,0,0],"id":51,"left_children":[1,3,5,7,9,11,13,-1,-1,-1,-1,-1,-1,-1,-1],"loss_changes":[4.510293E2,1.1425928E2,6.2845703E1,3.763452E1,1.3745117E1,4.0302734E0,1.9507812E1,0E0,0E0,0E0,0E0,0E0,0E0,0E0,0E0],"parents":[2147483647,0,0,1,1,2,2,3,3,4,4,5,5,6,6],"right_children":[2,4,6,8,10,12,14,-1,-1,-1,-1,-1,-1,-1,-1],"split_conditions":[3.9521687E0,9.788017E-1,1.21149994E2,2.8249998E0,8.825E1,1.11649994E2,1.3795E2,1.582962E-2,3.7193492E-2,4.425868E-2,4.9357217E-2,5.2593768E-2,5.629134E-2,6.2487196E-2,7.494037E-2],"split_indices":[0,0,3,2,3,3,3,0,0,0,0,0,0,0,0],"split_type":[0,0,0,0,0,0,0,0,0,0,0,0,0,0,0],"sum_hessian":[1.7109E4,1.0428E4,6.681E3,4.803E3,5.625E3,3.828E3,2.853E3,2.18E2,4.585E3,2.876E3,2.749E3,2.047E3,1.781E3,2.458E3,3.95E2],"tree_param":{"num_deleted":"0","num_feature":"4","num_nodes":"15","size_leaf_vector":"0"}},{"base_weights":[9.183667E-1,7.405038E-1,1.0532099E0,6.3478094E-1,8.027791E-1,9.5233536E-1,1.1496431E0,3.6254185E-1,6.6331494E-1,7.3331255E-1,8.474383E-1,8.61837E-1,1.0090777E0,1.047525E0,1.2297672E0],"categories":[],"categories_nodes":[],"categories_segments":[],"categories_sizes":[],"default_left":[0,0,1,0,1,1,1,0,0,0,0,0,0,0,0],"id":52,"left_children":[1,3,5,7,9,11,13,-1,-1,-1,-1,-1,-1,-1,-1],"loss_changes":[4.107793E2,4.8231445E1,9.382715E1,2.1113892E1,1.381958E1,2.3649902E1,3.94917E1,0E0,0E0,0E0,0E0,0E0,0E0,0E0,0E0],"parents":[2147483647,0,0,1,1,2,2,3,3,4,4,5,5,6,6],"right_children":[2,4,6,8,10,12,14,-1,-1,-1,-1,-1,-1,-1,-1],"split_conditions":[1.2225E1,6.9399996E0,5.184227E0,2.9050002E0,5E-1,5E-1,5E-1,1.8127093E-2,3.316575E-2,3.666563E-2,4.2371914E-2,4.3091852E-2,5.0453883E-2,5.237625E-2,6.148836E-2],"split_indices":[2,2,0,2,1,1,1,0,0,0,0,0,0,0,0],"split_type":[0,0,0,0,0,0,0,0,0,0,0,0,0,0,0],"sum_hessian":[1.7159E4,7.402E3,9.757E3,2.748E3,4.654E3,4.774E3,4.983E3,2.62E2,2.486E3,1.828E3,2.826E3,1.846E3,2.928E3,2.197E3,2.786E3],"tree_param":{"num_deleted":"0","num_feature":"4","num_nodes":"15","size_leaf_vector":"0"}},{"base_weights":[8.7410516E-1,6.7080027E-1,9.8028374E-1,5.562233E-1,7.2217137E-1,8.976724E-1,1.0910847E0,2.6132473E-1,5.726831E-1,-1.2790464E-1,7.251562E-1,8.13054E-1,9.5741314E-1,1.0552018E0,1.2720766E0],"categories":[],"categories_nodes":[],"categories_segments":[],"categories_sizes":[],"default_left":[1,1,0,1,1,1,1,0,0,0,0,0,0,0,0],"id":53,"left_children":[1,3,5,7,9,11,13,-1,-1,-1,-1,-1,-1,-1,-1],"loss_changes":[3.6797656E2,3.4101807E1,1.0168457E2,8.679749E0,1.035376E1,3.1731445E1,2.9740723E1,0E0,0E0,0E0,0E0,0E0,0E0,0E0,0E0],"parents":[2147483647,0,0,1,1,2,2,3,3,4,4,5,5,6,6],"right_children":[2,4,6,8,10,12,14,-1,-1,-1,-1,-1,-1,-1,-1],"split_conditions":[1.3210402E0,5.745E1,1.11649994E2,6.8447674E-3,8.076826E-2,5E-1,9.140503E0,1.3066237E-2,2.8634155E-2,-6.395232E-3,3.625781E-2,4.0652703E-2,4.787066E-2,5.276009E-2,6.360383E-2],"split_indices":[0,3,3,0,0,1,0,0,0,0,0,0,0,0,0],"split_type":[0,0,0,0,0,0,0,0,0,0,0,0,0,0,0],"sum_hessian":[1.7076E4,5.861E3,1.1215E4,1.818E3,4.043E3,6.43E3,4.785E3,9.7E1,1.721E3,1.4E1,4.029E3,2.667E3,3.763E3,3.999E3,7.86E2],"tree_param":{"num_deleted":"0","num_feature":"4","num_nodes":"15","size_leaf_vector":"0"}},{"base_weights":[8.306264E-1,6.385878E-1,9.32665E-1,5.2101994E-1,6.918977E-1,8.4762514E-1,1.027727E0,1.8381655E-1,5.408863E-1,5.431431E-1,7.1161956E-1,7.697246E-1,8.994003E-1,9.906114E-1,1.1944877E0],"categories":[],"categories_nodes":[],"categories_segments":[],"categories_sizes":[],"default_left":[1,1,1,1,1,1,1,0,0,0,0,0,0,0,0],"id":54,"left_children":[1,3,5,7,9,11,13,-1,-1,-1,-1,-1,-1,-1,-1],"loss_changes":[3.3519043E2,3.692505E1,8.957324E1,1.2360748E1,1.1612305E1,2.3148926E1,3.1484375E1,0E0,0E0,0E0,0E0,0E0,0E0,0E0,0E0],"parents":[2147483647,0,0,1,1,2,2,3,3,4,4,5,5,6,6],"right_children":[2,4,6,8,10,12,14,-1,-1,-1,-1,-1,-1,-1,-1],"split_conditions":[1.3402054E0,5.765E1,4.9953113E0,6.8447674E-3,2.4230477E-1,5E-1,8.970753E0,9.190828E-3,2.7044315E-2,2.7157156E-2,3.5580978E-2,3.848623E-2,4.4970017E-2,4.953057E-2,5.9724387E-2],"split_indices":[0,3,0,0,0,1,0,0,0,0,0,0,0,0,0],"split_type":[0,0,0,0,0,0,0,0,0,0,0,0,0,0,0],"sum_hessian":[1.7135E4,5.948E3,1.1187E4,1.859E3,4.089E3,5.91E3,5.277E3,1.04E2,1.755E3,4.82E2,3.607E3,2.366E3,3.544E3,4.322E3,9.55E2],"tree_param":{"num_deleted":"0","num_feature":"4","num_nodes":"15","size_leaf_vector":"0"}},{"base_weights":[7.75532E-1,6.6940695E-1,9.4457245E-1,5.381597E-1,7.283908E-1,8.9516574E-1,1.0667382E0,1.7564452E-1,5.5268735E-1,6.6068983E-1,7.716653E-1,8.4576166E-1,9.348039E-1,1.0320761E0,1.3540263E0],"categories":[],"categories_nodes":[],"categories_segments":[],"categories_sizes":[],"default_left":[1,1,0,0,0,1,0,0,0,0,0,0,0,0,0],"id":55,"left_children":[1,3,5,7,9,11,13,-1,-1,-1,-1,-1,-1,-1,-1],"loss_changes":[3.081953E2,8.150488E1,3.9104492E1,1.719806E1,2.0865723E1,8.476074E0,1.7582275E1,0E0,0E0,0E0,0E0,0E0,0E0,0E0,0E0],"parents":[2147483647,0,0,1,1,2,2,3,3,4,4,5,5,6,6],"right_children":[2,4,6,8,10,12,14,-1,-1,-1,-1,-1,-1,-1,-1],"split_conditions":[3.9959753E0,6.595E1,2.6725E1,2.565E0,1.058E1,1.11649994E2,1.4195E2,8.782226E-3,2.7634367E-2,3.3034492E-2,3.8583264E-2,4.2288084E-2,4.6740197E-2,5.1603805E-2,6.770132E-2],"split_indices":[0,3,2,2,2,3,3,0,0,0,0,0,0,0,0],"split_type":[0,0,0,0,0,0,0,0,0,0,0,0,0,0,0],"sum_hessian":[1.7214E4,1.0578E4,6.636E3,3.283E3,7.295E3,4.731E3,1.905E3,1.27E2,3.156E3,2.851E3,4.444E3,2.116E3,2.615E3,1.704E3,2.01E2],"tree_param":{"num_deleted":"0","num_feature":"4","num_nodes":"15","size_leaf_vector":"0"}},{"base_weights":[7.462653E-1,6.4544106E-1,9.17442E-1,4.6918607E-1,6.831783E-1,8.2725346E-1,9.866486E-1,1.3725352E-1,4.9009886E-1,6.1375E-1,7.265922E-1,7.811527E-1,1.0733436E0,9.726082E-1,1.3485605E0],"categories":[],"categories_nodes":[],"categories_segments":[],"categories_sizes":[],"default_left":[1,0,1,0,1,1,1,0,0,0,0,0,0,0,0],"id":56,"left_children":[1,3,5,7,9,11,13,-1,-1,-1,-1,-1,-1,-1,-1],"loss_changes":[2.9429102E2,7.122168E1,3.869922E1,1.3121826E1,2.6250977E1,3.041687E1,1.6864502E1,0E0,0E0,0E0,0E0,0E0,0E0,0E0,0E0],"parents":[2147483647,0,0,1,1,2,2,3,3,4,4,5,5,6,6],"right_children":[2,4,6,8,10,12,14,-1,-1,-1,-1,-1,-1,-1,-1],"split_conditions":[4.1657257E0,5.3900003E0,5E-1,2.475E0,5E-1,8.985811E0,9.764746E0,6.8626762E-3,2.4504943E-2,3.06875E-2,3.632961E-2,3.905764E-2,5.3667184E-2,4.8630413E-2,6.742802E-2],"split_indices":[0,2,1,2,1,0,0,0,0,0,0,0,0,0,0],"split_type":[0,0,0,0,0,0,0,0,0,0,0,0,0,0,0],"sum_hessian":[1.7085E4,1.0755E4,6.33E3,1.899E3,8.856E3,2.754E3,3.576E3,1.13E2,1.786E3,3.413E3,5.443E3,2.323E3,4.31E2,3.446E3,1.3E2],"tree_param":{"num_deleted":"0","num_feature":"4","num_nodes":"15","size_leaf_vector":"0"}},{"base_weights":[7.1490467E-1,6.026641E-1,8.4878075E-1,4.471504E-1,6.4378595E-1,8.094534E-1,9.79661E-1,1.05527304E-1,4.6703482E-1,6.382382E-1,1.2936856E0,7.283371E-1,8.6976933E-1,9.509265E-1,1.194532E0],"categories":[],"categories_nodes":[],"categories_segments":[],"categories_sizes":[],"default_left":[1,1,0,1,1,1,0,0,0,0,0,0,0,0,0],"id":57,"left_children":[1,3,5,7,9,11,13,-1,-1,-1,-1,-1,-1,-1,-1],"loss_changes":[2.5522168E2,5.893628E1,3.9144043E1,1.312915E1,2.557373E1,2.8585205E1,9.903442E0,0E0,0E0,0E0,0E0,0E0,0E0,0E0,0E0],"parents":[2147483647,0,0,1,1,2,2,3,3,4,4,5,5,6,6],"right_children":[2,4,6,8,10,12,14,-1,-1,-1,-1,-1,-1,-1,-1],"split_conditions":[1.4434999E1,2.4504268E-1,2.6775E1,2.225E0,4.9843597E0,5E-1,3.9975E1,5.276365E-3,2.3351742E-2,3.191191E-2,6.468428E-2,3.6416855E-2,4.348847E-2,4.7546323E-2,5.9726603E-2],"split_indices":[2,0,2,2,0,1,2,0,0,0,0,0,0,0,0],"split_type":[0,0,0,0,0,0,0,0,0,0,0,0,0,0,0],"sum_hessian":[1.7018E4,9.26E3,7.758E3,1.939E3,7.321E3,5.971E3,1.787E3,1.07E2,1.832E3,7.261E3,6E1,2.552E3,3.419E3,1.581E3,2.06E2],"tree_param":{"num_deleted":"0","num_feature":"4","num_nodes":"15","size_leaf_vector":"0"}},{"base_weights":[6.791696E-1,5.8045274E-1,8.150975E-1,4.6383637E-1,6.361845E-1,7.7056986E-1,9.3930656E-1,1.7988332E-1,4.8086667E-1,-6.7152823E-3,6.3907796E-1,7.1720827E-1,8.219207E-1,8.787835E-1,1.0530638E0],"categories":[],"categories_nodes":[],"categories_segments":[],"categories_sizes":[],"default_left":[1,1,0,0,1,1,1,0,0,0,0,0,0,0,0],"id":58,"left_children":[1,3,5,7,9,11,13,-1,-1,-1,-1,-1,-1,-1,-1],"loss_changes":[2.288335E2,6.406665E1,3.902588E1,1.5417114E1,1.2464355E1,1.3922363E1,1.210083E1,0E0,0E0,0E0,0E0,0E0,0E0,0E0,0E0],"parents":[2147483647,0,0,1,1,2,2,3,3,4,4,5,5,6,6],"right_children":[2,4,6,8,10,12,14,-1,-1,-1,-1,-1,-1,-1,-1],"split_conditions":[3.5770755E0,6.595E1,2.6775E1,2.725E0,2.3546E-1,1.11350006E2,9.154192E0,8.994166E-3,2.4043335E-2,-3.357641E-4,3.1953897E-2,3.5860416E-2,4.1096035E-2,4.3939177E-2,5.265319E-2],"split_indices":[0,3,2,2,0,3,0,0,0,0,0,0,0,0,0],"split_type":[0,0,0,0,0,0,0,0,0,0,0,0,0,0,0],"sum_hessian":[1.7088E4,9.902E3,7.186E3,3.205E3,6.697E3,5.295E3,1.891E3,1.82E2,3.023E3,3E1,6.667E3,2.604E3,2.691E3,1.24E3,6.51E2],"tree_param":{"num_deleted":"0","num_feature":"4","num_nodes":"15","size_leaf_vector":"0"}},{"base_weights":[6.4092654E-1,5.2247006E-1,7.453466E-1,5.147914E-1,1.0658325E0,6.9881076E-1,8.5927284E-1,4.1415092E-1,5.4718363E-1,9.380442E-1,1.812622E0,6.363915E-1,7.441161E-1,7.568229E-1,9.290454E-1],"categories":[],"categories_nodes":[],"categories_segments":[],"categories_sizes":[],"default_left":[1,1,0,1,1,1,1,0,0,0,0,0,0,0,0],"id":59,"left_children":[1,3,5,7,9,11,13,-1,-1,-1,-1,-1,-1,-1,-1],"loss_changes":[2.0970215E2,3.2666992E1,4.7246582E1,2.5370361E1,8.797096E0,1.7661865E1,1.7974976E1,0E0,0E0,0E0,0E0,0E0,0E0,0E0,0E0],"parents":[2147483647,0,0,1,1,2,2,3,3,4,4,5,5,6,6],"right_children":[2,4,6,8,10,12,14,-1,-1,-1,-1,-1,-1,-1,-1],"split_conditions":[8.905E1,6.376585E0,1.21149994E2,2.4230477E-1,9.360904E0,5E-1,5E-1,2.0707546E-2,2.7359182E-2,4.690221E-2,9.06311E-2,3.181958E-2,3.7205808E-2,3.7841145E-2,4.645227E-2],"split_indices":[3,0,3,0,0,1,1,0,0,0,0,0,0,0,0],"split_type":[0,0,0,0,0,0,0,0,0,0,0,0,0,0,0],"sum_hessian":[1.6984E4,7.96E3,9.024E3,7.851E3,1.09E2,6.412E3,2.612E3,1.915E3,5.936E3,9.5E1,1.4E1,2.703E3,3.709E3,1.063E3,1.549E3],"tree_param":{"num_deleted":"0","num_feature":"4","num_nodes":"15","size_leaf_vector":"0"}},{"base_weights":[6.056051E-1,4.7332013E-1,6.892067E-1,3.075666E-1,4.933705E-1,6.412189E-1,7.8798103E-1,-4.9339958E-2,3.4077916E-1,4.4120872E-1,5.2819717E-1,1.3911839E-1,6.4521354E-1,6.9953036E-1,8.50413E-1],"categories":[],"categories_nodes":[],"categories_segments":[],"categories_sizes":[],"default_left":[0,0,0,1,1,0,1,0,0,0,0,0,0,0,0],"id":60,"left_children":[1,3,5,7,9,11,13,-1,-1,-1,-1,-1,-1,-1,-1],"loss_changes":[1.8889746E2,2.1879028E1,4.917871E1,8.527824E0,1.0506836E1,1.4070557E1,1.8307617E1,0E0,0E0,0E0,0E0,0E0,0E0,0E0,0E0],"parents":[2147483647,0,0,1,1,2,2,3,3,4,4,5,5,6,6],"right_children":[2,4,6,8,10,12,14,-1,-1,-1,-1,-1,-1,-1,-1],"split_conditions":[1.1375E1,3.505E0,1.1845E2,4.325E1,5E-1,5.735E1,5E-1,-2.4669978E-3,1.7038958E-2,2.2060437E-2,2.6409859E-2,6.9559193E-3,3.226068E-2,3.497652E-2,4.2520653E-2],"split_indices":[2,2,3,3,1,3,1,0,0,0,0,0,0,0,0],"split_type":[0,0,0,0,0,0,0,0,0,0,0,0,0,0,0],"sum_hessian":[1.7109E4,6.628E3,1.0481E4,7.17E2,5.911E3,7.059E3,3.422E3,6.1E1,6.56E2,2.372E3,3.539E3,5.6E1,7.003E3,1.421E3,2.001E3],"tree_param":{"num_deleted":"0","num_feature":"4","num_nodes":"15","size_leaf_vector":"0"}},{"base_weights":[5.81096E-1,4.409026E-1,6.550116E-1,8.7285854E-2,4.4936392E-1,5.9961396E-1,7.291673E-1,1.9567752E-1,-2.4038301E-1,3.888388E-1,4.8133263E-1,5.342946E-1,6.4576685E-1,6.503606E-1,7.8775316E-1],"categories":[],"categories_nodes":[],"categories_segments":[],"categories_sizes":[],"default_left":[1,1,0,0,1,1,1,0,0,0,0,0,0,0,0],"id":61,"left_children":[1,3,5,7,9,11,13,-1,-1,-1,-1,-1,-1,-1,-1],"loss_changes":[1.7656787E2,1.7598999E1,4.5461914E1,4.983841E0,1.0952148E1,1.8951904E1,2.1524414E1,0E0,0E0,0E0,0E0,0E0,0E0,0E0,0E0],"parents":[2147483647,0,0,1,1,2,2,3,3,4,4,5,5,6,6],"right_children":[2,4,6,8,10,12,14,-1,-1,-1,-1,-1,-1,-1,-1],"split_conditions":[1.3210402E0,9.582674E-3,1.11649994E2,5.175E1,5.915E1,5E-1,5E-1,9.783876E-3,-1.2019151E-2,1.944194E-2,2.4066633E-2,2.6714731E-2,3.2288343E-2,3.251803E-2,3.938766E-2],"split_indices":[0,0,3,3,3,1,1,0,0,0,0,0,0,0,0],"split_type":[0,0,0,0,0,0,0,0,0,0,0,0,0,0,0],"sum_hessian":[1.7066E4,5.894E3,1.1172E4,1.38E2,5.756E3,6.4E3,4.772E3,1.04E2,3.4E1,1.994E3,3.762E3,2.655E3,3.745E3,2.04E3,2.732E3],"tree_param":{"num_deleted":"0","num_feature":"4","num_nodes":"15","size_leaf_vector":"0"}},{"base_weights":[5.5121493E-1,4.71688E-1,6.8481463E-1,3.7218127E-1,5.1296055E-1,6.498077E-1,8.021631E-1,-3.8079675E-2,3.819586E-1,4.5187575E-1,5.5146307E-1,5.747939E-1,7.084368E-1,7.5808847E-1,1.1070049E0],"categories":[],"categories_nodes":[],"categories_segments":[],"categories_sizes":[],"default_left":[1,1,1,0,1,1,0,0,0,0,0,0,0,0,0],"id":62,"left_children":[1,3,5,7,9,11,13,-1,-1,-1,-1,-1,-1,-1,-1],"loss_changes":[1.809458E2,4.374463E1,2.562207E1,1.2609924E1,1.752893E1,2.1173828E1,1.8750244E1,0E0,0E0,0E0,0E0,0E0,0E0,0E0,0E0],"parents":[2147483647,0,0,1,1,2,2,3,3,4,4,5,5,6,6],"right_children":[2,4,6,8,10,12,14,-1,-1,-1,-1,-1,-1,-1,-1],"split_conditions":[4.1575117E0,6.525E1,8.313654E0,4.46E1,5E-1,5E-1,1.4195E2,-1.9039838E-3,1.909793E-2,2.2593787E-2,2.7573153E-2,2.8739695E-2,3.542184E-2,3.7904423E-2,5.5350244E-2],"split_indices":[0,3,0,3,1,1,3,0,0,0,0,0,0,0,0],"split_type":[0,0,0,0,0,0,0,0,0,0,0,0,0,0,0],"sum_hessian":[1.706E4,1.0697E4,6.363E3,3.139E3,7.558E3,4.906E3,1.457E3,7.3E1,3.066E3,2.927E3,4.631E3,2.157E3,2.749E3,1.276E3,1.81E2],"tree_param":{"num_deleted":"0","num_feature":"4","num_nodes":"15","size_leaf_vector":"0"}},{"base_weights":[5.2162737E-1,3.9532593E-1,5.8885247E-1,8.212892E-2,4.0519413E-1,5.416176E-1,6.684509E-1,-1.0141905E-1,2.4590772E-1,3.660664E-1,4.327694E-1,4.8791194E-1,5.7622707E-1,5.997779E-1,7.1939373E-1],"categories":[],"categories_nodes":[],"categories_segments":[],"categories_sizes":[],"default_left":[0,0,0,1,1,1,1,0,0,0,0,0,0,0,0],"id":63,"left_children":[1,3,5,7,9,11,13,-1,-1,-1,-1,-1,-1,-1,-1],"loss_changes":[1.4512695E2,1.8356323E1,4.1638916E1,5.5261517E0,6.0650024E0,1.2759766E1,1.4107666E1,0E0,0E0,0E0,0E0,0E0,0E0,0E0,0E0],"parents":[2147483647,0,0,1,1,2,2,3,3,4,4,5,5,6,6],"right_children":[2,4,6,8,10,12,14,-1,-1,-1,-1,-1,-1,-1,-1],"split_conditions":[1.0674999E1,2.7150002E0,1.1475E2,4.525E1,5E-1,5E-1,5E-1,-5.0709522E-3,1.2295387E-2,1.830332E-2,2.163847E-2,2.4395598E-2,2.8811354E-2,2.9988894E-2,3.5969686E-2],"split_indices":[2,2,3,3,1,1,1,0,0,0,0,0,0,0,0],"split_type":[0,0,0,0,0,0,0,0,0,0,0,0,0,0,0],"sum_hessian":[1.7119E4,5.949E3,1.117E4,1.82E2,5.767E3,7.015E3,4.155E3,8.6E1,9.6E1,2.39E3,3.377E3,2.755E3,4.26E3,1.775E3,2.38E3],"tree_param":{"num_deleted":"0","num_feature":"4","num_nodes":"15","size_leaf_vector":"0"}},{"base_weights":[4.9493444E-1,3.830361E-1,5.654252E-1,2.513128E-1,4.040769E-1,5.4178655E-1,7.007854E-1,-4.7657683E-2,2.88236E-1,3.4191772E-1,4.188983E-1,5.9477057E-2,5.452689E-1,6.571433E-1,1.0139275E0],"categories":[],"categories_nodes":[],"categories_segments":[],"categories_sizes":[],"default_left":[0,0,1,1,1,0,0,0,0,0,0,0,0,0,0],"id":64,"left_children":[1,3,5,7,9,11,13,-1,-1,-1,-1,-1,-1,-1,-1],"loss_changes":[1.3431738E2,1.817688E1,3.309619E1,1.00702095E1,5.0942993E0,1.4934326E1,2.054364E1,0E0,0E0,0E0,0E0,0E0,0E0,0E0,0E0],"parents":[2147483647,0,0,1,1,2,2,3,3,4,4,5,5,6,6],"right_children":[2,4,6,8,10,12,14,-1,-1,-1,-1,-1,-1,-1,-1],"split_conditions":[1.1375E1,3.8850002E0,8.24247E0,4.46E1,2.4230477E-1,5.825E1,1.4185E2,-2.3828843E-3,1.44118E-2,1.7095886E-2,2.0944916E-2,2.973853E-3,2.7263446E-2,3.2857165E-2,5.0696373E-2],"split_indices":[2,2,0,3,0,3,3,0,0,0,0,0,0,0,0],"split_type":[0,0,0,0,0,0,0,0,0,0,0,0,0,0,0],"sum_hessian":[1.7055E4,6.594E3,1.0461E4,9.1E2,5.684E3,8.91E3,1.551E3,1E2,8.1E2,1.099E3,4.585E3,6.4E1,8.846E3,1.364E3,1.87E2],"tree_param":{"num_deleted":"0","num_feature":"4","num_nodes":"15","size_leaf_vector":"0"}},{"base_weights":[4.756097E-1,3.8510916E-1,5.618079E-1,3.340761E-1,4.327549E-1,4.9931094E-1,6.076135E-1,-1.3950853E-1,3.3802694E-1,-1.1606444E-1,4.4015154E-1,4.7472313E-1,6.8470037E-1,5.619354E-1,6.911431E-1],"categories":[],"categories_nodes":[],"categories_segments":[],"categories_sizes":[],"default_left":[1,0,1,0,0,0,0,0,0,0,0,0,0,0,0],"id":65,"left_children":[1,3,5,7,9,11,13,-1,-1,-1,-1,-1,-1,-1,-1],"loss_changes":[1.3286084E2,2.0097778E1,2.4702393E1,7.576294E0,1.751477E1,1.6540771E1,1.8826172E1,0E0,0E0,0E0,0E0,0E0,0E0,0E0,0E0],"parents":[2147483647,0,0,1,1,2,2,3,3,4,4,5,5,6,6],"right_children":[2,4,6,8,10,12,14,-1,-1,-1,-1,-1,-1,-1,-1],"split_conditions":[9.045E1,7.295E1,5E-1,2.1149998E0,4.7650003E0,3.0525E1,1.19350006E2,-6.975427E-3,1.6901348E-2,-5.803222E-3,2.2007577E-2,2.3736157E-2,3.423502E-2,2.809677E-2,3.4557156E-2],"split_indices":[3,3,1,2,2,2,3,0,0,0,0,0,0,0,0],"split_type":[0,0,0,0,0,0,0,0,0,0,0,0,0,0,0],"sum_hessian":[1.7058E4,8.324E3,8.734E3,4.023E3,4.301E3,3.699E3,5.035E3,3.3E1,3.99E3,5.7E1,4.244E3,3.269E3,4.3E2,3.26E3,1.775E3],"tree_param":{"num_deleted":"0","num_feature":"4","num_nodes":"15","size_leaf_vector":"0"}},{"base_weights":[4.459675E-1,3.712186E-1,5.312458E-1,3.688869E-1,1.6662925E0,5.147323E-1,6.701524E-1,2.9403567E-1,3.933475E-1,1.9585103E0,6.317116E-1,3.738432E-1,5.202702E-1,6.2375563E-1,8.619516E-1],"categories":[],"categories_nodes":[],"categories_segments":[],"categories_sizes":[],"default_left":[1,1,0,1,1,0,1,0,0,0,0,0,0,0,0],"id":66,"left_children":[1,3,5,7,9,11,13,-1,-1,-1,-1,-1,-1,-1,-1],"loss_changes":[1.081499E2,2.6746704E1,1.7861084E1,1.6446777E1,3.5999527E0,5.343628E0,6.937378E0,0E0,0E0,0E0,0E0,0E0,0E0,0E0,0E0],"parents":[2147483647,0,0,1,1,2,2,3,3,4,4,5,5,6,6],"right_children":[2,4,6,8,10,12,14,-1,-1,-1,-1,-1,-1,-1,-1],"split_conditions":[9.3850006E1,9.374594E0,3.2324997E1,2.915871E-1,9.923544E0,1.3755E1,9.755163E0,1.4701784E-2,1.9667376E-2,9.7925514E-2,3.158558E-2,1.869216E-2,2.6013512E-2,3.1187782E-2,4.309758E-2],"split_indices":[3,0,2,0,0,2,0,0,0,0,0,0,0,0,0],"split_type":[0,0,0,0,0,0,0,0,0,0,0,0,0,0,0],"sum_hessian":[1.6996E4,9.06E3,7.936E3,9.045E3,1.5E1,7.097E3,8.39E2,2.231E3,6.814E3,1.1E1,4E0,2.71E2,6.826E3,6.79E2,1.6E2],"tree_param":{"num_deleted":"0","num_feature":"4","num_nodes":"15","size_leaf_vector":"0"}},{"base_weights":[4.353234E-1,3.4249005E-1,5.0661224E-1,3.097596E-1,3.9669076E-1,4.6092242E-1,5.683377E-1,1.8888944E-1,3.2355192E-1,4.0348879E-1,1.4897877E-1,-5.5147633E-2,4.637392E-1,5.573289E-1,7.460813E-1],"categories":[],"categories_nodes":[],"categories_segments":[],"categories_sizes":[],"default_left":[0,0,0,1,0,0,1,0,0,0,0,0,0,0,0],"id":67,"left_children":[1,3,5,7,9,11,13,-1,-1,-1,-1,-1,-1,-1,-1],"loss_changes":[1.12663086E2,1.3020752E1,2.6930664E1,7.6474915E0,4.631378E0,8.087402E0,7.600952E0,0E0,0E0,0E0,0E0,0E0,0E0,0E0,0E0],"parents":[2147483647,0,0,1,1,2,2,3,3,4,4,5,5,6,6],"right_children":[2,4,6,8,10,12,14,-1,-1,-1,-1,-1,-1,-1,-1],"split_conditions":[1.2295E1,9.424999E0,1.1475E2,4.895E1,1.218E1,5.46E1,9.764746E0,9.444472E-3,1.6177597E-2,2.017444E-2,7.4489387E-3,-2.7573816E-3,2.318696E-2,2.7866444E-2,3.7304066E-2],"split_indices":[2,2,3,3,2,3,0,0,0,0,0,0,0,0,0],"split_type":[0,0,0,0,0,0,0,0,0,0,0,0,0,0,0],"sum_hessian":[1.7049E4,7.408E3,9.641E3,4.623E3,2.785E3,5.545E3,4.096E3,4.75E2,4.148E3,2.71E3,7.5E1,3E1,5.515E3,3.861E3,2.35E2],"tree_param":{"num_deleted":"0","num_feature":"4","num_nodes":"15","size_leaf_vector":"0"}},{"base_weights":[4.0024596E-1,3.1260893E-1,4.6828642E-1,2.3174761E-1,3.3600333E-1,4.529597E-1,6.237538E-1,2.890706E-1,1.7695169E-1,2.76585E-1,3.7528026E-1,3.9581743E-1,4.9347815E-1,1.4299507E0,5.9989184E-1],"categories":[],"categories_nodes":[],"categories_segments":[],"categories_sizes":[],"default_left":[0,0,1,1,1,1,1,0,0,0,0,0,0,0,0],"id":68,"left_children":[1,3,5,7,9,11,13,-1,-1,-1,-1,-1,-1,-1,-1],"loss_changes":[1.0169922E2,1.4049438E1,2.2623291E1,5.2226944E0,1.3408691E1,2.0072998E1,1.5686432E1,0E0,0E0,0E0,0E0,0E0,0E0,0E0,0E0],"parents":[2147483647,0,0,1,1,2,2,3,3,4,4,5,5,6,6],"right_children":[2,4,6,8,10,12,14,-1,-1,-1,-1,-1,-1,-1,-1],"split_conditions":[8.895E1,5.755E1,9.061104E0,1.24574766E-1,5E-1,5E-1,1.1795E2,1.445353E-2,8.847585E-3,1.3829251E-2,1.8764013E-2,1.9790871E-2,2.4673907E-2,7.149754E-2,2.9994592E-2],"split_indices":[3,3,0,0,1,1,3,0,0,0,0,0,0,0,0],"split_type":[0,0,0,0,0,0,0,0,0,0,0,0,0,0,0],"sum_hessian":[1.7079E4,7.467E3,9.612E3,1.678E3,5.789E3,8.753E3,8.59E2,8.18E2,8.6E2,2.307E3,3.482E3,3.636E3,5.117E3,2.3E1,8.36E2],"tree_param":{"num_deleted":"0","num_feature":"4","num_nodes":"15","size_leaf_vector":"0"}},{"base_weights":[3.8117966E-1,3.2417828E-1,4.7604263E-1,2.8399318E-1,3.697401E-1,4.3052363E-1,5.4051286E-1,-6.635564E-2,2.8843588E-1,2.913602E-1,4.1239625E-1,4.3382704E-1,4.4614794E-3,5.2034575E-1,7.383831E-1],"categories":[],"categories_nodes":[],"categories_segments":[],"categories_sizes":[],"default_left":[1,1,1,0,1,1,1,0,0,0,0,0,0,0,0],"id":69,"left_children":[1,3,5,7,9,11,13,-1,-1,-1,-1,-1,-1,-1,-1],"loss_changes":[9.2365234E1,1.9469238E1,1.8607544E1,8.867737E0,1.6620117E1,5.3013916E0,1.0202515E1,0E0,0E0,0E0,0E0,0E0,0E0,0E0,0E0],"parents":[2147483647,0,0,1,1,2,2,3,3,4,4,5,5,6,6],"right_children":[2,4,6,8,10,12,14,-1,-1,-1,-1,-1,-1,-1,-1],"split_conditions":[4.143822E0,1.0275E1,7.013149E0,2.315E0,5E-1,6.9830317E0,9.764746E0,-3.317782E-3,1.4421794E-2,1.456801E-2,2.0619813E-2,2.1691352E-2,2.2307398E-4,2.6017288E-2,3.6919158E-2],"split_indices":[0,2,0,2,1,0,0,0,0,0,0,0,0,0,0],"split_type":[0,0,0,0,0,0,0,0,0,0,0,0,0,0,0],"sum_hessian":[1.7109E4,1.069E4,6.419E3,5.684E3,5.006E3,3.767E3,2.652E3,7.1E1,5.613E3,1.767E3,3.239E3,3.738E3,2.9E1,2.41E3,2.42E2],"tree_param":{"num_deleted":"0","num_feature":"4","num_nodes":"15","size_leaf_vector":"0"}},{"base_weights":[3.588807E-1,2.770165E-1,4.134805E-1,2.0717347E-1,3.048566E-1,3.6363888E-1,4.5029193E-1,1.0042614E-1,2.2705396E-1,2.6266152E-1,3.3102846E-1,3.380651E-1,5.075172E-1,4.4285372E-1,7.580535E-1],"categories":[],"categories_nodes":[],"categories_segments":[],"categories_sizes":[],"default_left":[1,1,1,1,1,1,1,0,0,0,0,0,0,0,0],"id":70,"left_children":[1,3,5,7,9,11,13,-1,-1,-1,-1,-1,-1,-1,-1],"loss_changes":[7.592944E1,1.3178528E1,1.8557983E1,4.1027374E0,5.287781E0,1.5797546E1,1.3090454E1,0E0,0E0,0E0,0E0,0E0,0E0,0E0,0E0],"parents":[2147483647,0,0,1,1,2,2,3,3,4,4,5,5,6,6],"right_children":[2,4,6,8,10,12,14,-1,-1,-1,-1,-1,-1,-1,-1],"split_conditions":[1.7043471E0,5.795E1,5E-1,4.53E1,5E-1,8.313654E0,9.742842E0,5.021307E-3,1.1352698E-2,1.3133076E-2,1.6551424E-2,1.6903255E-2,2.5375862E-2,2.2142686E-2,3.7902676E-2],"split_indices":[0,3,1,3,1,0,0,0,0,0,0,0,0,0,0],"split_type":[0,0,0,0,0,0,0,0,0,0,0,0,0,0,0],"sum_hessian":[1.7012E4,6.809E3,1.0203E4,1.943E3,4.866E3,4.339E3,5.864E3,3.06E2,1.637E3,1.867E3,2.999E3,3.687E3,6.52E2,5.728E3,1.36E2],"tree_param":{"num_deleted":"0","num_feature":"4","num_nodes":"15","size_leaf_vector":"0"}},{"base_weights":[3.5006765E-1,2.5552467E-1,3.9952987E-1,-4.0388554E-2,2.6173604E-1,3.689014E-1,4.795552E-1,1.3125491E-1,-2.2589353E-1,1.3720102E-2,2.6771945E-1,3.1772462E-1,4.0481493E-1,4.7164848E-1,9.641802E-1],"categories":[],"categories_nodes":[],"categories_segments":[],"categories_sizes":[],"default_left":[1,1,1,0,0,1,0,0,0,0,0,0,0,0,0],"id":71,"left_children":[1,3,5,7,9,11,13,-1,-1,-1,-1,-1,-1,-1,-1],"loss_changes":[8.007788E1,1.08402405E1,2.7409912E1,3.9142172E0,8.560364E0,1.4839478E1,1.1469788E1,0E0,0E0,0E0,0E0,0E0,0E0,0E0,0E0],"parents":[2147483647,0,0,1,1,2,2,3,3,4,4,5,5,6,6],"right_children":[2,4,6,8,10,12,14,-1,-1,-1,-1,-1,-1,-1,-1],"split_conditions":[1.3210402E0,9.582674E-3,6.602463E0,2.975E0,2.745E0,5E-1,4.75E1,6.5627457E-3,-1.1294677E-2,6.860051E-4,1.3385973E-2,1.588623E-2,2.0240746E-2,2.3582425E-2,4.8209008E-2],"split_indices":[0,0,0,2,2,1,2,0,0,0,0,0,0,0,0],"split_type":[0,0,0,0,0,0,0,0,0,0,0,0,0,0,0],"sum_hessian":[1.7145E4,5.891E3,1.1254E4,1.21E2,5.77E3,8.143E3,3.111E3,6.3E1,5.8E1,1.36E2,5.634E3,3.362E3,4.781E3,3.063E3,4.8E1],"tree_param":{"num_deleted":"0","num_feature":"4","num_nodes":"15","size_leaf_vector":"0"}},{"base_weights":[3.3183235E-1,2.8154218E-1,4.0948826E-1,2.1198075E-1,2.9949012E-1,3.572038E-1,4.4856402E-1,-5.4545093E-2,2.2529449E-1,2.584951E-1,3.2700095E-1,3.397889E-1,5.4584044E-1,1.5335489E-2,4.5463753E-1],"categories":[],"categories_nodes":[],"categories_segments":[],"categories_sizes":[],"default_left":[0,1,1,1,1,1,1,0,0,0,0,0,0,0,0],"id":72,"left_children":[1,3,5,7,9,11,13,-1,-1,-1,-1,-1,-1,-1,-1],"loss_changes":[6.6486084E1,1.2863403E1,1.3530273E1,7.55986E0,9.195068E0,9.246033E0,1.0073242E1,0E0,0E0,0E0,0E0,0E0,0E0,0E0,0E0],"parents":[2147483647,0,0,1,1,2,2,3,3,4,4,5,5,6,6],"right_children":[2,4,6,8,10,12,14,-1,-1,-1,-1,-1,-1,-1,-1],"split_conditions":[1.631E1,2.861113E-1,5E-1,6.8447674E-3,5E-1,3.3725E1,3.4086943E-1,-2.7272548E-3,1.1264725E-2,1.2924755E-2,1.6350048E-2,1.6989445E-2,2.7292022E-2,7.6677446E-4,2.2731876E-2],"split_indices":[2,0,1,0,1,2,0,0,0,0,0,0,0,0,0],"split_type":[0,0,0,0,0,0,0,0,0,0,0,0,0,0,0],"sum_hessian":[1.7053E4,1.0353E4,6.7E3,2.126E3,8.227E3,2.87E3,3.83E3,1.01E2,2.025E3,3.308E3,4.919E3,2.63E3,2.4E2,5.3E1,3.777E3],"tree_param":{"num_deleted":"0","num_feature":"4","num_nodes":"15","size_leaf_vector":"0"}},{"base_weights":[3.159814E-1,2.6170966E-1,3.8305613E-1,1.6467158E-1,2.76376E-1,3.523498E-1,4.3991512E-1,-1.5699035E-1,1.8529119E-1,1.9295207E-1,2.824623E-1,-9.525653E-2,3.5731825E-1,4.3303192E-1,1.2102607E0],"categories":[],"categories_nodes":[],"categories_segments":[],"categories_sizes":[],"default_left":[0,0,1,1,1,0,0,0,0,0,0,0,0,0,0],"id":73,"left_children":[1,3,5,7,9,11,13,-1,-1,-1,-1,-1,-1,-1,-1],"loss_changes":[6.1751465E1,1.3325378E1,1.3108887E1,8.22691E0,4.088684E0,1.1015808E1,1.3580383E1,0E0,0E0,0E0,0E0,0E0,0E0,0E0,0E0],"parents":[2147483647,0,0,1,1,2,2,3,3,4,4,5,5,6,6],"right_children":[2,4,6,8,10,12,14,-1,-1,-1,-1,-1,-1,-1,-1],"split_conditions":[1.4975E1,4.395E0,7.013149E0,4.325E1,1.9028454E-1,5.735E1,5.1025E1,-7.849517E-3,9.2645595E-3,9.647603E-3,1.4123115E-2,-4.7628265E-3,1.7865913E-2,2.1651596E-2,6.051304E-2],"split_indices":[2,2,0,3,0,3,2,0,0,0,0,0,0,0,0],"split_type":[0,0,0,0,0,0,0,0,0,0,0,0,0,0,0],"sum_hessian":[1.699E4,9.394E3,7.596E3,1.235E3,8.159E3,4.937E3,2.659E3,7.4E1,1.161E3,5.57E2,7.602E3,5.4E1,4.883E3,2.637E3,2.2E1],"tree_param":{"num_deleted":"0","num_feature":"4","num_nodes":"15","size_leaf_vector":"0"}},{"base_weights":[2.9684702E-1,2.5111035E-1,3.7021053E-1,2.0217703E-1,2.8545913E-1,3.587426E-1,5.578672E-1,1.4207046E-1,2.2545631E-1,2.4531573E-1,3.0938226E-1,3.1720728E-1,3.9102167E-1,-4.5323944E-1,5.6721455E-1],"categories":[],"categories_nodes":[],"categories_segments":[],"categories_sizes":[],"default_left":[1,1,1,1,1,1,1,0,0,0,0,0,0,0,0],"id":74,"left_children":[1,3,5,7,9,11,13,-1,-1,-1,-1,-1,-1,-1,-1],"loss_changes":[5.7244263E1,1.7639404E1,1.3917175E1,6.049057E0,5.8629456E0,8.168335E0,3.8107224E0,0E0,0E0,0E0,0E0,0E0,0E0,0E0,0E0],"parents":[2147483647,0,0,1,1,2,2,3,3,4,4,5,5,6,6],"right_children":[2,4,6,8,10,12,14,-1,-1,-1,-1,-1,-1,-1,-1],"split_conditions":[4.0397816E0,7.2850006E1,1.3805E2,5.255E1,5E-1,5E-1,8.095991E0,7.103523E-3,1.1272816E-2,1.22657865E-2,1.5469113E-2,1.5860364E-2,1.9551083E-2,-2.2661973E-2,2.8360728E-2],"split_indices":[0,3,3,3,1,1,0,0,0,0,0,0,0,0,0],"split_type":[0,0,0,0,0,0,0,0,0,0,0,0,0,0,0],"sum_hessian":[1.7087E4,1.0528E4,6.559E3,4.345E3,6.183E3,6.184E3,3.75E2,1.215E3,3.13E3,2.313E3,3.87E3,2.709E3,3.475E3,3E0,3.72E2],"tree_param":{"num_deleted":"0","num_feature":"4","num_nodes":"15","size_leaf_vector":"0"}},{"base_weights":[2.835474E-1,2.3937894E-1,3.4662998E-1,1.8735443E-1,2.6207188E-1,3.397402E-1,5.51342E-1,-3.7692028E-1,1.9064039E-1,-9.14417E-2,2.639167E-1,-9.667593E-2,3.428593E-1,9.616267E-2,6.571928E-1],"categories":[],"categories_nodes":[],"categories_segments":[],"categories_sizes":[],"default_left":[0,1,1,0,1,1,0,0,0,0,0,0,0,0,0],"id":75,"left_children":[1,3,5,7,9,11,13,-1,-1,-1,-1,-1,-1,-1,-1],"loss_changes":[4.743396E1,1.1796875E1,9.715271E0,5.7289658E0,4.578949E0,9.282654E0,1.0873909E1,0E0,0E0,0E0,0E0,0E0,0E0,0E0,0E0],"parents":[2147483647,0,0,1,1,2,2,3,3,4,4,5,5,6,6],"right_children":[2,4,6,8,10,12,14,-1,-1,-1,-1,-1,-1,-1,-1],"split_conditions":[1.5835E1,6.5350006E1,9.772959E0,1.99E0,2.5599432E-1,2.1081884E-1,1.3229999E2,-1.8846015E-2,9.5320195E-3,-4.572085E-3,1.3195835E-2,-4.8337965E-3,1.7142965E-2,4.8081335E-3,3.2859642E-2],"split_indices":[2,3,0,2,0,0,3,0,0,0,0,0,0,0,0],"split_type":[0,0,0,0,0,0,0,0,0,0,0,0,0,0,0],"sum_hessian":[1.7053E4,1.0033E4,7.02E3,3.05E3,6.983E3,6.794E3,2.26E2,1.7E1,3.033E3,3.6E1,6.947E3,4.8E1,6.746E3,4.3E1,1.83E2],"tree_param":{"num_deleted":"0","num_feature":"4","num_nodes":"15","size_leaf_vector":"0"}},{"base_weights":[2.7018958E-1,1.9975977E-1,3.067114E-1,1.9666953E-3,2.0785558E-1,3.0062333E-1,5.717507E-1,-2.0686112E-1,6.530791E-2,-1.23522244E-1,2.1199767E-1,2.84437E-1,3.5582182E-1,6.713376E-1,3.6819372E-1],"categories":[],"categories_nodes":[],"categories_segments":[],"categories_sizes":[],"default_left":[1,0,0,0,1,1,1,0,0,0,0,0,0,0,0],"id":76,"left_children":[1,3,5,7,9,11,13,-1,-1,-1,-1,-1,-1,-1,-1],"loss_changes":[4.397534E1,9.365601E0,1.8016357E1,3.0690405E0,7.7388153E0,9.745605E0,4.8612595E0,0E0,0E0,0E0,0E0,0E0,0E0,0E0,0E0],"parents":[2147483647,0,0,1,1,2,2,3,3,4,4,5,5,6,6],"right_children":[2,4,6,8,10,12,14,-1,-1,-1,-1,-1,-1,-1,-1],"split_conditions":[1.2909231E0,2.8249998E0,4.1725E1,2.2150002E0,6.8447674E-3,7.0213623E0,4.385E1,-1.0343056E-2,3.2653955E-3,-6.176112E-3,1.0599884E-2,1.422185E-2,1.779109E-2,3.356688E-2,1.8409686E-2],"split_indices":[0,2,2,2,0,0,2,0,0,0,0,0,0,0,0],"split_type":[0,0,0,0,0,0,0,0,0,0,0,0,0,0,0],"sum_hessian":[1.7119E4,5.848E3,1.1271E4,2.3E2,5.618E3,1.102E4,2.51E2,5.3E1,1.77E2,6.9E1,5.549E3,8.526E3,2.494E3,1.67E2,8.4E1],"tree_param":{"num_deleted":"0","num_feature":"4","num_nodes":"15","size_leaf_vector":"0"}},{"base_weights":[2.5179878E-1,2.1008053E-1,3.003038E-1,1.3345012E-1,2.205085E-1,2.9116777E-1,4.8571867E-1,-7.129468E-2,1.5366983E-1,1.8827674E-1,2.4147595E-1,-8.8661544E-2,2.9427674E-1,5.3315884E-1,2.158601E-1],"categories":[],"categories_nodes":[],"categories_segments":[],"categories_sizes":[],"default_left":[0,0,1,1,1,0,0,0,0,0,0,0,0,0,0],"id":77,"left_children":[1,3,5,7,9,11,13,-1,-1,-1,-1,-1,-1,-1,-1],"loss_changes":[3.456775E1,7.3254395E0,1.325946E1,4.5855236E0,5.428711E0,8.932251E0,4.621704E0,0E0,0E0,0E0,0E0,0E0,0E0,0E0,0E0],"parents":[2147483647,0,0,1,1,2,2,3,3,4,4,5,5,6,6],"right_children":[2,4,6,8,10,12,14,-1,-1,-1,-1,-1,-1,-1,-1],"split_conditions":[1.4545E1,4.125E0,1.3805E2,4.465E1,5E-1,5.765E1,4.4025E1,-3.564734E-3,7.683492E-3,9.413837E-3,1.2073798E-2,-4.4330773E-3,1.4713838E-2,2.6657943E-2,1.0793005E-2],"split_indices":[2,2,3,3,1,3,2,0,0,0,0,0,0,0,0],"split_type":[0,0,0,0,0,0,0,0,0,0,0,0,0,0,0],"sum_hessian":[1.7113E4,9.203E3,7.91E3,1.104E3,8.099E3,7.541E3,3.69E2,9.9E1,1.005E3,3.196E3,4.903E3,6.1E1,7.48E3,3.13E2,5.6E1],"tree_param":{"num_deleted":"0","num_feature":"4","num_nodes":"15","size_leaf_vector":"0"}},{"base_weights":[2.4389865E-1,1.8029638E-1,2.7740157E-1,-4.2947944E-2,1.8448912E-1,2.2977741E-1,3.1206056E-1,9.1926254E-2,-4.056767E-1,9.1095254E-2,1.9310592E-1,2.1574312E-1,3.6703235E-1,2.8274906E-1,3.8886806E-1],"categories":[],"categories_nodes":[],"categories_segments":[],"categories_sizes":[],"default_left":[1,1,1,0,1,1,1,0,0,0,0,0,0,0,0],"id":78,"left_children":[1,3,5,7,9,11,13,-1,-1,-1,-1,-1,-1,-1,-1],"loss_changes":[3.651349E1,5.55188E0,1.8476135E1,5.4187946E0,4.661255E0,9.0455475E0,1.4526001E1,0E0,0E0,0E0,0E0,0E0,0E0,0E0,0E0],"parents":[2147483647,0,0,1,1,2,2,3,3,4,4,5,5,6,6],"right_children":[2,4,6,8,10,12,14,-1,-1,-1,-1,-1,-1,-1,-1],"split_conditions":[1.3210402E0,6.8447674E-3,5E-1,5.175E1,4.895E1,8.985811E0,6.5531807E0,4.596313E-3,-2.0283835E-2,4.554763E-3,9.655296E-3,1.0787156E-2,1.8351618E-2,1.4137453E-2,1.9443404E-2],"split_indices":[0,0,1,3,3,0,0,0,0,0,0,0,0,0,0],"split_type":[0,0,0,0,0,0,0,0,0,0,0,0,0,0,0],"sum_hessian":[1.7158E4,5.922E3,1.1236E4,1.09E2,5.813E3,4.736E3,6.5E3,8E1,2.9E1,4.92E2,5.321E3,4.299E3,4.37E2,4.708E3,1.792E3],"tree_param":{"num_deleted":"0","num_feature":"4","num_nodes":"15","size_leaf_vector":"0"}},{"base_weights":[2.2766855E-1,1.945018E-1,2.9453704E-1,1.24063715E-1,2.1136434E-1,2.5412846E-1,3.2648075E-1,1.2833826E-1,-7.3979306E-1,1.7908102E-1,2.3214237E-1,2.4206887E-1,4.3874556E-1,3.2376128E-1,6.8237007E-1],"categories":[],"categories_nodes":[],"categories_segments":[],"categories_sizes":[],"default_left":[1,1,1,1,1,0,1,0,0,0,0,0,0,0,0],"id":79,"left_children":[1,3,5,7,9,11,13,-1,-1,-1,-1,-1,-1,-1,-1],"loss_changes":[3.7749756E1,1.3511932E1,7.2100525E0,8.233433E0,6.1262817E0,5.4575806E0,2.8296814E0,0E0,0E0,0E0,0E0,0E0,0E0,0E0,0E0],"parents":[2147483647,0,0,1,1,2,2,3,3,4,4,5,5,6,6],"right_children":[2,4,6,8,10,12,14,-1,-1,-1,-1,-1,-1,-1,-1],"split_conditions":[4.655811E0,5.895E1,5E-1,4.280718E0,5E-1,1.4145E2,1.4565E2,6.416913E-3,-3.6989655E-2,8.954051E-3,1.1607119E-2,1.2103444E-2,2.1937279E-2,1.6188065E-2,3.4118503E-2],"split_indices":[0,3,1,0,1,3,3,0,0,0,0,0,0,0,0],"split_type":[0,0,0,0,0,0,0,0,0,0,0,0,0,0,0],"sum_hessian":[1.7046E4,1.1397E4,5.649E3,2.203E3,9.194E3,2.498E3,3.151E3,2.193E3,1E1,3.604E3,5.59E3,2.347E3,1.51E2,3.129E3,2.2E1],"tree_param":{"num_deleted":"0","num_feature":"4","num_nodes":"15","size_leaf_vector":"0"}},{"base_weights":[2.2143498E-1,1.5811642E-1,2.5401384E-1,1.5438405E-1,5.0081104E-1,2.429726E-1,3.8475484E-1,1.5209347E-2,1.6171296E-1,6.850789E-1,3.1811872E-1,2.2602688E-1,2.676513E-1,3.9208186E-1,-3.638295E-1],"categories":[],"categories_nodes":[],"categories_segments":[],"categories_sizes":[],"default_left":[1,1,0,1,1,0,1,0,0,0,0,0,0,0,0],"id":80,"left_children":[1,3,5,7,9,11,13,-1,-1,-1,-1,-1,-1,-1,-1],"loss_changes":[3.5137573E1,7.336151E0,1.6157959E1,5.847229E0,1.8692522E0,4.2820435E0,4.94191E0,0E0,0E0,0E0,0E0,0E0,0E0,0E0,0E0],"parents":[2147483647,0,0,1,1,2,2,3,3,4,4,5,5,6,6],"right_children":[2,4,6,8,10,12,14,-1,-1,-1,-1,-1,-1,-1,-1],"split_conditions":[1.2909231E0,1.225E1,3.2574997E1,4.54E1,1.1280177E0,1.1005E2,5.01E1,7.604674E-4,8.0856485E-3,3.4253947E-2,1.5905937E-2,1.1301344E-2,1.3382564E-2,1.9604092E-2,-1.8191475E-2],"split_indices":[0,2,2,3,0,3,2,0,0,0,0,0,0,0,0],"split_type":[0,0,0,0,0,0,0,0,0,0,0,0,0,0,0],"sum_hessian":[1.7052E4,5.795E3,1.1257E4,5.734E3,6.1E1,1.0383E4,8.74E2,2.87E2,5.447E3,2.9E1,3.2E1,6.162E3,4.221E3,8.66E2,8E0],"tree_param":{"num_deleted":"0","num_feature":"4","num_nodes":"15","size_leaf_vector":"0"}},{"base_weights":[2.061214E-1,1.4303935E-1,2.31297E-1,-7.836049E-2,1.481214E-1,1.9175482E-1,2.584817E-1,-1.7903124E-1,9.542763E-2,1.4239588E-1,2.496449E-1,1.7842849E-1,3.063203E-1,2.3221861E-1,2.9773262E-1],"categories":[],"categories_nodes":[],"categories_segments":[],"categories_sizes":[],"default_left":[0,0,1,1,1,0,0,0,0,0,0,0,0,0,0],"id":81,"left_children":[1,3,5,7,9,11,13,-1,-1,-1,-1,-1,-1,-1,-1],"loss_changes":[2.7082703E1,5.494545E0,1.30668335E1,1.9415762E0,2.7336502E0,7.5408783E0,7.381836E0,0E0,0E0,0E0,0E0,0E0,0E0,0E0,0E0],"parents":[2147483647,0,0,1,1,2,2,3,3,4,4,5,5,6,6],"right_children":[2,4,6,8,10,12,14,-1,-1,-1,-1,-1,-1,-1,-1],"split_conditions":[9.605E0,2.475E0,5E-1,4.525E1,7.7649994E1,3.0475E1,1.1005E2,-8.951562E-3,4.7713816E-3,7.1197944E-3,1.2482245E-2,8.921425E-3,1.5316016E-2,1.1610931E-2,1.4886632E-2],"split_indices":[2,2,1,3,3,2,3,0,0,0,0,0,0,0,0],"split_type":[0,0,0,0,0,0,0,0,0,0,0,0,0,0,0],"sum_hessian":[1.7073E4,4.872E3,1.2201E4,1.09E2,4.763E3,4.974E3,7.227E3,6.9E1,4E1,4.511E3,2.52E2,4.458E3,5.16E2,4.334E3,2.893E3],"tree_param":{"num_deleted":"0","num_feature":"4","num_nodes":"15","size_leaf_vector":"0"}},{"base_weights":[2.0153353E-1,1.5574786E-1,2.4102353E-1,1.5315098E-1,8.082354E-1,2.2363986E-1,3.0110282E-1,1.14588365E-1,1.7859584E-1,1.1772989E0,4.3504792E-1,1.8968554E-1,2.4850048E-1,2.8584313E-1,3.6855817E-1],"categories":[],"categories_nodes":[],"categories_segments":[],"categories_sizes":[],"default_left":[1,1,0,1,1,1,0,0,0,0,0,0,0,0,0],"id":82,"left_children":[1,3,5,7,9,11,13,-1,-1,-1,-1,-1,-1,-1,-1],"loss_changes":[3.0714172E1,1.3226608E1,9.468079E0,7.681122E0,3.7574444E0,5.933502E0,2.0006866E0,0E0,0E0,0E0,0E0,0E0,0E0,0E0,0E0],"parents":[2147483647,0,0,1,1,2,2,3,3,4,4,5,5,6,6],"right_children":[2,4,6,8,10,12,14,-1,-1,-1,-1,-1,-1,-1,-1],"split_conditions":[8.895E1,8.613456E0,1.24850006E2,5E-1,5E-1,5E-1,1.3805E2,5.7294182E-3,8.929792E-3,5.8864947E-2,2.1752397E-2,9.484277E-3,1.2425024E-2,1.4292157E-2,1.8427908E-2],"split_indices":[3,0,3,1,1,1,3,0,0,0,0,0,0,0,0],"split_type":[0,0,0,0,0,0,0,0,0,0,0,0,0,0,0],"sum_hessian":[1.7007E4,7.878E3,9.129E3,7.848E3,3E1,7.084E3,2.045E3,3.122E3,4.726E3,1.4E1,1.6E1,2.998E3,4.086E3,1.672E3,3.73E2],"tree_param":{"num_deleted":"0","num_feature":"4","num_nodes":"15","size_leaf_vector":"0"}},{"base_weights":[1.8526532E-1,1.3924702E-1,2.2457509E-1,-2.2843611E-1,1.4149934E-1,2.1355356E-1,3.3308378E-1,-5.393166E-1,-1.527771E-1,1.3969508E-1,5.1501036E-1,1.8546402E-1,2.3395437E-1,6.570852E-1,3.0513376E-1],"categories":[],"categories_nodes":[],"categories_segments":[],"categories_sizes":[],"default_left":[1,0,0,0,1,1,1,0,0,0,0,0,0,0,0],"id":83,"left_children":[1,3,5,7,9,11,13,-1,-1,-1,-1,-1,-1,-1,-1],"loss_changes":[3.0668701E1,6.5092163E0,1.0872864E1,1.0466087E0,5.167053E0,4.718689E0,7.42453E0,0E0,0E0,0E0,0E0,0E0,0E0,0E0,0E0],"parents":[2147483647,0,0,1,1,2,2,3,3,4,4,5,5,6,6],"right_children":[2,4,6,8,10,12,14,-1,-1,-1,-1,-1,-1,-1,-1],"split_conditions":[8.855E1,2.2150002E0,3.2375E1,1.885E0,2.68E1,5E-1,3.2475E1,-2.696583E-2,-7.6388554E-3,6.984754E-3,2.5750518E-2,9.273201E-3,1.1697719E-2,3.285426E-2,1.5256688E-2],"split_indices":[3,2,2,2,2,1,2,0,0,0,0,0,0,0,0],"split_type":[0,0,0,0,0,0,0,0,0,0,0,0,0,0,0],"sum_hessian":[1.697E4,7.82E3,9.15E3,4.7E1,7.773E3,8.309E3,8.41E2,8E0,3.9E1,7.737E3,3.6E1,3.5E3,4.809E3,6.5E1,7.76E2],"tree_param":{"num_deleted":"0","num_feature":"4","num_nodes":"15","size_leaf_vector":"0"}},{"base_weights":[1.7522381E-1,1.2119438E-1,2.0381622E-1,8.600154E-2,1.456333E-1,1.7746611E-1,2.3496704E-1,1.2307755E-1,2.950896E-2,-8.9726806E-2,1.5281719E-1,1.7942603E-1,-2.5095347E-1,6.761508E-1,2.2897981E-1],"categories":[],"categories_nodes":[],"categories_segments":[],"categories_sizes":[],"default_left":[0,1,1,1,0,1,1,0,0,0,0,0,0,0,0],"id":84,"left_children":[1,3,5,7,9,11,13,-1,-1,-1,-1,-1,-1,-1,-1],"loss_changes":[2.6373413E1,5.0756836E0,9.129364E0,5.0797653E0,5.914604E0,5.13089E0,1.3361542E1,0E0,0E0,0E0,0E0,0E0,0E0,0E0,0E0],"parents":[2147483647,0,0,1,1,2,2,3,3,4,4,5,5,6,6],"right_children":[2,4,6,8,10,12,14,-1,-1,-1,-1,-1,-1,-1,-1],"split_conditions":[1.066E1,5E-1,5.0829244E0,6.967974E-1,2.745E0,2.4E1,1.475E1,6.1538774E-3,1.475448E-3,-4.4863406E-3,7.6408596E-3,8.971302E-3,-1.2547674E-2,3.3807542E-2,1.1448991E-2],"split_indices":[2,1,0,0,2,2,2,0,0,0,0,0,0,0,0],"split_type":[0,0,0,0,0,0,0,0,0,0,0,0,0,0,0],"sum_hessian":[1.7087E4,5.915E3,1.1172E4,2.426E3,3.489E3,6.056E3,5.116E3,1.464E3,9.62E2,1.03E2,3.386E3,6.029E3,2.7E1,6.7E1,5.049E3],"tree_param":{"num_deleted":"0","num_feature":"4","num_nodes":"15","size_leaf_vector":"0"}},{"base_weights":[1.7520745E-1,1.2942953E-1,1.9933209E-1,1.2669279E-1,6.4117634E-1,1.9520158E-1,3.7557408E-1,-7.6983664E-3,1.3460813E-1,4.0555713E-1,9.3622166E-1,1.8488532E-1,2.434631E-1,4.0406692E-1,-3.6005765E-1],"categories":[],"categories_nodes":[],"categories_segments":[],"categories_sizes":[],"default_left":[1,1,0,1,0,1,1,0,0,0,0,0,0,0,0],"id":85,"left_children":[1,3,5,7,9,11,13,-1,-1,-1,-1,-1,-1,-1,-1],"loss_changes":[1.876178E1,8.145447E0,8.035522E0,6.217621E0,1.7753773E0,5.3749084E0,5.4693832E0,0E0,0E0,0E0,0E0,0E0,0E0,0E0,0E0],"parents":[2147483647,0,0,1,1,2,2,3,3,4,4,5,5,6,6],"right_children":[2,4,6,8,10,12,14,-1,-1,-1,-1,-1,-1,-1,-1],"split_conditions":[1.3183022E0,1.2725E1,4.1725E1,2.745E0,8.315E1,1.24850006E2,5.005E1,-3.8491833E-4,6.730407E-3,2.0277856E-2,4.6811085E-2,9.244266E-3,1.2173155E-2,2.0203346E-2,-1.8002883E-2],"split_indices":[0,2,2,2,3,3,2,0,0,0,0,0,0,0,0],"split_type":[0,0,0,0,0,0,